<?xml version="1.0"?>
<opencv_storage>
<opencv_ml_boost>
  <format>3</format>
  <is_classifier>1</is_classifier>
  <var_all>137</var_all>
  <var_count>136</var_count>
  <ord_var_count>137</ord_var_count>
  <cat_var_count>0</cat_var_count>
  <training_params>
    <boosting_type>RealAdaboost</boosting_type>
    <use_surrogates>0</use_surrogates>
    <max_categories>10</max_categories>
    <regression_accuracy>9.9999997764825821e-03</regression_accuracy>
    <max_depth>1</max_depth>
    <min_sample_count>10</min_sample_count>
    <cross_validation_folds>0</cross_validation_folds>
    <weight_trimming_rate>9.4999999999999996e-01</weight_trimming_rate></training_params>
  <global_var_idx>1</global_var_idx>
  <var_idx>
    0 1 2 3 4 5 6 7 8 9 10 11 12 13 14 15 16 17 18 19 20 21 22 23 24 25
    26 27 28 29 30 31 32 33 34 35 36 37 38 39 40 41 42 43 44 45 46 47 48
    49 50 51 52 53 54 55 56 57 58 59 60 61 62 63 64 65 66 67 68 69 70 71
    72 73 74 75 76 77 78 79 80 81 82 83 84 85 86 87 88 89 90 91 92 93 94
    95 96 97 98 99 100 101 102 103 104 105 106 107 108 109 110 111 112
    113 114 115 116 117 118 119 120 121 122 123 124 125 126 127 128 129
    130 131 132 133 134 135</var_idx>
  <var_type>
    0 0 0 0 0 0 0 0 0 0 0 0 0 0 0 0 0 0 0 0 0 0 0 0 0 0 0 0 0 0 0 0 0 0
    0 0 0 0 0 0 0 0 0 0 0 0 0 0 0 0 0 0 0 0 0 0 0 0 0 0 0 0 0 0 0 0 0 0
    0 0 0 0 0 0 0 0 0 0 0 0 0 0 0 0 0 0 0 0 0 0 0 0 0 0 0 0 0 0 0 0 0 0
    0 0 0 0 0 0 0 0 0 0 0 0 0 0 0 0 0 0 0 0 0 0 0 0 0 0 0 0 0 0 0 0 0 0
    0</var_type>
  <cat_ofs>
    0 0 0 0 0 0 0 0 0 0 0 0 0 0 0 0 0 0 0 0 0 0 0 0 0 0 0 0 0 0 0 0 0 0
    0 0 0 0 0 0 0 0 0 0 0 0 0 0 0 0 0 0 0 0 0 0 0 0 0 0 0 0 0 0 0 0 0 0
    0 0 0 0 0 0 0 0 0 0 0 0 0 0 0 0 0 0 0 0 0 0 0 0 0 0 0 0 0 0 0 0 0 0
    0 0 0 0 0 0 0 0 0 0 0 0 0 0 0 0 0 0 0 0 0 0 0 0 0 0 0 0 0 0 0 0 0 0
    0 0 0 0 0 0 0 0 0 0 0 0 0 0 0 0 0 0 0 0 0 0 0 0 0 0 0 0 0 0 0 0 0 0
    0 0 0 0 0 0 0 0 0 0 0 0 0 0 0 0 0 0 0 0 0 0 0 0 0 0 0 0 0 0 0 0 0 0
    0 0 0 0 0 0 0 0 0 0 0 0 0 0 0 0 0 0 0 0 0 0 0 0 0 0 0 0 0 0 0 0 0 0
    0 0 0 0 0 0 0 0 0 0 0 0 0 0 0 0 0 0 0 0 0 0 0 0 0 0 0 0 0 0 0 0 0 0</cat_ofs>
  <missing_subst>
    0. 0. 0. 0. 0. 0. 0. 0. 0. 0. 0. 0. 0. 0. 0. 0. 0. 0. 0. 0. 0. 0. 0.
    0. 0. 0. 0. 0. 0. 0. 0. 0. 0. 0. 0. 0. 0. 0. 0. 0. 0. 0. 0. 0. 0. 0.
    0. 0. 0. 0. 0. 0. 0. 0. 0. 0. 0. 0. 0. 0. 0. 0. 0. 0. 0. 0. 0. 0. 0.
    0. 0. 0. 0. 0. 0. 0. 0. 0. 0. 0. 0. 0. 0. 0. 0. 0. 0. 0. 0. 0. 0. 0.
    0. 0. 0. 0. 0. 0. 0. 0. 0. 0. 0. 0. 0. 0. 0. 0. 0. 0. 0. 0. 0. 0. 0.
    0. 0. 0. 0. 0. 0. 0. 0. 0. 0. 0. 0. 0. 0. 0. 0. 0. 0. 0. 0. 0. 0.</missing_subst>
  <ntrees>256</ntrees>
  <trees>
    <_>
      <nodes>
        <_>
          <depth>0</depth>
          <value>-5.5511151231257827e-17</value>
          <splits>
            <_><var>56</var>
              <quality>1.0850487649440765e-01</quality>
              <le>3.1476747989654541e-01</le></_></splits></_>
        <_>
          <depth>1</depth>
          <value>1.5450242096030783e-01</value></_>
        <_>
          <depth>1</depth>
          <value>-8.8289199141239705e-01</value></_></nodes></_>
    <_>
      <nodes>
        <_>
          <depth>0</depth>
          <value>2.2703281425477266e-09</value>
          <splits>
            <_><var>0</var>
              <quality>1.0253553837537766e-01</quality>
              <le>2.9484498500823975e-01</le></_></splits></_>
        <_>
          <depth>1</depth>
          <value>1.6256542537799257e-01</value></_>
        <_>
          <depth>1</depth>
          <value>-7.5189898180046699e-01</value></_></nodes></_>
    <_>
      <nodes>
        <_>
          <depth>0</depth>
          <value>9.3415674672667707e-03</value>
          <splits>
            <_><var>131</var>
              <quality>9.7140744328498840e-02</quality>
              <le>3.1476747989654541e-01</le></_></splits></_>
        <_>
          <depth>1</depth>
          <value>1.5336883765030981e-01</value></_>
        <_>
          <depth>1</depth>
          <value>-8.2260531804754067e-01</value></_></nodes></_>
    <_>
      <nodes>
        <_>
          <depth>0</depth>
          <value>2.1007560088887229e-02</value>
          <splits>
            <_><var>83</var>
              <quality>7.5736999511718750e-02</quality>
              <le>3.5484451055526733e-01</le></_></splits></_>
        <_>
          <depth>1</depth>
          <value>1.2251111961263911e-01</value></_>
        <_>
          <depth>1</depth>
          <value>-9.6829819589460198e-01</value></_></nodes></_>
    <_>
      <nodes>
        <_>
          <depth>0</depth>
          <value>1.3434040434266790e-02</value>
          <splits>
            <_><var>27</var>
              <quality>7.5569629669189453e-02</quality>
              <le>3.1976699829101562e-01</le></_></splits></_>
        <_>
          <depth>1</depth>
          <value>1.3383215615574801e-01</value></_>
        <_>
          <depth>1</depth>
          <value>-7.6431462049089283e-01</value></_></nodes></_>
    <_>
      <nodes>
        <_>
          <depth>0</depth>
          <value>1.2047728436080608e-02</value>
          <splits>
            <_><var>115</var>
              <quality>6.7116566002368927e-02</quality>
              <le>4.2961198091506958e-01</le></_></splits></_>
        <_>
          <depth>1</depth>
          <value>1.0016600906545430e-01</value></_>
        <_>
          <depth>1</depth>
          <value>-1.0742561904367840e+00</value></_></nodes></_>
    <_>
      <nodes>
        <_>
          <depth>0</depth>
          <value>-5.9063890977741054e-03</value>
          <splits>
            <_><var>103</var>
              <quality>5.5362883955240250e-02</quality>
              <le>3.0492252111434937e-01</le></_></splits></_>
        <_>
          <depth>1</depth>
          <value>9.8236214399048505e-02</value></_>
        <_>
          <depth>1</depth>
          <value>-6.3772015555469674e-01</value></_></nodes></_>
    <_>
      <nodes>
        <_>
          <depth>0</depth>
          <value>4.1316929409142373e-03</value>
          <splits>
            <_><var>40</var>
              <quality>5.3501676768064499e-02</quality>
              <le>3.2468950748443604e-01</le></_></splits></_>
        <_>
          <depth>1</depth>
          <value>9.8889058620043241e-02</value></_>
        <_>
          <depth>1</depth>
          <value>-6.7580230548776976e-01</value></_></nodes></_>
    <_>
      <nodes>
        <_>
          <depth>0</depth>
          <value>-1.1063585475019064e-03</value>
          <splits>
            <_><var>20</var>
              <quality>3.8744550198316574e-02</quality>
              <le>3.9468950033187866e-01</le></_></splits></_>
        <_>
          <depth>1</depth>
          <value>7.0080867536154182e-02</value></_>
        <_>
          <depth>1</depth>
          <value>-6.4800030683138743e-01</value></_></nodes></_>
    <_>
      <nodes>
        <_>
          <depth>0</depth>
          <value>1.8791090623235121e-03</value>
          <splits>
            <_><var>79</var>
              <quality>3.7197411060333252e-02</quality>
              <le>3.9468950033187866e-01</le></_></splits></_>
        <_>
          <depth>1</depth>
          <value>5.9917663008158116e-02</value></_>
        <_>
          <depth>1</depth>
          <value>-8.0754948065116805e-01</value></_></nodes></_>
    <_>
      <nodes>
        <_>
          <depth>0</depth>
          <value>5.1877990638361741e-03</value>
          <splits>
            <_><var>4</var>
              <quality>3.3702414482831955e-02</quality>
              <le>3.7461251020431519e-01</le></_></splits></_>
        <_>
          <depth>1</depth>
          <value>6.5542294920405489e-02</value></_>
        <_>
          <depth>1</depth>
          <value>-6.6278384281598879e-01</value></_></nodes></_>
    <_>
      <nodes>
        <_>
          <depth>0</depth>
          <value>1.6975542981677704e-03</value>
          <splits>
            <_><var>52</var>
              <quality>3.3938299864530563e-02</quality>
              <le>4.1984400153160095e-01</le></_></splits></_>
        <_>
          <depth>1</depth>
          <value>5.3138606272385563e-02</value></_>
        <_>
          <depth>1</depth>
          <value>-8.4710116942329161e-01</value></_></nodes></_>
    <_>
      <nodes>
        <_>
          <depth>0</depth>
          <value>2.8092801783347102e-03</value>
          <splits>
            <_><var>95</var>
              <quality>3.0506629496812820e-02</quality>
              <le>3.5484451055526733e-01</le></_></splits></_>
        <_>
          <depth>1</depth>
          <value>6.1301865022004666e-02</value></_>
        <_>
          <depth>1</depth>
          <value>-6.0972987967520276e-01</value></_></nodes></_>
    <_>
      <nodes>
        <_>
          <depth>0</depth>
          <value>-7.6194273805633046e-03</value>
          <splits>
            <_><var>121</var>
              <quality>2.7296373620629311e-02</quality>
              <le>4.4468998908996582e-01</le></_></splits></_>
        <_>
          <depth>1</depth>
          <value>3.0678924315300001e-02</value></_>
        <_>
          <depth>1</depth>
          <value>-9.6290516580298235e-01</value></_></nodes></_>
    <_>
      <nodes>
        <_>
          <depth>0</depth>
          <value>-8.3793680441485467e-04</value>
          <splits>
            <_><var>63</var>
              <quality>2.4899519979953766e-02</quality>
              <le>3.5484451055526733e-01</le></_></splits></_>
        <_>
          <depth>1</depth>
          <value>5.4811745342930540e-02</value></_>
        <_>
          <depth>1</depth>
          <value>-5.0228770586020777e-01</value></_></nodes></_>
    <_>
      <nodes>
        <_>
          <depth>0</depth>
          <value>1.3348111553269362e-03</value>
          <splits>
            <_><var>47</var>
              <quality>2.4418516084551811e-02</quality>
              <le>2.5000000372529030e-02</le></_></splits></_>
        <_>
          <depth>1</depth>
          <value>-1.6872017223279837e-01</value></_>
        <_>
          <depth>1</depth>
          <value>1.5234918492733066e-01</value></_></nodes></_>
    <_>
      <nodes>
        <_>
          <depth>0</depth>
          <value>-6.0306209205845613e-03</value>
          <splits>
            <_><var>47</var>
              <quality>2.9485350474715233e-02</quality>
              <le>4.2961198091506958e-01</le></_></splits></_>
        <_>
          <depth>1</depth>
          <value>3.9079340861670663e-02</value></_>
        <_>
          <depth>1</depth>
          <value>-8.2656656712193588e-01</value></_></nodes></_>
    <_>
      <nodes>
        <_>
          <depth>0</depth>
          <value>1.6736958531668787e-03</value>
          <splits>
            <_><var>73</var>
              <quality>2.3364407941699028e-02</quality>
              <le>4.7453451156616211e-01</le></_></splits></_>
        <_>
          <depth>1</depth>
          <value>3.5159890715052607e-02</value></_>
        <_>
          <depth>1</depth>
          <value>-9.0073842399246717e-01</value></_></nodes></_>
    <_>
      <nodes>
        <_>
          <depth>0</depth>
          <value>-1.3853937646120284e-03</value>
          <splits>
            <_><var>10</var>
              <quality>2.3865047842264175e-02</quality>
              <le>3.9976751804351807e-01</le></_></splits></_>
        <_>
          <depth>1</depth>
          <value>4.5878212876472077e-02</value></_>
        <_>
          <depth>1</depth>
          <value>-5.7627925483478859e-01</value></_></nodes></_>
    <_>
      <nodes>
        <_>
          <depth>0</depth>
          <value>9.4560445373775555e-05</value>
          <splits>
            <_><var>95</var>
              <quality>2.0497635006904602e-02</quality>
              <le>2.5000000372529030e-02</le></_></splits></_>
        <_>
          <depth>1</depth>
          <value>-1.6700656172182268e-01</value></_>
        <_>
          <depth>1</depth>
          <value>1.2770333499285536e-01</value></_></nodes></_>
    <_>
      <nodes>
        <_>
          <depth>0</depth>
          <value>-2.0630488286435676e-02</value>
          <splits>
            <_><var>101</var>
              <quality>2.1110085770487785e-02</quality>
              <le>4.6468949317932129e-01</le></_></splits></_>
        <_>
          <depth>1</depth>
          <value>1.0178593949647194e-02</value></_>
        <_>
          <depth>1</depth>
          <value>-9.2492901364185565e-01</value></_></nodes></_>
    <_>
      <nodes>
        <_>
          <depth>0</depth>
          <value>2.6395149210708731e-03</value>
          <splits>
            <_><var>39</var>
              <quality>1.9974149763584137e-02</quality>
              <le>5.4961252212524414e-01</le></_></splits></_>
        <_>
          <depth>1</depth>
          <value>2.9713395640784099e-02</value></_>
        <_>
          <depth>1</depth>
          <value>-1.0301423585114085e+00</value></_></nodes></_>
    <_>
      <nodes>
        <_>
          <depth>0</depth>
          <value>1.1790905313943262e-03</value>
          <splits>
            <_><var>129</var>
              <quality>1.6976295039057732e-02</quality>
              <le>3.8468950986862183e-01</le></_></splits></_>
        <_>
          <depth>1</depth>
          <value>3.7602734625985956e-02</value></_>
        <_>
          <depth>1</depth>
          <value>-5.3508700136497878e-01</value></_></nodes></_>
    <_>
      <nodes>
        <_>
          <depth>0</depth>
          <value>1.6625186257670167e-03</value>
          <splits>
            <_><var>131</var>
              <quality>1.7848847433924675e-02</quality>
              <le>2.9484498500823975e-01</le></_></splits></_>
        <_>
          <depth>1</depth>
          <value>-5.1725247731476479e-02</value></_>
        <_>
          <depth>1</depth>
          <value>3.6850951310530478e-01</value></_></nodes></_>
    <_>
      <nodes>
        <_>
          <depth>0</depth>
          <value>-3.0507765740967947e-03</value>
          <splits>
            <_><var>40</var>
              <quality>1.7006095498800278e-02</quality>
              <le>3.1976699829101562e-01</le></_></splits></_>
        <_>
          <depth>1</depth>
          <value>-5.2959177666734969e-02</value></_>
        <_>
          <depth>1</depth>
          <value>3.7208543555293799e-01</value></_></nodes></_>
    <_>
      <nodes>
        <_>
          <depth>0</depth>
          <value>-4.5512049836358461e-03</value>
          <splits>
            <_><var>33</var>
              <quality>1.9104601815342903e-02</quality>
              <le>4.1984400153160095e-01</le></_></splits></_>
        <_>
          <depth>1</depth>
          <value>3.0765103752315764e-02</value></_>
        <_>
          <depth>1</depth>
          <value>-6.5294896676302727e-01</value></_></nodes></_>
    <_>
      <nodes>
        <_>
          <depth>0</depth>
          <value>2.5070700370171026e-03</value>
          <splits>
            <_><var>92</var>
              <quality>1.4902919530868530e-02</quality>
              <le>2.6476749777793884e-01</le></_></splits></_>
        <_>
          <depth>1</depth>
          <value>6.5213300802581198e-02</value></_>
        <_>
          <depth>1</depth>
          <value>-2.5323706207155500e-01</value></_></nodes></_>
    <_>
      <nodes>
        <_>
          <depth>0</depth>
          <value>6.0406385150219453e-03</value>
          <splits>
            <_><var>74</var>
              <quality>1.5471117570996284e-02</quality>
              <le>1.2492199987173080e-01</le></_></splits></_>
        <_>
          <depth>1</depth>
          <value>-8.7100557244596644e-02</value></_>
        <_>
          <depth>1</depth>
          <value>1.8293800297862040e-01</value></_></nodes></_>
    <_>
      <nodes>
        <_>
          <depth>0</depth>
          <value>-1.1999697020479301e-02</value>
          <splits>
            <_><var>71</var>
              <quality>1.5405880287289619e-02</quality>
              <le>5.0468999147415161e-01</le></_></splits></_>
        <_>
          <depth>1</depth>
          <value>9.7206877783921862e-03</value></_>
        <_>
          <depth>1</depth>
          <value>-9.7638926940552961e-01</value></_></nodes></_>
    <_>
      <nodes>
        <_>
          <depth>0</depth>
          <value>1.3349363256669072e-03</value>
          <splits>
            <_><var>42</var>
              <quality>1.5390614978969097e-02</quality>
              <le>3.0492252111434937e-01</le></_></splits></_>
        <_>
          <depth>1</depth>
          <value>5.2193764979553428e-02</value></_>
        <_>
          <depth>1</depth>
          <value>-3.2810559486313923e-01</value></_></nodes></_>
    <_>
      <nodes>
        <_>
          <depth>0</depth>
          <value>-2.1039647676071235e-03</value>
          <splits>
            <_><var>41</var>
              <quality>1.7726706340909004e-02</quality>
              <le>2.0992200076580048e-01</le></_></splits></_>
        <_>
          <depth>1</depth>
          <value>-8.1662736394932683e-02</value></_>
        <_>
          <depth>1</depth>
          <value>2.3729786508745332e-01</value></_></nodes></_>
    <_>
      <nodes>
        <_>
          <depth>0</depth>
          <value>3.6937289110389742e-03</value>
          <splits>
            <_><var>107</var>
              <quality>1.5608588233590126e-02</quality>
              <le>4.9984449148178101e-01</le></_></splits></_>
        <_>
          <depth>1</depth>
          <value>3.0271763994060528e-02</value></_>
        <_>
          <depth>1</depth>
          <value>-7.1275150012650257e-01</value></_></nodes></_>
    <_>
      <nodes>
        <_>
          <depth>0</depth>
          <value>-3.7726364801076526e-03</value>
          <splits>
            <_><var>108</var>
              <quality>1.6210095956921577e-02</quality>
              <le>2.7484449744224548e-01</le></_></splits></_>
        <_>
          <depth>1</depth>
          <value>-6.2041980874727953e-02</value></_>
        <_>
          <depth>1</depth>
          <value>2.9770881542137329e-01</value></_></nodes></_>
    <_>
      <nodes>
        <_>
          <depth>0</depth>
          <value>3.0128469814588430e-03</value>
          <splits>
            <_><var>3</var>
              <quality>1.6531901434063911e-02</quality>
              <le>4.3984448909759521e-01</le></_></splits></_>
        <_>
          <depth>1</depth>
          <value>3.5802224510485099e-02</value></_>
        <_>
          <depth>1</depth>
          <value>-5.8703710184042146e-01</value></_></nodes></_>
    <_>
      <nodes>
        <_>
          <depth>0</depth>
          <value>6.5059087003366202e-04</value>
          <splits>
            <_><var>0</var>
              <quality>2.0219141617417336e-02</quality>
              <le>2.5000000372529030e-02</le></_></splits></_>
        <_>
          <depth>1</depth>
          <value>-1.5859570510022503e-01</value></_>
        <_>
          <depth>1</depth>
          <value>1.3617945012208338e-01</value></_></nodes></_>
    <_>
      <nodes>
        <_>
          <depth>0</depth>
          <value>4.2332025316259092e-03</value>
          <splits>
            <_><var>128</var>
              <quality>1.5885856002569199e-02</quality>
              <le>3.5484451055526733e-01</le></_></splits></_>
        <_>
          <depth>1</depth>
          <value>4.1680467783809960e-02</value></_>
        <_>
          <depth>1</depth>
          <value>-4.7488220393751096e-01</value></_></nodes></_>
    <_>
      <nodes>
        <_>
          <depth>0</depth>
          <value>-1.2522643649757485e-03</value>
          <splits>
            <_><var>11</var>
              <quality>1.6896964982151985e-02</quality>
              <le>4.6468949317932129e-01</le></_></splits></_>
        <_>
          <depth>1</depth>
          <value>2.8241292579204342e-02</value></_>
        <_>
          <depth>1</depth>
          <value>-7.0021287501000273e-01</value></_></nodes></_>
    <_>
      <nodes>
        <_>
          <depth>0</depth>
          <value>4.5419678077694969e-04</value>
          <splits>
            <_><var>77</var>
              <quality>1.5790235251188278e-02</quality>
              <le>3.9976751804351807e-01</le></_></splits></_>
        <_>
          <depth>1</depth>
          <value>3.4118370960081426e-02</value></_>
        <_>
          <depth>1</depth>
          <value>-5.3953300205646049e-01</value></_></nodes></_>
    <_>
      <nodes>
        <_>
          <depth>0</depth>
          <value>6.3767663055164638e-04</value>
          <splits>
            <_><var>114</var>
              <quality>1.5041790902614594e-02</quality>
              <le>4.7461250424385071e-01</le></_></splits></_>
        <_>
          <depth>1</depth>
          <value>2.4849698205393417e-02</value></_>
        <_>
          <depth>1</depth>
          <value>-7.7739279092281754e-01</value></_></nodes></_>
    <_>
      <nodes>
        <_>
          <depth>0</depth>
          <value>1.3622634807804609e-03</value>
          <splits>
            <_><var>28</var>
              <quality>1.3723166659474373e-02</quality>
              <le>4.9984449148178101e-01</le></_></splits></_>
        <_>
          <depth>1</depth>
          <value>2.5407977214776278e-02</value></_>
        <_>
          <depth>1</depth>
          <value>-6.8866921593888852e-01</value></_></nodes></_>
    <_>
      <nodes>
        <_>
          <depth>0</depth>
          <value>-4.4290985716303257e-04</value>
          <splits>
            <_><var>89</var>
              <quality>1.2769008055329323e-02</quality>
              <le>4.4468998908996582e-01</le></_></splits></_>
        <_>
          <depth>1</depth>
          <value>2.3906992280717947e-02</value></_>
        <_>
          <depth>1</depth>
          <value>-6.1774448982121000e-01</value></_></nodes></_>
    <_>
      <nodes>
        <_>
          <depth>0</depth>
          <value>7.3470671339719679e-04</value>
          <splits>
            <_><var>92</var>
              <quality>1.3281434774398804e-02</quality>
              <le>8.5000000894069672e-02</le></_></splits></_>
        <_>
          <depth>1</depth>
          <value>-1.0428198713238247e-01</value></_>
        <_>
          <depth>1</depth>
          <value>1.3428978225281188e-01</value></_></nodes></_>
    <_>
      <nodes>
        <_>
          <depth>0</depth>
          <value>-8.5209604898716009e-03</value>
          <splits>
            <_><var>96</var>
              <quality>1.4753102324903011e-02</quality>
              <le>3.1476747989654541e-01</le></_></splits></_>
        <_>
          <depth>1</depth>
          <value>4.8230352966246295e-02</value></_>
        <_>
          <depth>1</depth>
          <value>-2.8888802807966735e-01</value></_></nodes></_>
    <_>
      <nodes>
        <_>
          <depth>0</depth>
          <value>1.7263399249459951e-03</value>
          <splits>
            <_><var>86</var>
              <quality>1.2056402862071991e-02</quality>
              <le>5.2968895435333252e-01</le></_></splits></_>
        <_>
          <depth>1</depth>
          <value>1.6864003728250143e-02</value></_>
        <_>
          <depth>1</depth>
          <value>-1.2097478321752058e+00</value></_></nodes></_>
    <_>
      <nodes>
        <_>
          <depth>0</depth>
          <value>6.2517878163373690e-04</value>
          <splits>
            <_><var>56</var>
              <quality>1.3457219116389751e-02</quality>
              <le>3.0492252111434937e-01</le></_></splits></_>
        <_>
          <depth>1</depth>
          <value>-4.1164257904561047e-02</value></_>
        <_>
          <depth>1</depth>
          <value>3.5384212246264501e-01</value></_></nodes></_>
    <_>
      <nodes>
        <_>
          <depth>0</depth>
          <value>-1.1410746117719332e-03</value>
          <splits>
            <_><var>56</var>
              <quality>1.3573382981121540e-02</quality>
              <le>5.6476652622222900e-01</le></_></splits></_>
        <_>
          <depth>1</depth>
          <value>1.4290324294306945e-02</value></_>
        <_>
          <depth>1</depth>
          <value>-1.6367144459268712e+00</value></_></nodes></_>
    <_>
      <nodes>
        <_>
          <depth>0</depth>
          <value>8.0818827032402851e-04</value>
          <splits>
            <_><var>14</var>
              <quality>1.3647268526256084e-02</quality>
              <le>2.5492250919342041e-01</le></_></splits></_>
        <_>
          <depth>1</depth>
          <value>6.2022385083796233e-02</value></_>
        <_>
          <depth>1</depth>
          <value>-2.3859951286603151e-01</value></_></nodes></_>
    <_>
      <nodes>
        <_>
          <depth>0</depth>
          <value>7.3009021624232957e-04</value>
          <splits>
            <_><var>27</var>
              <quality>1.5971843153238297e-02</quality>
              <le>3.1976699829101562e-01</le></_></splits></_>
        <_>
          <depth>1</depth>
          <value>-4.8700967388644878e-02</value></_>
        <_>
          <depth>1</depth>
          <value>3.5538206340534589e-01</value></_></nodes></_>
    <_>
      <nodes>
        <_>
          <depth>0</depth>
          <value>5.4121986486498877e-04</value>
          <splits>
            <_><var>120</var>
              <quality>1.3534363359212875e-02</quality>
              <le>4.7461250424385071e-01</le></_></splits></_>
        <_>
          <depth>1</depth>
          <value>2.2637083085212270e-02</value></_>
        <_>
          <depth>1</depth>
          <value>-7.6571102411424596e-01</value></_></nodes></_>
    <_>
      <nodes>
        <_>
          <depth>0</depth>
          <value>1.3813692386920736e-03</value>
          <splits>
            <_><var>23</var>
              <quality>1.3097041286528111e-02</quality>
              <le>3.1476747989654541e-01</le></_></splits></_>
        <_>
          <depth>1</depth>
          <value>4.9162690443180258e-02</value></_>
        <_>
          <depth>1</depth>
          <value>-2.9571868610489238e-01</value></_></nodes></_>
    <_>
      <nodes>
        <_>
          <depth>0</depth>
          <value>-1.2929079923491582e-03</value>
          <splits>
            <_><var>106</var>
              <quality>1.2273267842829227e-02</quality>
              <le>1.6984499990940094e-01</le></_></splits></_>
        <_>
          <depth>1</depth>
          <value>-7.3999386767770889e-02</value></_>
        <_>
          <depth>1</depth>
          <value>1.7861466252723279e-01</value></_></nodes></_>
    <_>
      <nodes>
        <_>
          <depth>0</depth>
          <value>-3.8173377514377506e-03</value>
          <splits>
            <_><var>101</var>
              <quality>1.3497247360646725e-02</quality>
              <le>2.1484449505805969e-01</le></_></splits></_>
        <_>
          <depth>1</depth>
          <value>6.2870211135475890e-02</value></_>
        <_>
          <depth>1</depth>
          <value>-2.2044869486787269e-01</value></_></nodes></_>
    <_>
      <nodes>
        <_>
          <depth>0</depth>
          <value>2.4865477508736679e-03</value>
          <splits>
            <_><var>101</var>
              <quality>1.2272503226995468e-02</quality>
              <le>3.3976650238037109e-01</le></_></splits></_>
        <_>
          <depth>1</depth>
          <value>-3.2585964585659176e-02</value></_>
        <_>
          <depth>1</depth>
          <value>3.8939140899004460e-01</value></_></nodes></_>
    <_>
      <nodes>
        <_>
          <depth>0</depth>
          <value>-1.9538007817283087e-03</value>
          <splits>
            <_><var>48</var>
              <quality>1.2155251577496529e-02</quality>
              <le>4.0492248535156250e-01</le></_></splits></_>
        <_>
          <depth>1</depth>
          <value>2.2214524835593035e-02</value></_>
        <_>
          <depth>1</depth>
          <value>-5.9200193592238026e-01</value></_></nodes></_>
    <_>
      <nodes>
        <_>
          <depth>0</depth>
          <value>2.5791339364158133e-03</value>
          <splits>
            <_><var>15</var>
              <quality>1.1878797784447670e-02</quality>
              <le>5.3992152214050293e-01</le></_></splits></_>
        <_>
          <depth>1</depth>
          <value>1.8566318061801722e-02</value></_>
        <_>
          <depth>1</depth>
          <value>-1.0434829211026622e+00</value></_></nodes></_>
    <_>
      <nodes>
        <_>
          <depth>0</depth>
          <value>-3.8376862440091659e-05</value>
          <splits>
            <_><var>12</var>
              <quality>1.0951568372547626e-02</quality>
              <le>2.5000000372529030e-02</le></_></splits></_>
        <_>
          <depth>1</depth>
          <value>-1.1928515214681180e-01</value></_>
        <_>
          <depth>1</depth>
          <value>9.7405004743254545e-02</value></_></nodes></_>
    <_>
      <nodes>
        <_>
          <depth>0</depth>
          <value>-2.0962107274573923e-03</value>
          <splits>
            <_><var>117</var>
              <quality>1.0632030665874481e-02</quality>
              <le>5.4961252212524414e-01</le></_></splits></_>
        <_>
          <depth>1</depth>
          <value>1.0236629243698435e-02</value></_>
        <_>
          <depth>1</depth>
          <value>-1.5240258902308548e+00</value></_></nodes></_>
    <_>
      <nodes>
        <_>
          <depth>0</depth>
          <value>-2.3846405330571702e-04</value>
          <splits>
            <_><var>97</var>
              <quality>1.0513545945286751e-02</quality>
              <le>5.9945702552795410e-01</le></_></splits></_>
        <_>
          <depth>1</depth>
          <value>-1.3148880345625932e-02</value></_>
        <_>
          <depth>1</depth>
          <value>1.2823193702854905e+00</value></_></nodes></_>
    <_>
      <nodes>
        <_>
          <depth>0</depth>
          <value>-1.4694435513319310e-03</value>
          <splits>
            <_><var>102</var>
              <quality>1.1327203363180161e-02</quality>
              <le>3.5484451055526733e-01</le></_></splits></_>
        <_>
          <depth>1</depth>
          <value>3.3543221797046371e-02</value></_>
        <_>
          <depth>1</depth>
          <value>-3.5651298127485370e-01</value></_></nodes></_>
    <_>
      <nodes>
        <_>
          <depth>0</depth>
          <value>2.4342082179217711e-04</value>
          <splits>
            <_><var>115</var>
              <quality>1.0211899876594543e-02</quality>
              <le>1.5492250025272369e-01</le></_></splits></_>
        <_>
          <depth>1</depth>
          <value>-6.4929425391731382e-02</value></_>
        <_>
          <depth>1</depth>
          <value>1.6681833504258642e-01</value></_></nodes></_>
    <_>
      <nodes>
        <_>
          <depth>0</depth>
          <value>3.0590563551373207e-03</value>
          <splits>
            <_><var>62</var>
              <quality>1.1089795269072056e-02</quality>
              <le>3.1476747989654541e-01</le></_></splits></_>
        <_>
          <depth>1</depth>
          <value>4.6551136565524003e-02</value></_>
        <_>
          <depth>1</depth>
          <value>-2.7177895088943943e-01</value></_></nodes></_>
    <_>
      <nodes>
        <_>
          <depth>0</depth>
          <value>-2.8061839173603078e-03</value>
          <splits>
            <_><var>47</var>
              <quality>9.6890898421406746e-03</quality>
              <le>5.1492148637771606e-01</le></_></splits></_>
        <_>
          <depth>1</depth>
          <value>-1.5021246725973107e-02</value></_>
        <_>
          <depth>1</depth>
          <value>1.1868415572557964e+00</value></_></nodes></_>
    <_>
      <nodes>
        <_>
          <depth>0</depth>
          <value>-5.6289527976469056e-03</value>
          <splits>
            <_><var>33</var>
              <quality>1.0274458676576614e-02</quality>
              <le>6.0000002384185791e-02</le></_></splits></_>
        <_>
          <depth>1</depth>
          <value>-1.0359580782980231e-01</value></_>
        <_>
          <depth>1</depth>
          <value>1.0512978875956001e-01</value></_></nodes></_>
    <_>
      <nodes>
        <_>
          <depth>0</depth>
          <value>-8.4182894866524952e-04</value>
          <splits>
            <_><var>32</var>
              <quality>1.3579369522631168e-02</quality>
              <le>6.0000002384185791e-02</le></_></splits></_>
        <_>
          <depth>1</depth>
          <value>1.1529340565152774e-01</value></_>
        <_>
          <depth>1</depth>
          <value>-1.2511511033772998e-01</value></_></nodes></_>
    <_>
      <nodes>
        <_>
          <depth>0</depth>
          <value>4.3975732374600883e-04</value>
          <splits>
            <_><var>30</var>
              <quality>1.1295217089354992e-02</quality>
              <le>2.5000000372529030e-02</le></_></splits></_>
        <_>
          <depth>1</depth>
          <value>-1.1983058578952911e-01</value></_>
        <_>
          <depth>1</depth>
          <value>1.0011887855285105e-01</value></_></nodes></_>
    <_>
      <nodes>
        <_>
          <depth>0</depth>
          <value>1.0244620788956516e-04</value>
          <splits>
            <_><var>24</var>
              <quality>1.2023531831800938e-02</quality>
              <le>8.5000000894069672e-02</le></_></splits></_>
        <_>
          <depth>1</depth>
          <value>1.0551132814015991e-01</value></_>
        <_>
          <depth>1</depth>
          <value>-1.2100155743294923e-01</value></_></nodes></_>
    <_>
      <nodes>
        <_>
          <depth>0</depth>
          <value>-6.7975195975900689e-04</value>
          <splits>
            <_><var>111</var>
              <quality>1.0828836821019650e-02</quality>
              <le>5.3468847274780273e-01</le></_></splits></_>
        <_>
          <depth>1</depth>
          <value>1.8307959169046029e-02</value></_>
        <_>
          <depth>1</depth>
          <value>-6.9485960844825989e-01</value></_></nodes></_>
    <_>
      <nodes>
        <_>
          <depth>0</depth>
          <value>-7.3293403269293113e-04</value>
          <splits>
            <_><var>59</var>
              <quality>9.7191762179136276e-03</quality>
              <le>6.0000002384185791e-02</le></_></splits></_>
        <_>
          <depth>1</depth>
          <value>-9.0114696636650810e-02</value></_>
        <_>
          <depth>1</depth>
          <value>1.1454186744403440e-01</value></_></nodes></_>
    <_>
      <nodes>
        <_>
          <depth>0</depth>
          <value>7.5115856853542255e-04</value>
          <splits>
            <_><var>55</var>
              <quality>1.1368598788976669e-02</quality>
              <le>1.8992251157760620e-01</le></_></splits></_>
        <_>
          <depth>1</depth>
          <value>6.6435867012514666e-02</value></_>
        <_>
          <depth>1</depth>
          <value>-1.8377169463956927e-01</value></_></nodes></_>
    <_>
      <nodes>
        <_>
          <depth>0</depth>
          <value>-7.6072083748477900e-04</value>
          <splits>
            <_><var>86</var>
              <quality>9.6436077728867531e-03</quality>
              <le>1.2492199987173080e-01</le></_></splits></_>
        <_>
          <depth>1</depth>
          <value>-7.5657477091114866e-02</value></_>
        <_>
          <depth>1</depth>
          <value>1.3587992352053113e-01</value></_></nodes></_>
    <_>
      <nodes>
        <_>
          <depth>0</depth>
          <value>4.5768252733995106e-04</value>
          <splits>
            <_><var>93</var>
              <quality>1.2687092646956444e-02</quality>
              <le>3.1976699829101562e-01</le></_></splits></_>
        <_>
          <depth>1</depth>
          <value>4.0672205851213332e-02</value></_>
        <_>
          <depth>1</depth>
          <value>-3.4490215161334226e-01</value></_></nodes></_>
    <_>
      <nodes>
        <_>
          <depth>0</depth>
          <value>-8.9590070831597698e-04</value>
          <splits>
            <_><var>30</var>
              <quality>9.0419296175241470e-03</quality>
              <le>6.2945652008056641e-01</le></_></splits></_>
        <_>
          <depth>1</depth>
          <value>1.1470381018284334e-02</value></_>
        <_>
          <depth>1</depth>
          <value>-1.0218144982744926e+00</value></_></nodes></_>
    <_>
      <nodes>
        <_>
          <depth>0</depth>
          <value>5.2936197881799016e-05</value>
          <splits>
            <_><var>8</var>
              <quality>8.9033031836152077e-03</quality>
              <le>1.5492250025272369e-01</le></_></splits></_>
        <_>
          <depth>1</depth>
          <value>6.7311819258097094e-02</value></_>
        <_>
          <depth>1</depth>
          <value>-1.4042423881906962e-01</value></_></nodes></_>
    <_>
      <nodes>
        <_>
          <depth>0</depth>
          <value>7.0994060303574671e-04</value>
          <splits>
            <_><var>22</var>
              <quality>9.9644530564546585e-03</quality>
              <le>8.5000000894069672e-02</le></_></splits></_>
        <_>
          <depth>1</depth>
          <value>-9.6823896619536637e-02</value></_>
        <_>
          <depth>1</depth>
          <value>1.0901472501497966e-01</value></_></nodes></_>
    <_>
      <nodes>
        <_>
          <depth>0</depth>
          <value>1.1734259620157011e-03</value>
          <splits>
            <_><var>21</var>
              <quality>1.0748333297669888e-02</quality>
              <le>1.8992251157760620e-01</le></_></splits></_>
        <_>
          <depth>1</depth>
          <value>7.5916301841857603e-02</value></_>
        <_>
          <depth>1</depth>
          <value>-1.5165522938406545e-01</value></_></nodes></_>
    <_>
      <nodes>
        <_>
          <depth>0</depth>
          <value>-2.1557558707120559e-03</value>
          <splits>
            <_><var>79</var>
              <quality>9.6292328089475632e-03</quality>
              <le>2.3476698994636536e-01</le></_></splits></_>
        <_>
          <depth>1</depth>
          <value>5.5392909745524570e-02</value></_>
        <_>
          <depth>1</depth>
          <value>-1.8033302854254055e-01</value></_></nodes></_>
    <_>
      <nodes>
        <_>
          <depth>0</depth>
          <value>-1.6100514331195840e-03</value>
          <splits>
            <_><var>78</var>
              <quality>1.1099758557975292e-02</quality>
              <le>4.2476648092269897e-01</le></_></splits></_>
        <_>
          <depth>1</depth>
          <value>-2.5135762914927466e-02</value></_>
        <_>
          <depth>1</depth>
          <value>5.4271994620401964e-01</value></_></nodes></_>
    <_>
      <nodes>
        <_>
          <depth>0</depth>
          <value>5.7821687126686019e-04</value>
          <splits>
            <_><var>16</var>
              <quality>9.4924727454781532e-03</quality>
              <le>8.5000000894069672e-02</le></_></splits></_>
        <_>
          <depth>1</depth>
          <value>-9.0143570836357587e-02</value></_>
        <_>
          <depth>1</depth>
          <value>1.1147669321785322e-01</value></_></nodes></_>
    <_>
      <nodes>
        <_>
          <depth>0</depth>
          <value>1.5453273461451843e-03</value>
          <splits>
            <_><var>73</var>
              <quality>9.3495873734354973e-03</quality>
              <le>4.3453449010848999e-01</le></_></splits></_>
        <_>
          <depth>1</depth>
          <value>2.5347513353407236e-02</value></_>
        <_>
          <depth>1</depth>
          <value>-4.3799627333960678e-01</value></_></nodes></_>
    <_>
      <nodes>
        <_>
          <depth>0</depth>
          <value>-1.0650755398102995e-03</value>
          <splits>
            <_><var>37</var>
              <quality>9.3040866777300835e-03</quality>
              <le>3.6961197853088379e-01</le></_></splits></_>
        <_>
          <depth>1</depth>
          <value>3.1100267003345599e-02</value></_>
        <_>
          <depth>1</depth>
          <value>-3.1570195987590011e-01</value></_></nodes></_>
    <_>
      <nodes>
        <_>
          <depth>0</depth>
          <value>-7.1601761296500102e-04</value>
          <splits>
            <_><var>16</var>
              <quality>9.6577117219567299e-03</quality>
              <le>3.9976751804351807e-01</le></_></splits></_>
        <_>
          <depth>1</depth>
          <value>2.4711137789087026e-02</value></_>
        <_>
          <depth>1</depth>
          <value>-4.2435651372630212e-01</value></_></nodes></_>
    <_>
      <nodes>
        <_>
          <depth>0</depth>
          <value>6.1799413682305914e-04</value>
          <splits>
            <_><var>84</var>
              <quality>9.3199452385306358e-03</quality>
              <le>4.0492248535156250e-01</le></_></splits></_>
        <_>
          <depth>1</depth>
          <value>2.1224301429717748e-02</value></_>
        <_>
          <depth>1</depth>
          <value>-5.1724792469567660e-01</value></_></nodes></_>
    <_>
      <nodes>
        <_>
          <depth>0</depth>
          <value>-5.8833249991436208e-04</value>
          <splits>
            <_><var>46</var>
              <quality>9.7982902079820633e-03</quality>
              <le>2.7484449744224548e-01</le></_></splits></_>
        <_>
          <depth>1</depth>
          <value>-4.2799746341599054e-02</value></_>
        <_>
          <depth>1</depth>
          <value>2.4895887822371718e-01</value></_></nodes></_>
    <_>
      <nodes>
        <_>
          <depth>0</depth>
          <value>-1.5811224535864782e-03</value>
          <splits>
            <_><var>49</var>
              <quality>1.0445005260407925e-02</quality>
              <le>5.0468999147415161e-01</le></_></splits></_>
        <_>
          <depth>1</depth>
          <value>1.3644352945487390e-02</value></_>
        <_>
          <depth>1</depth>
          <value>-9.1529699103361106e-01</value></_></nodes></_>
    <_>
      <nodes>
        <_>
          <depth>0</depth>
          <value>1.1367571430607574e-03</value>
          <splits>
            <_><var>83</var>
              <quality>9.2954533174633980e-03</quality>
              <le>2.1484449505805969e-01</le></_></splits></_>
        <_>
          <depth>1</depth>
          <value>-5.1363189299564731e-02</value></_>
        <_>
          <depth>1</depth>
          <value>1.8990550110740431e-01</value></_></nodes></_>
    <_>
      <nodes>
        <_>
          <depth>0</depth>
          <value>2.2734416242809912e-03</value>
          <splits>
            <_><var>82</var>
              <quality>1.0209617204964161e-02</quality>
              <le>8.5000000894069672e-02</le></_></splits></_>
        <_>
          <depth>1</depth>
          <value>1.0179673432186399e-01</value></_>
        <_>
          <depth>1</depth>
          <value>-1.0645179075586371e-01</value></_></nodes></_>
    <_>
      <nodes>
        <_>
          <depth>0</depth>
          <value>-2.4768560028571203e-03</value>
          <splits>
            <_><var>135</var>
              <quality>1.0536579415202141e-02</quality>
              <le>4.2961198091506958e-01</le></_></splits></_>
        <_>
          <depth>1</depth>
          <value>2.1976276794916497e-02</value></_>
        <_>
          <depth>1</depth>
          <value>-4.9215752127967743e-01</value></_></nodes></_>
    <_>
      <nodes>
        <_>
          <depth>0</depth>
          <value>-3.2779148777452522e-04</value>
          <splits>
            <_><var>117</var>
              <quality>9.6368817612528801e-03</quality>
              <le>4.2961198091506958e-01</le></_></splits></_>
        <_>
          <depth>1</depth>
          <value>-1.9786010000458838e-02</value></_>
        <_>
          <depth>1</depth>
          <value>5.7792420707789627e-01</value></_></nodes></_>
    <_>
      <nodes>
        <_>
          <depth>0</depth>
          <value>1.3273203252871171e-05</value>
          <splits>
            <_><var>131</var>
              <quality>8.5884928703308105e-03</quality>
              <le>4.5492148399353027e-01</le></_></splits></_>
        <_>
          <depth>1</depth>
          <value>2.1925922825141348e-02</value></_>
        <_>
          <depth>1</depth>
          <value>-4.3885238736477428e-01</value></_></nodes></_>
    <_>
      <nodes>
        <_>
          <depth>0</depth>
          <value>-7.2333464892603927e-04</value>
          <splits>
            <_><var>131</var>
              <quality>9.0310601517558098e-03</quality>
              <le>6.1492002010345459e-01</le></_></splits></_>
        <_>
          <depth>1</depth>
          <value>-1.6185997353545034e-02</value></_>
        <_>
          <depth>1</depth>
          <value>7.1558120007860415e-01</value></_></nodes></_>
    <_>
      <nodes>
        <_>
          <depth>0</depth>
          <value>2.0294312340601540e-03</value>
          <splits>
            <_><var>112</var>
              <quality>8.7029431015253067e-03</quality>
              <le>5.8445751667022705e-01</le></_></splits></_>
        <_>
          <depth>1</depth>
          <value>1.4897895616327329e-02</value></_>
        <_>
          <depth>1</depth>
          <value>-8.8654346662271855e-01</value></_></nodes></_>
    <_>
      <nodes>
        <_>
          <depth>0</depth>
          <value>-2.1830240077751014e-04</value>
          <splits>
            <_><var>58</var>
              <quality>8.8436938822269440e-03</quality>
              <le>4.7945702075958252e-01</le></_></splits></_>
        <_>
          <depth>1</depth>
          <value>1.1342920360605500e-02</value></_>
        <_>
          <depth>1</depth>
          <value>-1.1140006371526388e+00</value></_></nodes></_>
    <_>
      <nodes>
        <_>
          <depth>0</depth>
          <value>1.3978139181553943e-03</value>
          <splits>
            <_><var>62</var>
              <quality>8.9195314794778824e-03</quality>
              <le>5.1453495025634766e-01</le></_></splits></_>
        <_>
          <depth>1</depth>
          <value>-1.5430646026326825e-02</value></_>
        <_>
          <depth>1</depth>
          <value>6.3177427886949999e-01</value></_></nodes></_>
    <_>
      <nodes>
        <_>
          <depth>0</depth>
          <value>4.8312358365823867e-04</value>
          <splits>
            <_><var>63</var>
              <quality>1.1418065987527370e-02</quality>
              <le>4.2476648092269897e-01</le></_></splits></_>
        <_>
          <depth>1</depth>
          <value>2.8228350006089441e-02</value></_>
        <_>
          <depth>1</depth>
          <value>-4.6342619733951257e-01</value></_></nodes></_>
    <_>
      <nodes>
        <_>
          <depth>0</depth>
          <value>-1.1150158237543456e-03</value>
          <splits>
            <_><var>43</var>
              <quality>8.1640733405947685e-03</quality>
              <le>3.8468950986862183e-01</le></_></splits></_>
        <_>
          <depth>1</depth>
          <value>2.3262031578486768e-02</value></_>
        <_>
          <depth>1</depth>
          <value>-3.6964936713901453e-01</value></_></nodes></_>
    <_>
      <nodes>
        <_>
          <depth>0</depth>
          <value>-4.2001561583025437e-05</value>
          <splits>
            <_><var>111</var>
              <quality>7.3375483043491840e-03</quality>
              <le>7.4414700269699097e-01</le></_></splits></_>
        <_>
          <depth>1</depth>
          <value>-8.5140999301593114e-03</value></_>
        <_>
          <depth>1</depth>
          <value>1.5378384960283766e+00</value></_></nodes></_>
    <_>
      <nodes>
        <_>
          <depth>0</depth>
          <value>-1.1063515577683231e-03</value>
          <splits>
            <_><var>60</var>
              <quality>7.9932035878300667e-03</quality>
              <le>2.4992200732231140e-01</le></_></splits></_>
        <_>
          <depth>1</depth>
          <value>-3.9175049684343981e-02</value></_>
        <_>
          <depth>1</depth>
          <value>2.2368547652618209e-01</value></_></nodes></_>
    <_>
      <nodes>
        <_>
          <depth>0</depth>
          <value>-2.6363503540758124e-04</value>
          <splits>
            <_><var>54</var>
              <quality>8.6305886507034302e-03</quality>
              <le>3.3976650238037109e-01</le></_></splits></_>
        <_>
          <depth>1</depth>
          <value>3.0553595585376101e-02</value></_>
        <_>
          <depth>1</depth>
          <value>-3.0423624079953554e-01</value></_></nodes></_>
    <_>
      <nodes>
        <_>
          <depth>0</depth>
          <value>-1.2555582406823431e-03</value>
          <splits>
            <_><var>111</var>
              <quality>7.8347343951463699e-03</quality>
              <le>5.3468847274780273e-01</le></_></splits></_>
        <_>
          <depth>1</depth>
          <value>1.1582971519036509e-02</value></_>
        <_>
          <depth>1</depth>
          <value>-7.6428138130748091e-01</value></_></nodes></_>
    <_>
      <nodes>
        <_>
          <depth>0</depth>
          <value>7.4409908244723721e-04</value>
          <splits>
            <_><var>21</var>
              <quality>7.7766864560544491e-03</quality>
              <le>2.0492249727249146e-01</le></_></splits></_>
        <_>
          <depth>1</depth>
          <value>6.0316371117626673e-02</value></_>
        <_>
          <depth>1</depth>
          <value>-1.3771199531388839e-01</value></_></nodes></_>
    <_>
      <nodes>
        <_>
          <depth>0</depth>
          <value>-1.2927909538663991e-03</value>
          <splits>
            <_><var>13</var>
              <quality>8.8639128953218460e-03</quality>
              <le>3.5976701974868774e-01</le></_></splits></_>
        <_>
          <depth>1</depth>
          <value>-3.3712810601329669e-02</value></_>
        <_>
          <depth>1</depth>
          <value>2.9482850992637516e-01</value></_></nodes></_>
    <_>
      <nodes>
        <_>
          <depth>0</depth>
          <value>4.1987361017709784e-04</value>
          <splits>
            <_><var>122</var>
              <quality>9.4961998984217644e-03</quality>
              <le>2.4992200732231140e-01</le></_></splits></_>
        <_>
          <depth>1</depth>
          <value>-4.5635180691246759e-02</value></_>
        <_>
          <depth>1</depth>
          <value>2.2116453666497604e-01</value></_></nodes></_>
    <_>
      <nodes>
        <_>
          <depth>0</depth>
          <value>1.0354716680640278e-03</value>
          <splits>
            <_><var>99</var>
              <quality>8.5499444976449013e-03</quality>
              <le>4.5984399318695068e-01</le></_></splits></_>
        <_>
          <depth>1</depth>
          <value>1.6875365894058150e-02</value></_>
        <_>
          <depth>1</depth>
          <value>-6.4340778038182911e-01</value></_></nodes></_>
    <_>
      <nodes>
        <_>
          <depth>0</depth>
          <value>-4.1590753129199491e-04</value>
          <splits>
            <_><var>14</var>
              <quality>8.2178451120853424e-03</quality>
              <le>1.6984499990940094e-01</le></_></splits></_>
        <_>
          <depth>1</depth>
          <value>6.5910129208520893e-02</value></_>
        <_>
          <depth>1</depth>
          <value>-1.3179899343421533e-01</value></_></nodes></_>
    <_>
      <nodes>
        <_>
          <depth>0</depth>
          <value>3.0959490789399984e-04</value>
          <splits>
            <_><var>1</var>
              <quality>8.6577609181404114e-03</quality>
              <le>5.1476752758026123e-01</le></_></splits></_>
        <_>
          <depth>1</depth>
          <value>1.5507024047935646e-02</value></_>
        <_>
          <depth>1</depth>
          <value>-6.9221840107017474e-01</value></_></nodes></_>
    <_>
      <nodes>
        <_>
          <depth>0</depth>
          <value>-2.5471075180368095e-04</value>
          <splits>
            <_><var>1</var>
              <quality>1.0030971840023994e-02</quality>
              <le>3.1476747989654541e-01</le></_></splits></_>
        <_>
          <depth>1</depth>
          <value>-3.8694926757882754e-02</value></_>
        <_>
          <depth>1</depth>
          <value>2.8180338019362555e-01</value></_></nodes></_>
    <_>
      <nodes>
        <_>
          <depth>0</depth>
          <value>9.8709869481068235e-04</value>
          <splits>
            <_><var>126</var>
              <quality>7.9301074147224426e-03</quality>
              <le>6.0476702451705933e-01</le></_></splits></_>
        <_>
          <depth>1</depth>
          <value>1.1648476040533630e-02</value></_>
        <_>
          <depth>1</depth>
          <value>-1.0503413761258535e+00</value></_></nodes></_>
    <_>
      <nodes>
        <_>
          <depth>0</depth>
          <value>9.7992511562436068e-05</value>
          <splits>
            <_><var>134</var>
              <quality>8.1967609003186226e-03</quality>
              <le>4.9984449148178101e-01</le></_></splits></_>
        <_>
          <depth>1</depth>
          <value>-1.6376077375365203e-02</value></_>
        <_>
          <depth>1</depth>
          <value>5.8179626702662823e-01</value></_></nodes></_>
    <_>
      <nodes>
        <_>
          <depth>0</depth>
          <value>-1.9705133815538563e-03</value>
          <splits>
            <_><var>132</var>
              <quality>9.7433710470795631e-03</quality>
              <le>4.0492248535156250e-01</le></_></splits></_>
        <_>
          <depth>1</depth>
          <value>2.5298519758276135e-02</value></_>
        <_>
          <depth>1</depth>
          <value>-3.9774659851630301e-01</value></_></nodes></_>
    <_>
      <nodes>
        <_>
          <depth>0</depth>
          <value>3.0331911415277293e-04</value>
          <splits>
            <_><var>100</var>
              <quality>7.8517971560359001e-03</quality>
              <le>1.5492250025272369e-01</le></_></splits></_>
        <_>
          <depth>1</depth>
          <value>-6.0570091609120823e-02</value></_>
        <_>
          <depth>1</depth>
          <value>1.3710154389623666e-01</value></_></nodes></_>
    <_>
      <nodes>
        <_>
          <depth>0</depth>
          <value>-6.3983184791310496e-05</value>
          <splits>
            <_><var>113</var>
              <quality>9.3364082276821136e-03</quality>
              <le>1.0492250323295593e-01</le></_></splits></_>
        <_>
          <depth>1</depth>
          <value>7.7242942641134765e-02</value></_>
        <_>
          <depth>1</depth>
          <value>-1.2814091759552756e-01</value></_></nodes></_>
    <_>
      <nodes>
        <_>
          <depth>0</depth>
          <value>2.2336414072798689e-04</value>
          <splits>
            <_><var>5</var>
              <quality>7.9318983480334282e-03</quality>
              <le>3.5484451055526733e-01</le></_></splits></_>
        <_>
          <depth>1</depth>
          <value>2.7105908604429640e-02</value></_>
        <_>
          <depth>1</depth>
          <value>-3.2109485744527233e-01</value></_></nodes></_>
    <_>
      <nodes>
        <_>
          <depth>0</depth>
          <value>-8.7990006994574080e-04</value>
          <splits>
            <_><var>92</var>
              <quality>8.9559070765972137e-03</quality>
              <le>2.6476749777793884e-01</le></_></splits></_>
        <_>
          <depth>1</depth>
          <value>4.7000136089665467e-02</value></_>
        <_>
          <depth>1</depth>
          <value>-2.0055022892251320e-01</value></_></nodes></_>
    <_>
      <nodes>
        <_>
          <depth>0</depth>
          <value>-3.9406249034900048e-04</value>
          <splits>
            <_><var>4</var>
              <quality>8.6382701992988586e-03</quality>
              <le>2.5000000372529030e-02</le></_></splits></_>
        <_>
          <depth>1</depth>
          <value>-9.6746393888713089e-02</value></_>
        <_>
          <depth>1</depth>
          <value>9.4561022169752595e-02</value></_></nodes></_>
    <_>
      <nodes>
        <_>
          <depth>0</depth>
          <value>-1.9712213438402969e-03</value>
          <splits>
            <_><var>82</var>
              <quality>7.6448200270533562e-03</quality>
              <le>5.6484299898147583e-01</le></_></splits></_>
        <_>
          <depth>1</depth>
          <value>1.0941623315260298e-02</value></_>
        <_>
          <depth>1</depth>
          <value>-7.3306411734120625e-01</value></_></nodes></_>
    <_>
      <nodes>
        <_>
          <depth>0</depth>
          <value>3.6216635024761122e-04</value>
          <splits>
            <_><var>53</var>
              <quality>7.5588189065456390e-03</quality>
              <le>1.5492250025272369e-01</le></_></splits></_>
        <_>
          <depth>1</depth>
          <value>-5.6011204918983863e-02</value></_>
        <_>
          <depth>1</depth>
          <value>1.4260774641712901e-01</value></_></nodes></_>
    <_>
      <nodes>
        <_>
          <depth>0</depth>
          <value>-9.4321006570648018e-04</value>
          <splits>
            <_><var>52</var>
              <quality>9.5516974106431007e-03</quality>
              <le>2.4992200732231140e-01</le></_></splits></_>
        <_>
          <depth>1</depth>
          <value>4.2413357691526002e-02</value></_>
        <_>
          <depth>1</depth>
          <value>-2.3732171647571959e-01</value></_></nodes></_>
    <_>
      <nodes>
        <_>
          <depth>0</depth>
          <value>1.3017370656972272e-03</value>
          <splits>
            <_><var>108</var>
              <quality>8.2043157890439034e-03</quality>
              <le>2.5000000372529030e-02</le></_></splits></_>
        <_>
          <depth>1</depth>
          <value>-9.6001895447222776e-02</value></_>
        <_>
          <depth>1</depth>
          <value>9.0556653159576436e-02</value></_></nodes></_>
    <_>
      <nodes>
        <_>
          <depth>0</depth>
          <value>-6.7479785206506541e-05</value>
          <splits>
            <_><var>2</var>
              <quality>7.9828761518001556e-03</quality>
              <le>3.6476749181747437e-01</le></_></splits></_>
        <_>
          <depth>1</depth>
          <value>2.4367473483756910e-02</value></_>
        <_>
          <depth>1</depth>
          <value>-3.5868212063809674e-01</value></_></nodes></_>
    <_>
      <nodes>
        <_>
          <depth>0</depth>
          <value>-1.2666198575381931e-04</value>
          <splits>
            <_><var>42</var>
              <quality>7.4061555787920952e-03</quality>
              <le>3.1976699829101562e-01</le></_></splits></_>
        <_>
          <depth>1</depth>
          <value>3.2932994909337418e-02</value></_>
        <_>
          <depth>1</depth>
          <value>-2.4057710748008243e-01</value></_></nodes></_>
    <_>
      <nodes>
        <_>
          <depth>0</depth>
          <value>1.4508429797344474e-03</value>
          <splits>
            <_><var>45</var>
              <quality>1.0795330628752708e-02</quality>
              <le>2.5000000372529030e-02</le></_></splits></_>
        <_>
          <depth>1</depth>
          <value>-1.0766962339874911e-01</value></_>
        <_>
          <depth>1</depth>
          <value>1.0637102145261589e-01</value></_></nodes></_>
    <_>
      <nodes>
        <_>
          <depth>0</depth>
          <value>-1.4783276957114919e-03</value>
          <splits>
            <_><var>32</var>
              <quality>9.1301938518881798e-03</quality>
              <le>6.0000002384185791e-02</le></_></splits></_>
        <_>
          <depth>1</depth>
          <value>9.7587981423620934e-02</value></_>
        <_>
          <depth>1</depth>
          <value>-9.9108346233255040e-02</value></_></nodes></_>
    <_>
      <nodes>
        <_>
          <depth>0</depth>
          <value>-1.4057901190497135e-03</value>
          <splits>
            <_><var>33</var>
              <quality>1.0442609898746014e-02</quality>
              <le>1.5492250025272369e-01</le></_></splits></_>
        <_>
          <depth>1</depth>
          <value>-6.8922562996333134e-02</value></_>
        <_>
          <depth>1</depth>
          <value>1.6306689259596041e-01</value></_></nodes></_>
    <_>
      <nodes>
        <_>
          <depth>0</depth>
          <value>1.3346549306951186e-03</value>
          <splits>
            <_><var>7</var>
              <quality>8.1628598272800446e-03</quality>
              <le>7.4976646900177002e-01</le></_></splits></_>
        <_>
          <depth>1</depth>
          <value>1.0633214343097323e-02</value></_>
        <_>
          <depth>1</depth>
          <value>-1.6068310632857570e+00</value></_></nodes></_>
    <_>
      <nodes>
        <_>
          <depth>0</depth>
          <value>4.8143349213778872e-04</value>
          <splits>
            <_><var>105</var>
              <quality>7.6740463264286518e-03</quality>
              <le>6.0000002384185791e-02</le></_></splits></_>
        <_>
          <depth>1</depth>
          <value>7.7929932482523723e-02</value></_>
        <_>
          <depth>1</depth>
          <value>-1.0441232990296111e-01</value></_></nodes></_>
    <_>
      <nodes>
        <_>
          <depth>0</depth>
          <value>1.3430948112971514e-03</value>
          <splits>
            <_><var>26</var>
              <quality>8.1222979351878166e-03</quality>
              <le>2.6476749777793884e-01</le></_></splits></_>
        <_>
          <depth>1</depth>
          <value>4.5881724880700039e-02</value></_>
        <_>
          <depth>1</depth>
          <value>-1.9310780836024333e-01</value></_></nodes></_>
    <_>
      <nodes>
        <_>
          <depth>0</depth>
          <value>-1.1358546243818680e-03</value>
          <splits>
            <_><var>25</var>
              <quality>1.0652298107743263e-02</quality>
              <le>2.3476698994636536e-01</le></_></splits></_>
        <_>
          <depth>1</depth>
          <value>-5.7716758909984289e-02</value></_>
        <_>
          <depth>1</depth>
          <value>1.9987072838008635e-01</value></_></nodes></_>
    <_>
      <nodes>
        <_>
          <depth>0</depth>
          <value>2.2109018213140649e-03</value>
          <splits>
            <_><var>18</var>
              <quality>7.4028167873620987e-03</quality>
              <le>4.6968901157379150e-01</le></_></splits></_>
        <_>
          <depth>1</depth>
          <value>1.8539374349684209e-02</value></_>
        <_>
          <depth>1</depth>
          <value>-5.1630755058350508e-01</value></_></nodes></_>
    <_>
      <nodes>
        <_>
          <depth>0</depth>
          <value>1.2912303611438132e-03</value>
          <splits>
            <_><var>16</var>
              <quality>6.9437986239790916e-03</quality>
              <le>6.6930246353149414e-01</le></_></splits></_>
        <_>
          <depth>1</depth>
          <value>-6.0259791838659267e-03</value></_>
        <_>
          <depth>1</depth>
          <value>5.7564577324623896e+00</value></_></nodes></_>
    <_>
      <nodes>
        <_>
          <depth>0</depth>
          <value>-1.8732257983482400e-01</value>
          <splits>
            <_><var>16</var>
              <quality>1.7417345941066742e-01</quality>
              <le>6.4930200576782227e-01</le></_></splits></_>
        <_>
          <depth>1</depth>
          <value>-2.2196457373970845e-03</value></_>
        <_>
          <depth>1</depth>
          <value>-5.7564577324601141e+00</value></_></nodes></_>
    <_>
      <nodes>
        <_>
          <depth>0</depth>
          <value>1.3908676491387793e-02</value>
          <splits>
            <_><var>16</var>
              <quality>8.2899006083607674e-03</quality>
              <le>6.3937997817993164e-01</le></_></splits></_>
        <_>
          <depth>1</depth>
          <value>5.2544994983840417e-03</value></_>
        <_>
          <depth>1</depth>
          <value>5.7564577324623896e+00</value></_></nodes></_>
    <_>
      <nodes>
        <_>
          <depth>0</depth>
          <value>-1.9565651263026601e-01</value>
          <splits>
            <_><var>16</var>
              <quality>1.7921629548072815e-01</quality>
              <le>5.6476747989654541e-01</le></_></splits></_>
        <_>
          <depth>1</depth>
          <value>-4.4412293166620652e-03</value></_>
        <_>
          <depth>1</depth>
          <value>-2.9853538567783784e+00</value></_></nodes></_>
    <_>
      <nodes>
        <_>
          <depth>0</depth>
          <value>7.3847571663236446e-03</value>
          <splits>
            <_><var>16</var>
              <quality>1.0088150389492512e-02</quality>
              <le>6.1430203914642334e-01</le></_></splits></_>
        <_>
          <depth>1</depth>
          <value>1.8268547806014723e-02</value></_>
        <_>
          <depth>1</depth>
          <value>-1.9929756324379313e+00</value></_></nodes></_>
    <_>
      <nodes>
        <_>
          <depth>0</depth>
          <value>1.7884382922793065e-03</value>
          <splits>
            <_><var>16</var>
              <quality>1.3620060868561268e-02</quality>
              <le>5.1476752758026123e-01</le></_></splits></_>
        <_>
          <depth>1</depth>
          <value>-1.5040620786305215e-02</value></_>
        <_>
          <depth>1</depth>
          <value>1.2691844555457810e+00</value></_></nodes></_>
    <_>
      <nodes>
        <_>
          <depth>0</depth>
          <value>-3.0444598925001287e-03</value>
          <splits>
            <_><var>62</var>
              <quality>7.4309017509222031e-03</quality>
              <le>3.1976699829101562e-01</le></_></splits></_>
        <_>
          <depth>1</depth>
          <value>3.0182556622739817e-02</value></_>
        <_>
          <depth>1</depth>
          <value>-2.4295198856811476e-01</value></_></nodes></_>
    <_>
      <nodes>
        <_>
          <depth>0</depth>
          <value>-2.8272548239678186e-04</value>
          <splits>
            <_><var>96</var>
              <quality>7.5409743003547192e-03</quality>
              <le>6.0476702451705933e-01</le></_></splits></_>
        <_>
          <depth>1</depth>
          <value>1.0929838337293763e-02</value></_>
        <_>
          <depth>1</depth>
          <value>-8.8377610531461270e-01</value></_></nodes></_>
    <_>
      <nodes>
        <_>
          <depth>0</depth>
          <value>-1.7473605864876834e-04</value>
          <splits>
            <_><var>95</var>
              <quality>7.8307613730430603e-03</quality>
              <le>7.8437948226928711e-01</le></_></splits></_>
        <_>
          <depth>1</depth>
          <value>-8.8152431186411702e-03</value></_>
        <_>
          <depth>1</depth>
          <value>1.8735473552085620e+00</value></_></nodes></_>
    <_>
      <nodes>
        <_>
          <depth>0</depth>
          <value>-3.2068536705800706e-03</value>
          <splits>
            <_><var>95</var>
              <quality>1.2699391692876816e-02</quality>
              <le>5.3945696353912354e-01</le></_></splits></_>
        <_>
          <depth>1</depth>
          <value>1.2287310421074477e-02</value></_>
        <_>
          <depth>1</depth>
          <value>-1.3146728886714671e+00</value></_></nodes></_>
    <_>
      <nodes>
        <_>
          <depth>0</depth>
          <value>5.1790252970856845e-04</value>
          <splits>
            <_><var>95</var>
              <quality>7.2734877467155457e-03</quality>
              <le>4.4468998908996582e-01</le></_></splits></_>
        <_>
          <depth>1</depth>
          <value>-1.6128442524333216e-02</value></_>
        <_>
          <depth>1</depth>
          <value>4.9799702951741814e-01</value></_></nodes></_>
    <_>
      <nodes>
        <_>
          <depth>0</depth>
          <value>-3.9164052728660171e-04</value>
          <splits>
            <_><var>70</var>
              <quality>7.3857046663761139e-03</quality>
              <le>5.9469002485275269e-01</le></_></splits></_>
        <_>
          <depth>1</depth>
          <value>-1.0006418459561876e-02</value></_>
        <_>
          <depth>1</depth>
          <value>1.1218711121834744e+00</value></_></nodes></_>
    <_>
      <nodes>
        <_>
          <depth>0</depth>
          <value>-5.7641769052585098e-04</value>
          <splits>
            <_><var>70</var>
              <quality>1.0217803530395031e-02</quality>
              <le>4.4468998908996582e-01</le></_></splits></_>
        <_>
          <depth>1</depth>
          <value>1.9001276065570519e-02</value></_>
        <_>
          <depth>1</depth>
          <value>-6.1847986338244854e-01</value></_></nodes></_>
    <_>
      <nodes>
        <_>
          <depth>0</depth>
          <value>5.7496868528880186e-04</value>
          <splits>
            <_><var>68</var>
              <quality>8.1137083470821381e-03</quality>
              <le>1.0492250323295593e-01</le></_></splits></_>
        <_>
          <depth>1</depth>
          <value>-7.2145980115003699e-02</value></_>
        <_>
          <depth>1</depth>
          <value>1.1878378570819745e-01</value></_></nodes></_>
    <_>
      <nodes>
        <_>
          <depth>0</depth>
          <value>4.5266999591361698e-04</value>
          <splits>
            <_><var>15</var>
              <quality>7.4561121873557568e-03</quality>
              <le>5.1961147785186768e-01</le></_></splits></_>
        <_>
          <depth>1</depth>
          <value>1.1755953386528694e-02</value></_>
        <_>
          <depth>1</depth>
          <value>-8.5560273650982499e-01</value></_></nodes></_>
    <_>
      <nodes>
        <_>
          <depth>0</depth>
          <value>-2.6082322418239304e-06</value>
          <splits>
            <_><var>42</var>
              <quality>7.8654764220118523e-03</quality>
              <le>1.2492199987173080e-01</le></_></splits></_>
        <_>
          <depth>1</depth>
          <value>7.2532906770793451e-02</value></_>
        <_>
          <depth>1</depth>
          <value>-1.1485922254273623e-01</value></_></nodes></_>
    <_>
      <nodes>
        <_>
          <depth>0</depth>
          <value>-1.3380220077102902e-03</value>
          <splits>
            <_><var>101</var>
              <quality>7.2258221916854382e-03</quality>
              <le>2.5492250919342041e-01</le></_></splits></_>
        <_>
          <depth>1</depth>
          <value>3.7938507282463202e-02</value></_>
        <_>
          <depth>1</depth>
          <value>-1.9759572957661886e-01</value></_></nodes></_>
    <_>
      <nodes>
        <_>
          <depth>0</depth>
          <value>-9.7001056481311966e-04</value>
          <splits>
            <_><var>102</var>
              <quality>1.0391611605882645e-02</quality>
              <le>8.5000000894069672e-02</le></_></splits></_>
        <_>
          <depth>1</depth>
          <value>-8.9703241075044057e-02</value></_>
        <_>
          <depth>1</depth>
          <value>1.2326933409357980e-01</value></_></nodes></_>
    <_>
      <nodes>
        <_>
          <depth>0</depth>
          <value>-4.4381884477438419e-04</value>
          <splits>
            <_><var>50</var>
              <quality>8.6616380140185356e-03</quality>
              <le>2.9484498500823975e-01</le></_></splits></_>
        <_>
          <depth>1</depth>
          <value>-3.3101623803111997e-02</value></_>
        <_>
          <depth>1</depth>
          <value>2.8643818335580717e-01</value></_></nodes></_>
    <_>
      <nodes>
        <_>
          <depth>0</depth>
          <value>-1.8662932003640246e-03</value>
          <splits>
            <_><var>90</var>
              <quality>7.8515149652957916e-03</quality>
              <le>3.8468950986862183e-01</le></_></splits></_>
        <_>
          <depth>1</depth>
          <value>2.4415099273493602e-02</value></_>
        <_>
          <depth>1</depth>
          <value>-3.2753072616641860e-01</value></_></nodes></_>
    <_>
      <nodes>
        <_>
          <depth>0</depth>
          <value>-3.4426843136489308e-04</value>
          <splits>
            <_><var>50</var>
              <quality>7.6095005497336388e-03</quality>
              <le>5.0468999147415161e-01</le></_></splits></_>
        <_>
          <depth>1</depth>
          <value>1.0323101178771289e-02</value></_>
        <_>
          <depth>1</depth>
          <value>-9.7613082899203063e-01</value></_></nodes></_>
    <_>
      <nodes>
        <_>
          <depth>0</depth>
          <value>4.3727508858772823e-04</value>
          <splits>
            <_><var>19</var>
              <quality>7.1845832280814648e-03</quality>
              <le>8.7930095195770264e-01</le></_></splits></_>
        <_>
          <depth>1</depth>
          <value>-7.9954822707853472e-03</value></_>
        <_>
          <depth>1</depth>
          <value>1.4586689220636602e+00</value></_></nodes></_>
    <_>
      <nodes>
        <_>
          <depth>0</depth>
          <value>4.3902257592521449e-04</value>
          <splits>
            <_><var>19</var>
              <quality>1.1646026745438576e-02</quality>
              <le>4.4468998908996582e-01</le></_></splits></_>
        <_>
          <depth>1</depth>
          <value>2.2194104424548201e-02</value></_>
        <_>
          <depth>1</depth>
          <value>-6.3754375757717729e-01</value></_></nodes></_>
    <_>
      <nodes>
        <_>
          <depth>0</depth>
          <value>-1.7216984405247414e-04</value>
          <splits>
            <_><var>131</var>
              <quality>8.3342446014285088e-03</quality>
              <le>4.5492148399353027e-01</le></_></splits></_>
        <_>
          <depth>1</depth>
          <value>1.9985464048062295e-02</value></_>
        <_>
          <depth>1</depth>
          <value>-4.6661914826098166e-01</value></_></nodes></_>
    <_>
      <nodes>
        <_>
          <depth>0</depth>
          <value>4.8523065196170012e-05</value>
          <splits>
            <_><var>123</var>
              <quality>8.7821977213025093e-03</quality>
              <le>6.7961150407791138e-01</le></_></splits></_>
        <_>
          <depth>1</depth>
          <value>-9.6542665772954284e-03</value></_>
        <_>
          <depth>1</depth>
          <value>1.8617594121164158e+00</value></_></nodes></_>
    <_>
      <nodes>
        <_>
          <depth>0</depth>
          <value>-2.1861144816664206e-03</value>
          <splits>
            <_><var>123</var>
              <quality>1.2416022829711437e-02</quality>
              <le>4.7953498363494873e-01</le></_></splits></_>
        <_>
          <depth>1</depth>
          <value>1.5446451605722496e-02</value></_>
        <_>
          <depth>1</depth>
          <value>-9.5759172523350611e-01</value></_></nodes></_>
    <_>
      <nodes>
        <_>
          <depth>0</depth>
          <value>2.1368228118261957e-03</value>
          <splits>
            <_><var>91</var>
              <quality>7.7610420994460583e-03</quality>
              <le>1.4499950408935547e-01</le></_></splits></_>
        <_>
          <depth>1</depth>
          <value>-5.6298170993502365e-02</value></_>
        <_>
          <depth>1</depth>
          <value>1.4298225355581984e-01</value></_></nodes></_>
    <_>
      <nodes>
        <_>
          <depth>0</depth>
          <value>1.5102204803208049e-03</value>
          <splits>
            <_><var>73</var>
              <quality>9.0457638725638390e-03</quality>
              <le>1.2492199987173080e-01</le></_></splits></_>
        <_>
          <depth>1</depth>
          <value>7.3933798780490265e-02</value></_>
        <_>
          <depth>1</depth>
          <value>-1.3092069397337558e-01</value></_></nodes></_>
    <_>
      <nodes>
        <_>
          <depth>0</depth>
          <value>-9.1678241056244514e-04</value>
          <splits>
            <_><var>94</var>
              <quality>7.5234603136777878e-03</quality>
              <le>2.9484498500823975e-01</le></_></splits></_>
        <_>
          <depth>1</depth>
          <value>3.2477820876197806e-02</value></_>
        <_>
          <depth>1</depth>
          <value>-2.4281921911944904e-01</value></_></nodes></_>
    <_>
      <nodes>
        <_>
          <depth>0</depth>
          <value>-1.8166361175425767e-03</value>
          <splits>
            <_><var>37</var>
              <quality>7.7024199999868870e-03</quality>
              <le>2.6476749777793884e-01</le></_></splits></_>
        <_>
          <depth>1</depth>
          <value>-4.2610728238774750e-02</value></_>
        <_>
          <depth>1</depth>
          <value>1.9958991448263277e-01</value></_></nodes></_>
    <_>
      <nodes>
        <_>
          <depth>0</depth>
          <value>1.9848110647205913e-03</value>
          <splits>
            <_><var>36</var>
              <quality>7.6989084482192993e-03</quality>
              <le>4.6468949317932129e-01</le></_></splits></_>
        <_>
          <depth>1</depth>
          <value>2.2278137035358640e-02</value></_>
        <_>
          <depth>1</depth>
          <value>-4.2037376048535147e-01</value></_></nodes></_>
    <_>
      <nodes>
        <_>
          <depth>0</depth>
          <value>2.2000167492657662e-04</value>
          <splits>
            <_><var>68</var>
              <quality>6.3954023644328117e-03</quality>
              <le>4.5492148399353027e-01</le></_></splits></_>
        <_>
          <depth>1</depth>
          <value>1.7251966524060136e-02</value></_>
        <_>
          <depth>1</depth>
          <value>-4.1783285536115472e-01</value></_></nodes></_>
    <_>
      <nodes>
        <_>
          <depth>0</depth>
          <value>-6.5913606952564853e-04</value>
          <splits>
            <_><var>63</var>
              <quality>6.9921566173434258e-03</quality>
              <le>3.0492252111434937e-01</le></_></splits></_>
        <_>
          <depth>1</depth>
          <value>-3.3958366247486778e-02</value></_>
        <_>
          <depth>1</depth>
          <value>2.2414355709072153e-01</value></_></nodes></_>
    <_>
      <nodes>
        <_>
          <depth>0</depth>
          <value>9.9468488560777962e-04</value>
          <splits>
            <_><var>63</var>
              <quality>7.7579636126756668e-03</quality>
              <le>4.2476648092269897e-01</le></_></splits></_>
        <_>
          <depth>1</depth>
          <value>2.4059546655732230e-02</value></_>
        <_>
          <depth>1</depth>
          <value>-3.6902845980446081e-01</value></_></nodes></_>
    <_>
      <nodes>
        <_>
          <depth>0</depth>
          <value>-3.0976245648463052e-04</value>
          <splits>
            <_><var>18</var>
              <quality>6.6987569443881512e-03</quality>
              <le>4.0984499454498291e-01</le></_></splits></_>
        <_>
          <depth>1</depth>
          <value>-1.7667043824709194e-02</value></_>
        <_>
          <depth>1</depth>
          <value>4.3083920196512171e-01</value></_></nodes></_>
    <_>
      <nodes>
        <_>
          <depth>0</depth>
          <value>-6.9520898105524234e-05</value>
          <splits>
            <_><var>17</var>
              <quality>7.1991882286965847e-03</quality>
              <le>2.0992200076580048e-01</le></_></splits></_>
        <_>
          <depth>1</depth>
          <value>4.6403458485169746e-02</value></_>
        <_>
          <depth>1</depth>
          <value>-1.6474357413561375e-01</value></_></nodes></_>
    <_>
      <nodes>
        <_>
          <depth>0</depth>
          <value>8.4799684275586632e-05</value>
          <splits>
            <_><var>17</var>
              <quality>1.0058345273137093e-02</quality>
              <le>2.5000000372529030e-02</le></_></splits></_>
        <_>
          <depth>1</depth>
          <value>-1.0588198989336157e-01</value></_>
        <_>
          <depth>1</depth>
          <value>1.0072844842383470e-01</value></_></nodes></_>
    <_>
      <nodes>
        <_>
          <depth>0</depth>
          <value>-2.3923050110167738e-03</value>
          <splits>
            <_><var>23</var>
              <quality>8.0324867740273476e-03</quality>
              <le>2.0992200076580048e-01</le></_></splits></_>
        <_>
          <depth>1</depth>
          <value>5.4570848345757761e-02</value></_>
        <_>
          <depth>1</depth>
          <value>-1.5204859888071581e-01</value></_></nodes></_>
    <_>
      <nodes>
        <_>
          <depth>0</depth>
          <value>-6.2073237828366018e-04</value>
          <splits>
            <_><var>78</var>
              <quality>7.5858291238546371e-03</quality>
              <le>1.4499950408935547e-01</le></_></splits></_>
        <_>
          <depth>1</depth>
          <value>-6.2009987251408313e-02</value></_>
        <_>
          <depth>1</depth>
          <value>1.3035919569840518e-01</value></_></nodes></_>
    <_>
      <nodes>
        <_>
          <depth>0</depth>
          <value>-6.5843436570401628e-04</value>
          <splits>
            <_><var>81</var>
              <quality>8.7041407823562622e-03</quality>
              <le>2.3476698994636536e-01</le></_></splits></_>
        <_>
          <depth>1</depth>
          <value>5.0094908698201081e-02</value></_>
        <_>
          <depth>1</depth>
          <value>-1.8335587404452597e-01</value></_></nodes></_>
    <_>
      <nodes>
        <_>
          <depth>0</depth>
          <value>1.1352262127306368e-04</value>
          <splits>
            <_><var>100</var>
              <quality>6.8827760405838490e-03</quality>
              <le>6.0000002384185791e-02</le></_></splits></_>
        <_>
          <depth>1</depth>
          <value>8.3205860030013817e-02</value></_>
        <_>
          <depth>1</depth>
          <value>-8.7508266892961498e-02</value></_></nodes></_>
    <_>
      <nodes>
        <_>
          <depth>0</depth>
          <value>-1.9191075705996094e-04</value>
          <splits>
            <_><var>100</var>
              <quality>8.7725184857845306e-03</quality>
              <le>1.5492250025272369e-01</le></_></splits></_>
        <_>
          <depth>1</depth>
          <value>-6.3730032444006934e-02</value></_>
        <_>
          <depth>1</depth>
          <value>1.4637829427627691e-01</value></_></nodes></_>
    <_>
      <nodes>
        <_>
          <depth>0</depth>
          <value>9.6468603092034395e-04</value>
          <splits>
            <_><var>104</var>
              <quality>7.6195886358618736e-03</quality>
              <le>3.0492252111434937e-01</le></_></splits></_>
        <_>
          <depth>1</depth>
          <value>3.5216955269621389e-02</value></_>
        <_>
          <depth>1</depth>
          <value>-2.3768575929467045e-01</value></_></nodes></_>
    <_>
      <nodes>
        <_>
          <depth>0</depth>
          <value>9.2924628462527636e-04</value>
          <splits>
            <_><var>106</var>
              <quality>8.5210343822836876e-03</quality>
              <le>2.5000000372529030e-02</le></_></splits></_>
        <_>
          <depth>1</depth>
          <value>-9.3764400769984102e-02</value></_>
        <_>
          <depth>1</depth>
          <value>9.6216422561836781e-02</value></_></nodes></_>
    <_>
      <nodes>
        <_>
          <depth>0</depth>
          <value>-1.9537983299226999e-03</value>
          <splits>
            <_><var>3</var>
              <quality>7.1910480037331581e-03</quality>
              <le>4.0492248535156250e-01</le></_></splits></_>
        <_>
          <depth>1</depth>
          <value>2.1324896957463764e-02</value></_>
        <_>
          <depth>1</depth>
          <value>-3.3947448944112196e-01</value></_></nodes></_>
    <_>
      <nodes>
        <_>
          <depth>0</depth>
          <value>4.3512886519264611e-04</value>
          <splits>
            <_><var>120</var>
              <quality>6.7623397335410118e-03</quality>
              <le>2.3476698994636536e-01</le></_></splits></_>
        <_>
          <depth>1</depth>
          <value>3.9680842625713635e-02</value></_>
        <_>
          <depth>1</depth>
          <value>-1.8305839971134583e-01</value></_></nodes></_>
    <_>
      <nodes>
        <_>
          <depth>0</depth>
          <value>-9.4398474073155729e-04</value>
          <splits>
            <_><var>121</var>
              <quality>7.3506403714418411e-03</quality>
              <le>2.4992200732231140e-01</le></_></splits></_>
        <_>
          <depth>1</depth>
          <value>-3.9590046446799351e-02</value></_>
        <_>
          <depth>1</depth>
          <value>2.0209090824516313e-01</value></_></nodes></_>
    <_>
      <nodes>
        <_>
          <depth>0</depth>
          <value>1.7907014599336702e-03</value>
          <splits>
            <_><var>135</var>
              <quality>6.9101909175515175e-03</quality>
              <le>5.4476702213287354e-01</le></_></splits></_>
        <_>
          <depth>1</depth>
          <value>1.5584758831978464e-02</value></_>
        <_>
          <depth>1</depth>
          <value>-5.8372882394705250e-01</value></_></nodes></_>
    <_>
      <nodes>
        <_>
          <depth>0</depth>
          <value>-4.5473636884476523e-05</value>
          <splits>
            <_><var>36</var>
              <quality>6.7919399589300156e-03</quality>
              <le>3.8468950986862183e-01</le></_></splits></_>
        <_>
          <depth>1</depth>
          <value>-2.5343425017250020e-02</value></_>
        <_>
          <depth>1</depth>
          <value>2.9054700149403784e-01</value></_></nodes></_>
    <_>
      <nodes>
        <_>
          <depth>0</depth>
          <value>-7.1512253882651574e-04</value>
          <splits>
            <_><var>76</var>
              <quality>6.9610029458999634e-03</quality>
              <le>3.0492252111434937e-01</le></_></splits></_>
        <_>
          <depth>1</depth>
          <value>3.0952694645669583e-02</value></_>
        <_>
          <depth>1</depth>
          <value>-2.3649264700345332e-01</value></_></nodes></_>
    <_>
      <nodes>
        <_>
          <depth>0</depth>
          <value>-1.0977948739236375e-03</value>
          <splits>
            <_><var>77</var>
              <quality>7.3646004311740398e-03</quality>
              <le>4.9984449148178101e-01</le></_></splits></_>
        <_>
          <depth>1</depth>
          <value>-1.2317562697261301e-02</value></_>
        <_>
          <depth>1</depth>
          <value>8.4773389539897015e-01</value></_></nodes></_>
    <_>
      <nodes>
        <_>
          <depth>0</depth>
          <value>-3.0020649295877198e-03</value>
          <splits>
            <_><var>128</var>
              <quality>6.4254626631736755e-03</quality>
              <le>3.5484451055526733e-01</le></_></splits></_>
        <_>
          <depth>1</depth>
          <value>2.1109340899387308e-02</value></_>
        <_>
          <depth>1</depth>
          <value>-2.9114913591309322e-01</value></_></nodes></_>
    <_>
      <nodes>
        <_>
          <depth>0</depth>
          <value>-6.2989565923141728e-04</value>
          <splits>
            <_><var>23</var>
              <quality>6.1121960170567036e-03</quality>
              <le>8.1968998908996582e-01</le></_></splits></_>
        <_>
          <depth>1</depth>
          <value>-7.0595948885183992e-03</value></_>
        <_>
          <depth>1</depth>
          <value>5.7564577324623896e+00</value></_></nodes></_>
    <_>
      <nodes>
        <_>
          <depth>0</depth>
          <value>-8.5437928721234218e-03</value>
          <splits>
            <_><var>21</var>
              <quality>1.2870443053543568e-02</quality>
              <le>5.0468999147415161e-01</le></_></splits></_>
        <_>
          <depth>1</depth>
          <value>1.3808047974894610e-02</value></_>
        <_>
          <depth>1</depth>
          <value>-7.1122964791486221e-01</value></_></nodes></_>
    <_>
      <nodes>
        <_>
          <depth>0</depth>
          <value>8.2582743895142339e-04</value>
          <splits>
            <_><var>36</var>
              <quality>6.8753752857446671e-03</quality>
              <le>6.2461251020431519e-01</le></_></splits></_>
        <_>
          <depth>1</depth>
          <value>1.1080125071145785e-02</value></_>
        <_>
          <depth>1</depth>
          <value>-8.7700745520222090e-01</value></_></nodes></_>
    <_>
      <nodes>
        <_>
          <depth>0</depth>
          <value>1.0245289314327263e-03</value>
          <splits>
            <_><var>61</var>
              <quality>6.5616513602435589e-03</quality>
              <le>2.5000000372529030e-02</le></_></splits></_>
        <_>
          <depth>1</depth>
          <value>-8.6077060240395589e-02</value></_>
        <_>
          <depth>1</depth>
          <value>8.0682143097373010e-02</value></_></nodes></_>
    <_>
      <nodes>
        <_>
          <depth>0</depth>
          <value>1.1071689346701023e-03</value>
          <splits>
            <_><var>56</var>
              <quality>9.2430664226412773e-03</quality>
              <le>1.4499950408935547e-01</le></_></splits></_>
        <_>
          <depth>1</depth>
          <value>7.4509448410275278e-02</value></_>
        <_>
          <depth>1</depth>
          <value>-1.3245659861372558e-01</value></_></nodes></_>
    <_>
      <nodes>
        <_>
          <depth>0</depth>
          <value>-1.4118359548333356e-04</value>
          <splits>
            <_><var>21</var>
              <quality>7.3150959797203541e-03</quality>
              <le>3.5976701974868774e-01</le></_></splits></_>
        <_>
          <depth>1</depth>
          <value>-2.8510078823953743e-02</value></_>
        <_>
          <depth>1</depth>
          <value>2.7833402571182686e-01</value></_></nodes></_>
    <_>
      <nodes>
        <_>
          <depth>0</depth>
          <value>-1.0021121727331987e-03</value>
          <splits>
            <_><var>28</var>
              <quality>8.3113536238670349e-03</quality>
              <le>3.5976701974868774e-01</le></_></splits></_>
        <_>
          <depth>1</depth>
          <value>2.7214299420041898e-02</value></_>
        <_>
          <depth>1</depth>
          <value>-3.2182051229725883e-01</value></_></nodes></_>
    <_>
      <nodes>
        <_>
          <depth>0</depth>
          <value>-4.5426053086089805e-04</value>
          <splits>
            <_><var>54</var>
              <quality>6.8371132947504520e-03</quality>
              <le>5.6476747989654541e-01</le></_></splits></_>
        <_>
          <depth>1</depth>
          <value>-1.0131299032839509e-02</value></_>
        <_>
          <depth>1</depth>
          <value>9.5804412200517031e-01</value></_></nodes></_>
    <_>
      <nodes>
        <_>
          <depth>0</depth>
          <value>-5.7071720402525458e-04</value>
          <splits>
            <_><var>28</var>
              <quality>6.6974009387195110e-03</quality>
              <le>6.0000002384185791e-02</le></_></splits></_>
        <_>
          <depth>1</depth>
          <value>-7.3745025973024833e-02</value></_>
        <_>
          <depth>1</depth>
          <value>9.6248949886585319e-02</value></_></nodes></_>
    <_>
      <nodes>
        <_>
          <depth>0</depth>
          <value>1.9378483816131617e-03</value>
          <splits>
            <_><var>13</var>
              <quality>8.0876313149929047e-03</quality>
              <le>6.0000002384185791e-02</le></_></splits></_>
        <_>
          <depth>1</depth>
          <value>8.5099127580208198e-02</value></_>
        <_>
          <depth>1</depth>
          <value>-1.0099870751336482e-01</value></_></nodes></_>
    <_>
      <nodes>
        <_>
          <depth>0</depth>
          <value>7.7254392087260082e-04</value>
          <splits>
            <_><var>79</var>
              <quality>6.7394552752375603e-03</quality>
              <le>4.5984399318695068e-01</le></_></splits></_>
        <_>
          <depth>1</depth>
          <value>1.5355792081792089e-02</value></_>
        <_>
          <depth>1</depth>
          <value>-5.3041694946357065e-01</value></_></nodes></_>
    <_>
      <nodes>
        <_>
          <depth>0</depth>
          <value>3.0932548655689621e-05</value>
          <splits>
            <_><var>25</var>
              <quality>6.6046812571585178e-03</quality>
              <le>5.8484399318695068e-01</le></_></splits></_>
        <_>
          <depth>1</depth>
          <value>9.2010687992716191e-03</value></_>
        <_>
          <depth>1</depth>
          <value>-9.9212043644870662e-01</value></_></nodes></_>
    <_>
      <nodes>
        <_>
          <depth>0</depth>
          <value>2.5798495934877420e-04</value>
          <splits>
            <_><var>92</var>
              <quality>6.1487015336751938e-03</quality>
              <le>3.9468950033187866e-01</le></_></splits></_>
        <_>
          <depth>1</depth>
          <value>2.4445709620957760e-02</value></_>
        <_>
          <depth>1</depth>
          <value>-2.7405898742009183e-01</value></_></nodes></_>
    <_>
      <nodes>
        <_>
          <depth>0</depth>
          <value>-1.1725457719868116e-03</value>
          <splits>
            <_><var>88</var>
              <quality>7.5301914475858212e-03</quality>
              <le>3.1976699829101562e-01</le></_></splits></_>
        <_>
          <depth>1</depth>
          <value>-3.2793787307205002e-02</value></_>
        <_>
          <depth>1</depth>
          <value>2.5495722452978592e-01</value></_></nodes></_>
    <_>
      <nodes>
        <_>
          <depth>0</depth>
          <value>1.0269200534721356e-04</value>
          <splits>
            <_><var>87</var>
              <quality>7.8670326620340347e-03</quality>
              <le>2.9484498500823975e-01</le></_></splits></_>
        <_>
          <depth>1</depth>
          <value>3.8030870797836208e-02</value></_>
        <_>
          <depth>1</depth>
          <value>-2.2194518511740849e-01</value></_></nodes></_>
    <_>
      <nodes>
        <_>
          <depth>0</depth>
          <value>-1.2397796956406653e-04</value>
          <splits>
            <_><var>86</var>
              <quality>7.7925319783389568e-03</quality>
              <le>1.2492199987173080e-01</le></_></splits></_>
        <_>
          <depth>1</depth>
          <value>-6.4301852134905274e-02</value></_>
        <_>
          <depth>1</depth>
          <value>1.2858191746242342e-01</value></_></nodes></_>
    <_>
      <nodes>
        <_>
          <depth>0</depth>
          <value>6.0788281306931990e-04</value>
          <splits>
            <_><var>80</var>
              <quality>9.5600439235568047e-03</quality>
              <le>2.5000000372529030e-02</le></_></splits></_>
        <_>
          <depth>1</depth>
          <value>1.1586211170632520e-01</value></_>
        <_>
          <depth>1</depth>
          <value>-8.7321101066219112e-02</value></_></nodes></_>
    <_>
      <nodes>
        <_>
          <depth>0</depth>
          <value>-2.8066505243186580e-04</value>
          <splits>
            <_><var>80</var>
              <quality>6.7181997001171112e-03</quality>
              <le>5.0468999147415161e-01</le></_></splits></_>
        <_>
          <depth>1</depth>
          <value>-1.0423278213431116e-02</value></_>
        <_>
          <depth>1</depth>
          <value>8.6140613652712383e-01</value></_></nodes></_>
    <_>
      <nodes>
        <_>
          <depth>0</depth>
          <value>-1.8211266683056046e-03</value>
          <splits>
            <_><var>76</var>
              <quality>6.2233796343207359e-03</quality>
              <le>5.5984401702880859e-01</le></_></splits></_>
        <_>
          <depth>1</depth>
          <value>8.4379678582235645e-03</value></_>
        <_>
          <depth>1</depth>
          <value>-7.5846938513687956e-01</value></_></nodes></_>
    <_>
      <nodes>
        <_>
          <depth>0</depth>
          <value>-1.2085244486691311e-04</value>
          <splits>
            <_><var>127</var>
              <quality>6.7450036294758320e-03</quality>
              <le>1.2492199987173080e-01</le></_></splits></_>
        <_>
          <depth>1</depth>
          <value>-5.8309462794336540e-02</value></_>
        <_>
          <depth>1</depth>
          <value>1.2265686106954360e-01</value></_></nodes></_>
    <_>
      <nodes>
        <_>
          <depth>0</depth>
          <value>-1.5053030846257360e-03</value>
          <splits>
            <_><var>128</var>
              <quality>8.0241383984684944e-03</quality>
              <le>2.0992200076580048e-01</le></_></splits></_>
        <_>
          <depth>1</depth>
          <value>4.7781792193661757e-02</value></_>
        <_>
          <depth>1</depth>
          <value>-1.7472209694716670e-01</value></_></nodes></_>
    <_>
      <nodes>
        <_>
          <depth>0</depth>
          <value>3.9858198311839664e-05</value>
          <splits>
            <_><var>31</var>
              <quality>6.8045426160097122e-03</quality>
              <le>3.1476747989654541e-01</le></_></splits></_>
        <_>
          <depth>1</depth>
          <value>3.5170173307047040e-02</value></_>
        <_>
          <depth>1</depth>
          <value>-2.0683394506317654e-01</value></_></nodes></_>
    <_>
      <nodes>
        <_>
          <depth>0</depth>
          <value>-2.4791958374311020e-04</value>
          <splits>
            <_><var>32</var>
              <quality>8.6668152362108231e-03</quality>
              <le>2.8484448790550232e-01</le></_></splits></_>
        <_>
          <depth>1</depth>
          <value>-4.1846608453305470e-02</value></_>
        <_>
          <depth>1</depth>
          <value>2.2284522531026843e-01</value></_></nodes></_>
    <_>
      <nodes>
        <_>
          <depth>0</depth>
          <value>1.8554814224801533e-03</value>
          <splits>
            <_><var>74</var>
              <quality>6.6880802623927593e-03</quality>
              <le>1.0492250323295593e-01</le></_></splits></_>
        <_>
          <depth>1</depth>
          <value>-5.8444827038324688e-02</value></_>
        <_>
          <depth>1</depth>
          <value>1.1925936654222713e-01</value></_></nodes></_>
    <_>
      <nodes>
        <_>
          <depth>0</depth>
          <value>-6.7480269566203585e-04</value>
          <splits>
            <_><var>80</var>
              <quality>6.7835524678230286e-03</quality>
              <le>4.3445748090744019e-01</le></_></splits></_>
        <_>
          <depth>1</depth>
          <value>1.6066982052013033e-02</value></_>
        <_>
          <depth>1</depth>
          <value>-4.5649212355652036e-01</value></_></nodes></_>
    <_>
      <nodes>
        <_>
          <depth>0</depth>
          <value>-1.1500022136814069e-04</value>
          <splits>
            <_><var>5</var>
              <quality>6.8106534890830517e-03</quality>
              <le>3.2468950748443604e-01</le></_></splits></_>
        <_>
          <depth>1</depth>
          <value>2.8648455050427277e-02</value></_>
        <_>
          <depth>1</depth>
          <value>-2.5480911214608676e-01</value></_></nodes></_>
    <_>
      <nodes>
        <_>
          <depth>0</depth>
          <value>1.1963415260481888e-03</value>
          <splits>
            <_><var>118</var>
              <quality>6.2935296446084976e-03</quality>
