<?xml version="1.0"?>
<opencv_storage>
<opencv_ml_ann_mlp>
  <format>3</format>
  <layer_sizes>
    136 68 1</layer_sizes>
  <activation_function>SIGMOID_SYM</activation_function>
  <f_param1>6.6666666666666663e-01</f_param1>
  <f_param2>1.7159000000000000e+00</f_param2>
  <min_val>-9.4999999999999996e-01</min_val>
  <max_val>9.4999999999999996e-01</max_val>
  <min_val1>-9.7999999999999998e-01</min_val1>
  <max_val1>9.7999999999999998e-01</max_val1>
  <training_params>
    <train_method>BACKPROP</train_method>
    <dw_scale>1.0000000000000000e-03</dw_scale>
    <moment_scale>0.</moment_scale>
    <term_criteria>
      <epsilon>1.0000000000000000e-04</epsilon>
      <iterations>20000</iterations></term_criteria></training_params>
  <input_scale>
    5.1741509539286499e+00 -7.5969325676435329e-01
    5.1923953786083059e+00 -7.5259601216740191e-01
    5.2386290067796075e+00 -7.5475057397382517e-01
    5.1363381778586650e+00 -7.4512801712405208e-01
    5.2312164519589173e+00 -7.4879707516559346e-01
    5.1796686152973406e+00 -7.4431617608054956e-01
    5.1816057267565485e+00 -7.5067988500407667e-01
    5.4080667219797638e+00 -7.7204644859051730e-01
    5.2621050693573670e+00 -7.6166654965623981e-01
    5.1545018070814645e+00 -7.6870659863009583e-01
    5.2819681792568742e+00 -7.6484352011429191e-01
    5.1642712815116543e+00 -7.7307958971103174e-01
    5.2124523096848048e+00 -7.7052809869500738e-01
    5.2762589366566353e+00 -7.5297083076110527e-01
    5.3920517398437022e+00 -7.6465601255417215e-01
    5.5017764748433287e+00 -7.6119586675087136e-01
    5.4158859786047353e+00 -7.7409696583921905e-01
    5.4306358461564583e+00 -7.7392407660670082e-01
    5.3013596088279380e+00 -7.5281963939036334e-01
    5.1395194122142946e+00 -7.6842084331960159e-01
    5.1340881733045425e+00 -7.5829048795445109e-01
    5.0913470010408721e+00 -7.6995756875613264e-01
    5.1875845095019510e+00 -7.6514509667122133e-01
    5.1533941322426946e+00 -7.5853269885771990e-01
    5.1598462465318775e+00 -7.5000339877859334e-01
    5.1866495301625646e+00 -7.5872255038325254e-01
    5.0082508194492297e+00 -7.5782747624843294e-01
    5.0429547502417291e+00 -7.4379766743674935e-01
    5.2420881466075677e+00 -7.3165962319272693e-01
    5.2022976665361949e+00 -7.2778149036423356e-01
    5.1548920573264958e+00 -7.4251623274895073e-01
    5.0249339504758774e+00 -7.4695990172502047e-01
    5.2231565764650654e+00 -7.5350496169940440e-01
    5.3273546722002436e+00 -7.7027994723366111e-01
    5.2909807238079747e+00 -7.6743935638591521e-01
    5.2266409766693895e+00 -7.6926596808328584e-01
    5.1260210665281392e+00 -7.8720045241482850e-01
    5.1382976622998742e+00 -7.7426929247671028e-01
    5.2124369476805068e+00 -7.7198024312912750e-01
    5.1735655043186455e+00 -7.8896845767539148e-01
    5.2747392467490144e+00 -7.7823137829854361e-01
    5.3239062520154077e+00 -7.9263248409193632e-01
    5.3116097873337109e+00 -7.7628251689537553e-01
    5.3431287180606715e+00 -7.7355852546384929e-01
    5.3675274862143354e+00 -7.9975455409605323e-01
    5.2829713047582674e+00 -7.8889316298607604e-01
    5.3192559969859854e+00 -7.8080650222731940e-01
    5.1985834213143187e+00 -7.9065245641294246e-01
    5.1684279031357088e+00 -7.7071478737688193e-01
    5.2492675361551582e+00 -7.4279131231914519e-01
    5.2825051583636480e+00 -7.5831042637180779e-01
    5.2128696159808872e+00 -7.6423498782470034e-01
    5.1190314071194694e+00 -7.5907777525313369e-01
    5.1737949407249157e+00 -7.6515751586531544e-01
    5.2155560506304539e+00 -7.6396370759746346e-01
    5.1751821141407115e+00 -7.6551968834485618e-01
    5.2595214788962164e+00 -7.7572647145016493e-01
    5.1737012216359739e+00 -7.6035122770977381e-01
    5.2823355597871346e+00 -7.6224902012889384e-01
    5.2577466315378096e+00 -7.5472583694109596e-01
    5.1981189307686755e+00 -7.6355353053327135e-01
    5.1156102264253551e+00 -7.6847825034478434e-01
    5.0933412434446623e+00 -7.6631919124739967e-01
    5.1139561379168823e+00 -7.6424286535226016e-01
    5.1515657046340069e+00 -7.4496136052645734e-01
    5.2600636774037746e+00 -7.6571293598269241e-01
    5.2974695662934055e+00 -7.6818030065214482e-01
    5.2655226882430615e+00 -7.4691234190619171e-01
    5.3629071590529254e+00 -7.6792295279769407e-01
    5.2803008440593784e+00 -7.5608302066344157e-01
    5.2095525654931629e+00 -7.4948152306675286e-01
    5.1540857847578678e+00 -7.6624151704852939e-01
    5.0992734838938985e+00 -7.6265897237118019e-01
    5.0553199204011472e+00 -7.4271282276258366e-01
    5.2051090928997885e+00 -7.5251107362804093e-01
    5.3198163457037539e+00 -7.5859519728178859e-01
    5.3782780905558498e+00 -7.6392043253235875e-01
    5.4625254093382747e+00 -7.6539916960306897e-01
    5.4182445688472773e+00 -7.8274833898692220e-01
    5.4792593758839043e+00 -7.6185531608001722e-01
    5.4407111585023964e+00 -7.6572291599840392e-01
    5.3911142912163248e+00 -7.6115261224187170e-01
    5.4520251742384875e+00 -7.8136671112107847e-01
    5.3353402625743733e+00 -7.6970295842654191e-01
    5.4373468641711780e+00 -7.8682663040998635e-01
    5.3027768377668494e+00 -7.3555561155086691e-01
    5.3833962607711294e+00 -7.5670521957252312e-01
    5.2352833207541858e+00 -7.5276130341731318e-01
    5.2565665343629027e+00 -7.3767923126948964e-01
    5.3787797943417885e+00 -7.5410246903035694e-01
    5.3977683443871918e+00 -7.5548043010319621e-01
    5.3398472627769769e+00 -7.5022928980965298e-01
    5.2834731355604783e+00 -7.7588129469642952e-01
    5.2998116416593266e+00 -7.6757751319131273e-01
    5.4530818618422217e+00 -7.6011148429458208e-01
    5.3266691906098291e+00 -7.7057886193472702e-01
    5.3248443126631990e+00 -7.9363972866806398e-01
    5.3654130787253660e+00 -7.8993556783621866e-01
    5.3191837402507032e+00 -7.7130034444641982e-01
    5.4320706442848099e+00 -7.9875074157696047e-01
    5.3683877044445119e+00 -7.9074035215511274e-01
    5.2071347390456415e+00 -7.8641053542256101e-01
    5.1734509293250115e+00 -7.7635454431578244e-01
    5.1924558857767042e+00 -7.8752082075234442e-01
    5.1233059729917327e+00 -7.8374746758075264e-01
    5.1181568800878594e+00 -7.5960890327832786e-01
    5.0316825751351786e+00 -7.8092365046935808e-01
    5.1370812364215590e+00 -7.6802466348339393e-01
    4.9800372129633663e+00 -7.6311274457946732e-01
    5.1100892714063946e+00 -7.7880490140102421e-01
    5.1103615463584191e+00 -7.8277762318255151e-01
    5.0737100897049432e+00 -7.7954226950881933e-01
    5.1849425236070257e+00 -7.7357612131466724e-01
    5.2845521651924035e+00 -7.8131041853166494e-01
    5.2660812514120110e+00 -7.8022940326978196e-01
    5.2413473088403020e+00 -7.9126342951736395e-01
    5.0996890513706949e+00 -7.8025063627175451e-01
    5.2158176970664920e+00 -7.7065853940413676e-01
    5.4042186473269203e+00 -7.4992285123476343e-01
    5.2592758563691229e+00 -7.5522549873866196e-01
    5.2943685507049016e+00 -7.5785131650263615e-01
    5.4471328873953473e+00 -7.5343237676057884e-01
    5.4195398418077909e+00 -7.7190252111761148e-01
    5.3977090805249590e+00 -7.4857518163045400e-01
    5.2508323955226910e+00 -7.6976453198731176e-01
    5.4539863940196645e+00 -7.6525583619009818e-01
    5.2653291692036825e+00 -7.7236402794456549e-01
    5.3304311224454342e+00 -7.7315010449067956e-01
    5.3449324994345853e+00 -7.7292889176379365e-01
    5.1558365126906880e+00 -7.8473868916724643e-01
    5.1023428647202573e+00 -7.6216456392561593e-01
    5.1496769783707759e+00 -7.7568363836888876e-01
    5.1290538254882616e+00 -7.8028031585243740e-01
    5.2083390749707306e+00 -7.7458399029700298e-01
    5.2739558085342511e+00 -7.6502199267478621e-01
    5.1288975723753421e+00 -7.7753177976391930e-01</input_scale>
  <output_scale>
    5.2631578947368425e+00 0.</output_scale>
  <inv_output_scale>
    1.9000000000000000e-01 0.</inv_output_scale>
  <weights>
    <_>
      -1.4316756090630770e-02 3.7338377058140977e-02
      -1.3130454654741786e-03 -1.8900203677515901e-03
      1.0454405024555127e-03 1.2065066162432038e-02
      -1.8941096237736373e-02 4.3469240313131086e-03
      -7.4076967282177717e-03 -4.7177033891867472e-03
      6.8364119787356192e-03 1.8952368796583657e-02
      5.3169378076279653e-03 -1.0284427696696548e-02
      -1.5848828264487965e-02 -1.4868594204776620e-02
      5.7688789819354399e-03 1.6639349249182451e-04
      -7.1159353387140341e-04 -6.2072556353691194e-03
      -4.0799221527900364e-03 -2.5418278136903158e-02
      8.1152209025247470e-03 4.5212555808446736e-03
      3.6918254993266092e-02 7.4552788386607702e-03
      -2.9425903922662418e-03 -3.8477627798862949e-05
      -3.1964221468569018e-02 1.8024596959684352e-03
      -5.5559335558853506e-03 1.7149862867138113e-02
      1.5047962975364098e-02 -2.3914800128166779e-03
      1.0927834720261259e-02 1.9062202602765248e-02
      1.9597783538095816e-03 -2.1823950398919766e-03
      -5.9428021977345740e-03 1.9130728369073632e-02
      1.2007487568922834e-03 -8.9148295635179849e-03
      5.3185193872829365e-03 1.7883896698448810e-03
      4.6708449817886664e-03 2.1524174915166744e-03
      1.8736134260514858e-02 1.9633204157560855e-03
      1.8305724400474399e-02 -1.0899957156461601e-02
      1.5385250366870083e-02 1.1328830539410705e-02
      -1.3514463075368761e-02 1.2689734048320387e-02
      1.5392587087298459e-02 -1.4163350424085872e-02
      1.2103663813418887e-02 1.6743768089080617e-02
      -1.6093505698490138e-02 -8.5499913119082577e-03
      -8.4138037439222373e-03 -1.6331260687948570e-02
      3.1833567542092168e-03 -9.8536388455705837e-03
      9.9382233506642198e-04 -3.7831499108375616e-03
      1.9510042890449320e-02 1.6785551172771515e-03
      3.1268455752029938e-03 2.4677926288468790e-02
      -3.0278375139409478e-03 1.3772515561315831e-02
      -5.6095476802000615e-03 1.2892969461411784e-02
      6.2806524730702872e-03 1.3026659672189763e-02
      -4.3595156010773238e-03 5.0064978599919175e-03
      -1.1239392147416994e-02 -1.3272769598714282e-02
      -5.6565460851438990e-03 -7.1454805374673892e-03
      -9.9800011756831595e-04 -1.2202303611790899e-02
      9.4328565409441383e-03 2.6627886497540085e-03
      -5.9057937956299164e-03 5.1477996341788550e-03
      -1.1113191743416607e-02 -1.0071899329134838e-02
      -1.3862858260206477e-02 -5.8912849846450730e-03
      -8.9121382416450473e-04 -1.1463796843504510e-03
      4.3847845266086144e-03 -5.5005751019020933e-03
      -1.1472774260321641e-02 -5.8948737212464867e-04
      2.2009887442128772e-03 -1.2683163318589214e-03
      -1.0779456857395908e-02 -2.3659808792410048e-03
      1.1506928552009042e-02 6.8998105397562971e-03
      -1.8930957932420261e-03 9.6049022676427780e-03
      -1.5807346707927303e-02 1.2385457602353057e-02
      -1.5124704316355275e-02 -1.0888562779297574e-02
      -1.0616988122024752e-02 -4.7602816005764487e-03
      1.2280668182461638e-02 -7.4219229216989637e-03
      1.3711085781543217e-02 -3.9804550610338021e-03
      -1.1677355361337282e-02 -1.0636965589507510e-03
      4.8883060045987132e-03 -6.0798103979459249e-04
      3.4627176405203088e-03 -6.0167637320325332e-03
      -1.3374413846103632e-02 -1.1925070237592164e-02
      2.3202435459116618e-03 1.0454270091226016e-02
      -1.4749186525800722e-03 -2.0766262441565472e-03
      -1.2741882296037017e-02 -5.5173450821297872e-03
      1.2558127974255217e-02 -3.5876169211635266e-03
      -3.5615972304973392e-03 -6.1090498765191859e-04
      -9.6599611431536034e-03 -7.5310913907641079e-03
      -7.5818878799472928e-03 1.5205476645459712e-02
      5.3263579477584172e-03 -2.1390787092624266e-03
      1.6171203101357428e-02 -1.4271415692751857e-02
      5.9212131241102757e-03 1.0937496594053246e-02
      -1.3328173710841069e-02 -1.0954249982045221e-03
      1.3778825177716397e-02 -9.7430265885830227e-03
      9.8238511911803161e-03 1.4238308182258956e-02
      -1.1087726201369972e-02 -9.3148484267893648e-03
      -1.0448192084105586e-03 -6.7093736721952337e-04
      -9.0447631608663957e-03 1.4491016780757346e-03
      6.4532224871128967e-04 -9.9820494838397181e-03
      -7.0454368458928293e-03 -1.2107396514900727e-02
      1.6608742061512197e-02 5.3298773784816733e-03
      -1.5238333540019437e-02 5.9437017466332301e-03
      -6.7733130846478326e-03 -1.3006432040122634e-03
      -1.5779763218413845e-03 7.7685001411064887e-03
      -1.0783226623390662e-03 1.9560347727730692e-03
      9.2208123836282053e-04 5.4735355335596963e-03
      1.0892924897591458e-02 6.0723891356360181e-03
      -4.4525638826236127e-03 4.3983115561025592e-03
      8.9715058457367249e-03 3.8200668867308680e-03
      -4.0443151883355569e-03 1.0435654579325189e-02
      -4.2581405153563493e-03 -2.1086412577613022e-02
      1.7375411546928336e-02 5.4488445005561473e-03
      2.4867534614748253e-03 -1.7910363225992470e-02
      1.9103437098401319e-02 4.1771286863769332e-03
      -1.0741458936213756e-02 1.0948890618327821e-02
      9.8886533842817703e-03 -6.4941513561861842e-04
      2.6722990671199432e-03 2.7023048178218004e-02
      -1.1151896920043088e-02 -4.2914392313547099e-03
      4.5860996198956059e-03 -3.6578946532737642e-03
      6.9873682221544293e-03 1.9684556016300045e-03
      1.4747785121477950e-02 1.9536201847318795e-02
      1.8550603083761076e-03 2.1422042425124545e-03
      -1.4386845464360977e-02 3.5675803299157503e-02
      5.7801369471319371e-03 -1.4088158570052696e-02
      5.6050570204856324e-03 -1.0406735768500402e-02
      -1.8483624757001681e-02 -1.2153460262791276e-02
      6.8183883805595508e-03 -3.3723535614922110e-03
      -7.6608662952599273e-03 7.8077592371226740e-03
      1.5952011303230634e-02 -9.5370219835349268e-03
      -1.1038259417317462e-02 3.3947536442188297e-03
      9.5659881130219938e-03 1.6522192499422095e-02
      -3.6300375722668090e-03 -4.8580947619506822e-05
      1.4922178572110778e-02 -8.0495289925234803e-03
      1.3717826541179493e-03 -8.6978758186594934e-03
      4.1161029775736699e-02 -3.0314048071972796e-03
      -2.9128695759054506e-02 -3.5668139964992970e-03
      -3.2310239246737114e-02 -7.7957470588410618e-03
      -1.1775027060994847e-02 1.7189198624082924e-02
      3.0710298398592584e-03 -9.4083594732011291e-03
      1.6891385424913235e-02 3.4707848427819638e-03
      -1.2128845563306418e-02 -1.1376255363242530e-02
      1.2327341225385294e-02 5.0557876780467350e-03
      1.8769975926958404e-02 -1.4424833460280635e-03
      4.3798917128993016e-03 1.2094338491725077e-02
      -3.3083961445104825e-03 -9.8612330944554058e-03
      2.7587584280357164e-04 1.5428726964237107e-02
      4.9176929315168788e-03 -1.0731742122659248e-02
      7.9367356997370065e-03 9.8472295348991847e-04
      9.6431808761370170e-04 5.2455806399738288e-03
      1.0962129712285778e-02 -1.2259326914568035e-02
      -7.2857050689063476e-03 2.7628217143513326e-02
      3.5300623935289989e-03 2.7181878341964589e-04
      1.4609595406419150e-02 -1.6463867398617466e-02
      -1.3106742885182968e-02 -8.1428876600233083e-03
      8.8403284245687080e-03 1.3383286323678774e-02
      -3.9460621911415646e-03 -1.4400549541018758e-02
      -1.1492865705612646e-02 1.8160468588187702e-02
      -1.9251799001783903e-03 -6.5003424580179726e-03
      -6.5998203420734600e-03 -8.3531946403355914e-04
      9.0639817775879841e-03 8.5014907319089002e-03
      1.2314265444821068e-02 5.2583931495084309e-03
      -4.5029969224925689e-03 4.7998348017684557e-03
      -1.6100713424340107e-02 1.6074336167976058e-02
      5.4656203400102309e-03 -5.6418229024649312e-03
      8.2891998055851911e-03 -2.4931329815929999e-03
      2.9159579500920800e-04 -1.2858241236790987e-02
      3.5577217793091131e-03 -7.1711926143069229e-03
      7.9733876513537344e-04 9.8165876607272714e-03
      5.6528418770846771e-03 -1.3044945165364160e-02
      -3.4817071514019957e-03 1.9151549887602815e-04
      -1.5173948690744546e-03 5.7446926513036022e-03
      -4.6724344146782185e-03 1.1022892031059149e-02
      -1.5044985698449114e-04 -1.2837418619136383e-02
      1.3843516159576989e-02 1.2016892126275833e-02
      1.1481010492754814e-02 1.2235475906801449e-02
      -1.3751150598183253e-02 -7.3321480763180501e-03
      6.0443533460249610e-03 -8.7691119921468833e-03
      -5.0917773921631071e-03 -4.8432819657034448e-03
      1.2308263128896216e-02 -1.5214729210370980e-03
      -8.1211253293449453e-03 1.0337696378586109e-02
      -8.9583895615139505e-03 8.8845368356052917e-03
      2.2280263669705765e-03 5.6427159995758877e-03
      1.2388865767372697e-02 1.0525009864194031e-02
      2.7049184586934102e-03 5.7960786846279252e-03
      -1.4586147185782791e-02 5.2378828709382140e-03
      7.5616220835969970e-03 -1.5724040037633513e-02
      1.5373460834014489e-03 -9.9608084857883902e-03
      5.2925382936947526e-04 1.5650917273553791e-02
      -1.3100590259689650e-02 -1.6554163309064358e-02
      -3.7400220229552835e-03 5.6787101301025867e-03
      -9.4629466761995251e-03 1.6303951953116232e-02
      -2.7139510851063768e-03 6.3615807768139607e-03
      2.7483565303939150e-03 6.5820318511066412e-03
      -8.6244678548511658e-03 1.0663936853919382e-02
      3.3783738712713364e-03 6.9034446143891601e-03
      -1.3011302149907433e-02 -1.0649136866094608e-02
      -9.0404825075905484e-03 4.6643315755551182e-03
      9.6264467871381293e-03 1.3746795856176091e-02
      1.2447675178807719e-02 1.7319366372491152e-02
      5.5387042193526864e-03 2.6156065870549546e-04
      -9.8378452622588704e-03 -2.2756197952854263e-02
      1.1988307035656291e-04 -4.0400319949031896e-04
      2.9095117720829875e-02 -4.2903451932277490e-04
      -2.3797757780579753e-02 -1.7911269010098277e-02
      -1.0883450084368279e-02 -4.8576173965014209e-03
      8.2847973164582240e-04 1.1456872859650117e-02
      2.3392662506763647e-03 -5.0286499343715893e-03
      -7.1702056486537911e-03 -4.0003206522672427e-03
      4.2255350609904409e-03 9.0799590480911504e-05
      1.3255072209082961e-02 -1.8882280609956107e-03
      -4.4485372437181800e-03 -1.6746406308331799e-02
      1.3664814795109509e-02 4.3351823435286343e-03
      -1.0591445738654622e-02 -9.4169208310449348e-03
      1.8331601765599333e-02 -8.7181165622823349e-05
      1.4926055765962854e-02 -1.7693420147223943e-02
      6.3992224902092538e-03 7.8466558389282300e-03
      -9.4224478683862644e-03 -1.2733071750732499e-02
      -1.1306141841088191e-02 -2.6292362717521903e-03
      -1.0481193972903627e-02 5.9868713418921062e-03
      9.3749867576456408e-03 -1.0994963422001737e-02
      -1.3913888913841559e-02 -1.8653214580182590e-04
      -1.1515649176874341e-02 6.3273635419950399e-03
      1.0005281913420974e-02 -7.8207391295126698e-03
      9.9110838594540594e-03 7.9445455158765176e-03
      1.0863097254165767e-02 1.8213201666712885e-02
      -7.4114926235829522e-03 -1.2121112200848555e-02
      -1.1124299373614801e-02 -5.1880205721427904e-03
      -7.2709250813182327e-03 -1.1659657938627671e-02
      -1.1278562082622763e-02 6.6914671524894104e-03
      7.3632303817034650e-03 3.8259732088411695e-03
      1.0611865339655954e-02 -3.2355651820729814e-03
      8.4124169145609416e-03 -4.5661857791850684e-03
      -2.2508662689838710e-03 -8.3432639483121858e-03
      5.4945875797636880e-03 1.0249211179899414e-02
      5.0239816517705285e-03 -1.2464553577649739e-02
      5.7768482385142789e-03 -7.8689310966906113e-03
      2.1467951742425488e-02 -9.3657221424582292e-03
      3.9862764239246640e-03 -3.1465575499571852e-03
      -1.1214498779041480e-02 -5.1515406106814009e-03
      5.9307538951053843e-03 8.6780496855419238e-03
      -2.4399024488826267e-03 9.0651425948670844e-03
      3.1539755380469089e-03 -1.7396196694969030e-03
      -1.2576668815925214e-02 -9.4564755931496134e-03
      -9.0961324570376888e-03 -1.1678545897918490e-02
      6.1816609630834839e-03 -5.5138489674374982e-03
      -1.4164535526508707e-02 -1.3368932376354836e-02
      -9.8474061152867710e-03 -1.0210757380415329e-02
      1.0200771923339739e-02 -9.1973065387986660e-03
      -1.0714421076703746e-02 4.9809291273863821e-03
      -1.5647925441980636e-02 -1.5802835370897647e-02
      6.8678777051704096e-03 -1.0798001999293393e-02
      -9.9903680669686697e-03 1.3281122754358743e-02
      -1.2371496607139331e-02 1.1928609356570924e-04
      -4.7264225825544718e-03 8.8225157574778638e-04
      -1.8803890995561965e-03 -1.1248911934433559e-02
      1.0905709383576162e-02 -2.2592966718221641e-04
      -3.2913200332313260e-03 -9.7526391629709479e-03
      -6.7819372457195576e-03 -2.9375000813065271e-03
      -8.0479726515178974e-03 3.5604573023766878e-02
      -3.3474651771951427e-03 -1.1932489618572198e-03
      7.3789255844828299e-03 -8.6775815867734512e-03
      3.3860546459380963e-03 6.2308349421693124e-03
      3.5773085638158880e-03 1.4859606742926176e-02
      -5.4898763486520166e-04 -2.2973211467522329e-03
      7.2724724162769178e-03 1.3895655380503152e-03
      -1.3293877886742501e-02 -3.6575384507241274e-03
      -8.8897286103393341e-03 2.2969514530440933e-03
      -7.3992688788664530e-04 -5.9131489136847295e-03
      7.1288585265776451e-04 -3.7689935389448653e-03
      -1.3838532986727381e-02 -9.3888740978364457e-03
      1.2081448956942983e-02 -3.0667642787307677e-03
      -2.0986720481594598e-02 9.8870951708345724e-03
      -7.1088047559011757e-03 -1.8634941236614747e-02
      5.5625773748265326e-03 -1.6617660549642721e-03
      -1.2419576230869606e-02 -7.7042877478524646e-03
      2.1586050981552255e-02 1.7425926009722925e-02
      -4.0602725185246444e-03 -6.7344296779077118e-03
      -7.0934981162614633e-03 1.2801141894364768e-02
      -8.8865943269844355e-03 9.5215751475623053e-03
      -1.2134180832497888e-02 9.7406210240379137e-03
      1.2381727951572699e-02 4.1186214680456624e-03
      8.5286583498681498e-03 1.8094567045120288e-02
      -1.2671290425019048e-04 -1.0948577666197140e-02
      -5.4627797935158312e-03 -5.9851353082534687e-03
      -1.0245244738623023e-02 9.4355690137173879e-03
      -8.0241913074074935e-03 -6.1429288917976919e-03
      6.0476652250600789e-03 2.3089597272532878e-02
      -1.0689868096084361e-02 8.3624580223785206e-03
      2.8864852639014019e-03 8.9534193363213083e-03
      -2.7454715824337728e-03 -1.2233747969256699e-02
      1.2991612434455855e-02 -6.8345263273861707e-03
      -8.9150224353499920e-03 5.9722633205832726e-05
      -7.4204551566563358e-03 7.0296208655570621e-03
      -7.9682946622205431e-03 -4.5578308342140786e-03
      -3.4380978992576427e-04 8.5517980262785898e-03
      5.9761176199574434e-03 6.7926539107611497e-03
      1.4371683843660287e-02 5.5180737342360358e-03
      -3.8123868855447630e-03 -9.4746689638855127e-05
      -3.8550431065823829e-03 6.6409897770167668e-03
      1.0430306812477599e-02 -1.2819385399296371e-02
      -7.1916861230484639e-03 -1.8938272241957810e-02
      -9.6610421726572651e-03 -4.9113792702424252e-03
      1.0121468567594195e-02 -8.2318162514720527e-03
      -7.0109266467150589e-03 -1.4129473382109842e-02
      3.0052116805324745e-02 -8.8837721231829325e-04
      1.7495431212745558e-03 5.7900742885480180e-03
      -2.2527665547573555e-02 -9.8309968742669330e-03
      -3.6177361139088670e-03 -4.9968006441936594e-03
      -8.1453547689666758e-04 2.8039120161005749e-03
      3.2075992607512719e-03 -1.4229831114970549e-02
      -2.2150711682291544e-03 -1.4133646338891669e-03
      -2.9756749527451803e-03 -1.5282755941817334e-02
      -1.4356139500766030e-02 6.1677164853296967e-03
      1.4198035284238352e-03 1.2690751930038191e-02
      -1.7295662876197271e-02 -1.1743853643927507e-02
      1.0144800653740717e-02 -1.2498309028909730e-02
      -6.8442644721600594e-03 1.2135230740184903e-02
      -9.4275051809700160e-03 -2.8162972049461639e-03
      1.0697147906631687e-02 -1.3936910227862247e-02
      -1.3662779304081583e-02 1.5796095017655457e-02
      3.6640790561626277e-04 7.7764943542375222e-03
      4.7803659623351204e-03 6.2248911120591204e-03
      -8.1926942584492396e-04 6.8291863180927493e-03
      1.3364537127920328e-02 3.4937322760258613e-03
      -2.3676806136941381e-03 5.9960655889144260e-03
      -1.4791391495925000e-02 -9.5096792702408749e-03
      1.0725641264838135e-02 1.2216319719265132e-02
      -4.5974879618749806e-03 -6.5455231983925664e-03
      9.1539885949034078e-03 -7.9967868208470645e-03
      7.0083860257862743e-03 -1.3729210654269319e-03
      4.4905290302858268e-03 8.3415271938548172e-03
      -9.0197298493263568e-04 8.6521609471938363e-03
      -5.0860895588320390e-03 -7.6446683211037099e-03
      -5.4467254876841434e-03 7.0807736217573134e-03
      -1.2586900907131566e-03 -1.2582237329062860e-02
      5.5904886324826654e-03 9.4628645653290402e-03
      -1.0874690649250859e-02 -1.6159092611464781e-02
      3.2565564504861305e-04 -1.3185828001097265e-02
      2.7919360442080578e-02 -4.1087386602112041e-03
      1.2799653054126827e-03 -6.4961796520887594e-04
      -5.7293521466877861e-03 7.8272924352504984e-03
      2.2724501075243693e-03 2.7436166204870905e-03
      8.4095988687294451e-03 -6.9159186767122384e-03
      2.6731145972522523e-03 4.3567320155506661e-03
      -1.0364857080244665e-02 3.9742337979068853e-04
      -8.6402962472630612e-03 1.0440024457156550e-02
      -4.6835358757757149e-03 1.4380307885442202e-02
      -7.0470588815228525e-04 -3.3600929110963280e-03
      -1.2445728322542303e-02 -1.2402673949304568e-02
      -1.5235296535532180e-02 -8.9909256297081019e-03
      7.1715865967079137e-03 -5.5016090000032476e-03
      -6.9067919360727369e-04 -1.9039655195936638e-03
      7.2869422729510971e-04 -3.2385925995773463e-03
      -1.0157652361836843e-02 3.2609903452574594e-03
      -5.5177242369767576e-03 1.4059082888173990e-02
      8.4942606029408726e-03 -1.4119575681096222e-02
      -9.2942754373197649e-03 1.7364470596938394e-02
      -1.0270988260347736e-02 -3.9475158268076497e-03
      3.3953835174091881e-03 -2.2809013222599657e-02
      -1.6826308536509692e-02 -1.4460386947943531e-03
      9.9861566808298555e-03 3.6641662926365164e-02
      -1.3100024752291998e-02 -1.2989784249385034e-02
      -1.1934952904366454e-03 3.4578586671975766e-03
      -1.1473372547375403e-02 1.1345245455885306e-02
      1.4039025523414335e-02 1.6904740667761109e-03
      2.1849488853202745e-03 -7.5935483448498365e-03
      3.6591057138512309e-03 8.1693309953867026e-03
      -2.4855242669433904e-03 3.0397579561069156e-03
      1.6658385179878773e-02 1.7472805178292014e-02
      -1.0593526663866930e-03 -1.0506942221753789e-02
      4.7131257150538841e-04 -4.9163446745866361e-03
      8.1112945286693668e-03 8.8442996494328980e-03
      3.6465225161904126e-02 8.4405972057517466e-03
      -1.7900430015254896e-02 3.5098795071123335e-03
      -4.1256841890132357e-03 -1.5002564450000843e-02
      1.5155826060489031e-05 1.5637611626225342e-02
      -2.9196696354733239e-03 1.2053581641476940e-02
      1.5524629388581099e-03 1.0995861124270407e-02
      1.3144035032356654e-02 2.7905696817955641e-03
      8.6661324117650682e-03 6.3527842122951383e-03
      1.5486485410842698e-02 -2.7531073170860452e-03
      -6.8167024047472314e-03 -1.2475204225429862e-02
      5.5787523773281047e-03 -1.3806636960307339e-02
      -7.9430077870212682e-04 -8.9588924564711122e-03
      -6.4978279238060276e-03 9.4423541397389010e-03
      -4.8059316674088273e-03 1.5763740878915401e-02
      -5.3429496478296732e-03 7.0964486784997260e-03
      -6.2086847189603903e-03 -9.3093347404185726e-03
      7.2785830872390518e-03 1.1821315249376307e-02
      -2.4847682627435908e-03 -9.8554491494118948e-03
      -5.8077540818061374e-03 -2.7511787042649736e-03
      1.1681596774580760e-02 1.2314459744713841e-02
      -1.3775067456179223e-02 1.2565363776330550e-03
      1.5090280691913410e-02 1.2147580765596338e-02
      2.9274669691254566e-04 3.1408236430915608e-02
      -2.8321303345931192e-03 8.6952183033188711e-03
      -7.7242431399178173e-03 3.6138071201915318e-03
      -1.7048998541428998e-02 5.6113156380149078e-03
      -4.5553351787636078e-03 -7.2429904188920820e-03
      -5.5764084547484521e-03 -1.6439735326217167e-03
      -1.0956049003748450e-02 -3.9455087243051553e-03
      -1.0897358991533723e-02 -7.7712702261602011e-03
      5.3237757572436673e-03 2.7946854402779013e-03
      -7.8832055548038911e-03 -1.0738402018578700e-02
      -8.6457931567478965e-03 -1.7193682986856217e-02
      -1.4797748888514586e-02 -7.6195003132786899e-03
      2.1052786293091447e-02 -4.2613082879951764e-03
      -9.7013055594033053e-03 9.1759155708157868e-03
      -2.7180884918333703e-02 -1.8815161613031327e-02
      -2.8979739668876054e-03 -1.4003742919644858e-02
      5.1608626031325834e-03 -2.8558777677003570e-03
      1.6027794812147479e-02 2.3445930532406033e-02
      -1.8068978196745075e-03 1.1422237533925371e-02
      -5.0194744719873350e-03 -7.4584320273568443e-03
      -5.7089990548952621e-03 8.5436854165184505e-03
      -8.8603065929010287e-03 1.2507018957481030e-02
      5.5055270725768114e-03 -1.8235740009292019e-02
      1.7987621207861831e-02 6.6449738715335591e-03
      7.6008729495037290e-03 5.7567871508942721e-03
      9.3328061284307234e-03 -9.2239613394575013e-03
      5.3947028676610978e-03 1.1158086548170242e-03
      -9.8894999851576078e-03 4.7942220145784963e-03
      -3.6455298793398026e-03 2.3263811141665793e-02
      -1.2095387641800570e-02 -9.9384416132364678e-03
      1.7323762652991317e-02 5.5792804563480122e-03
      -1.4781995027152824e-02 6.1725146216338620e-03
      4.9934521986270790e-03 2.1361392393802930e-05
      1.6869733760749281e-02 6.2852388462942589e-03
      -7.2851173010175336e-03 8.3259839732047584e-03
      9.8209703948540436e-03 9.4432044190196004e-03
      -1.3402765020878582e-02 1.0595224225877864e-02
      2.6455197407839175e-03 8.0287188551207717e-03
      -1.3180795433058515e-02 4.5146173029727002e-03
      -3.5095415021052638e-03 -9.4904020587826474e-03
      -3.3616564394863811e-03 -1.3129024991760309e-03
      1.4500673250117805e-03 1.3230905755876618e-02
      -1.1056544435694982e-02 3.1205832666558906e-03
      1.1330081158444513e-02 -1.1117360010711617e-02
      -1.2535688494947697e-02 6.3760397037065115e-03
      7.7020239462986450e-03 -1.0960461594564959e-02
      1.9289135309413771e-02 -1.2666182847535479e-02
      4.0740170564191594e-03 4.7654177490370972e-03
      -1.1791361855010498e-02 3.2049857914206764e-03
      1.8409007731773647e-03 -9.0330732136122763e-03
      -7.6655981147825925e-05 -2.5078360387057008e-03
      -1.3614092092987034e-02 1.6133047254867448e-04
      8.5302777788597243e-03 -1.9722174176298728e-02
      -1.4759302329220444e-02 -1.8233697457942757e-02
      -4.5795289486532369e-03 1.1673357347638308e-02
      -7.2350134328545983e-04 -3.6505618351383665e-03
      -2.1269418297125638e-02 -2.2937107601520780e-03
      1.0927066483938774e-03 -1.9480241818677826e-02
      -1.9917900465552230e-03 1.8162899190289367e-02
      -3.0121924142539631e-02 8.7235575218864367e-03
      -1.0683726196028165e-02 -7.7541444113154766e-03
      -5.7496721002925164e-03 2.0717287315698874e-02
      -2.2748102946134005e-03 -3.6925611571863312e-03
      4.8241122829092154e-05 5.9460854031673869e-03
      -7.0642886624345735e-03 3.4083106574251672e-03
      2.2762261770033380e-02 -4.6581918114971367e-03
      -1.8231010267638465e-03 -3.1835850673741471e-02
      -1.9761975179083673e-02 -1.0130237448891040e-03
      -8.3407648427325110e-03 3.3393945910534031e-02
      -8.6052384146294830e-03 -2.8470192814448085e-03
      7.4071853679113890e-04 1.0177467485647648e-02
      -3.7688821694228792e-03 5.5301378697201527e-03
      -4.7540170429406043e-03 2.2087339304020636e-03
      2.9148480503245876e-03 1.3818031110704027e-02
      -4.7506072842053038e-03 -1.0839890819675794e-02
      1.8913955013158965e-03 1.1708600158490172e-02
      6.9745822263899606e-03 1.5779707963046839e-04
      -1.4337810896959360e-02 3.9352846864251761e-03
      -1.7082763783887655e-03 -1.2927288716586468e-02
      -3.5512911557878959e-03 -1.4343204184533101e-02
      3.2824531330044093e-02 -1.0614076522244109e-02
      1.1466272294234090e-02 -2.6533053897262768e-03
      -1.8050315067796613e-02 -5.9003649819507542e-03
      1.6139917911845323e-03 -1.0542596327146846e-02
      2.1497134614347109e-03 -1.0499332597214436e-02
      8.3823530634039266e-03 3.0243158256733418e-03
      -8.7293359645904192e-03 2.2365321907881802e-03
      4.7487661756952992e-03 -6.0703145724725098e-03
      1.3526703451567194e-02 1.2642616333737122e-02
      8.9170050094465533e-03 -2.7006145148622787e-03
      1.1289838680097471e-02 1.1180505345497714e-02
      8.6175561053684711e-03 8.7409081592728262e-03
      -1.1150701185829805e-02 -1.4781640084049226e-02
      2.5968116914678232e-03 1.3223733773995926e-02
      -6.0046302505022972e-03 -5.3458575646694630e-03
      -1.1516383481542384e-02 -7.8892043764725531e-03
      1.3507795121172681e-02 1.6183295452775377e-02
      -1.1008985392839786e-02 -1.4684567007397689e-02
      -3.4310171871567703e-03 -1.2541196971312767e-02
      -1.3914024930064134e-03 -1.3231873018836797e-02
      -7.9783993469703801e-03 -7.7877250559337434e-03
      3.8266914917061121e-03 4.1654040532155911e-04
      -6.3993907630443990e-03 3.1516393859411802e-02
      7.0943003401952439e-03 -5.1160934396291390e-03
      2.7708119342147947e-03 -1.3646209156438343e-02
      6.8069492347020552e-03 -1.3216742066569077e-02
      6.2443238203848368e-05 -8.6472445699026321e-03
      8.2609069667161326e-03 1.2049680652931471e-02
      -2.7714590617968766e-03 4.6536543102319444e-03
      -1.2047435494284128e-02 -1.3792162376841124e-03
      1.2795012990606701e-02 -3.3296658078626382e-03
      -1.4501940918068373e-02 -1.0757484779712334e-02
      4.7383221016830748e-03 -2.0769422482854408e-02
      -1.5374630079939982e-02 -1.2948982763625223e-02
      5.2796880999247181e-03 5.0339735553311706e-03
      3.5074830995634326e-03 -3.3675900025990641e-04
      -5.6042290499873351e-03 -2.5329804235705291e-03
      -3.8841531278435244e-03 9.5791119569547129e-03
      2.2393601033559394e-03 -1.2914690410793875e-03
      1.5702479456381141e-03 9.4632934865808253e-03
      -1.2793621286931747e-02 -1.9374116364519502e-03
      -5.4496735583069930e-03 -1.5578685482783209e-02
      1.2059737036714391e-02 9.1044459350505570e-04
      -8.9048853495766345e-03 -5.3578471560967681e-03
      -1.2246354633537257e-02 4.7385480356564123e-03
      1.0697246664251040e-02 6.2387591904826626e-03
      -1.3541441901052416e-02 3.9387237979502275e-03
      -2.8802114284310959e-04 -3.1700038688067100e-03
      -3.9009399179104829e-05 1.2925090512522186e-02
      1.3678042966271935e-02 1.9919892658214891e-04
      6.0529173697212862e-03 -3.2755953889454085e-03
      -1.1930332595483116e-02 -1.3148306282168612e-02
      1.5821160131553449e-02 -9.9076436882143352e-03
      -9.8734292383208786e-04 5.5751971992869642e-03
      9.7232911199444435e-03 -3.6714222120424089e-03
      -4.0584994669984548e-03 -5.6440868744601772e-04
      -1.0268149530864213e-02 2.3034223027449643e-02
      -4.0782593737744650e-04 3.1433263235314396e-03
      6.7580607995451174e-03 -7.5948485360050801e-03
      -9.4288375582466406e-03 2.1741735400389204e-03
      6.4988931188310521e-03 8.7463921632441165e-03
      1.3175702418728374e-02 6.6572259733436731e-03
      5.9588682394149843e-03 4.4659061570615161e-03
      -1.7344582222445504e-03 -9.3215604607538236e-03
      1.3211111713300271e-02 -7.0077972564309560e-03
      -7.0509542654059497e-03 -4.4436524458595977e-03
      2.2433305513654945e-03 -2.0823551668125288e-03
      3.7910826385526390e-03 9.8812287879448783e-03
      3.0351278168376902e-02 3.7018898670099420e-03
      2.2551637625548493e-03 -3.0612832110201204e-03
      -2.8514416525637035e-02 -1.7962751205872707e-02
      -1.1058879464515170e-02 -1.1610335817754662e-02
      4.7910392086845865e-03 1.2418104751994407e-02
      7.7704215743109169e-05 2.4832301411956321e-04
      -1.3471841726586454e-02 5.9867826548983009e-03
      -8.0253819934805737e-03 6.2276266113358500e-03
      1.4324150348056872e-02 -1.3564685642211185e-02
      1.2274921918543402e-02 1.2896527396876635e-02
      -1.2841108071125575e-02 -1.7587505451952174e-03
      7.9955142156876522e-03 7.4469714102066691e-03
      -2.6033927846025005e-03 -5.9483708146790661e-03
      -1.0919625643163202e-04 -3.0626177424061783e-03
      5.0203456812328859e-03 -8.5361658069573569e-03
      1.2433409106280739e-02 -1.4466131701486196e-03
      -8.3772189142287338e-04 -4.6022829039816847e-03
      -1.2509545452441675e-02 5.4288989260557743e-03
      1.1882031248400052e-03 -5.0567398276117632e-03
      -1.6629191235348138e-02 -1.2293656189152222e-02
      -1.2689561248100713e-03 1.7053623896757495e-02
      -9.5333328644305361e-03 -4.8059675242385115e-03
      -6.9883909485482423e-03 2.6476569924002435e-02
      1.4766405407908624e-03 -4.1537230911943557e-03
      9.4957239360107179e-03 6.8309647852337740e-03
      -3.6834223805501387e-03 -5.4191365610976630e-05
      5.7198534716758542e-03 -4.6065859739596177e-04
      3.3214061424550224e-03 2.1613898883372494e-03
      -1.1269428136324098e-02 -1.0106497233327703e-02
      -1.6384282159352457e-03 -1.2309081867903608e-02
      7.5761386574777689e-03 -1.1398171708499801e-02
      -3.9571666515619396e-03 1.2882243666967523e-02
      4.7627562679056091e-03 -8.0648873261416620e-03
      -5.2617842526421479e-03 -5.3469329432688862e-03
      2.3708546836207997e-03 -4.2557355953020456e-03
      1.4058613068388471e-02 -4.2708536993933243e-03
      -3.0790968201331991e-03 -5.6671812334513280e-03
      7.9821555776636195e-03 -1.5386932101037802e-02
      5.8336084878880794e-03 2.9135487595380221e-03
      -1.9708446096252323e-02 -1.5399397953229418e-03
      -1.1152010657270226e-02 -1.1694413050441785e-02
      -1.1788464050388405e-02 -2.3409440394210148e-03
      -5.1949005449876875e-03 -9.9660977083512250e-03
      -3.4221882672832033e-04 -8.7582791615635792e-03
      -6.0632139824776067e-04 1.1881875084850592e-02
      -9.2938248712056675e-03 -6.6253106022318518e-03
      4.8300965757941024e-03 1.2584318388738571e-02
      2.9053641415779535e-03 -8.5585163200445034e-03
      6.7610165602716614e-03 -8.5370808042398248e-03
      -1.2842326796103642e-02 1.8363099089889933e-02
      -5.4513204992797564e-03 7.3910910361937796e-03
      9.1568771809774317e-03 -8.6371486828348276e-03
      3.2739944918859622e-03 6.5876453915873923e-03
      -9.6578928507430051e-03 2.7753457923665481e-03
      5.6645107685929291e-03 -1.1108076151332594e-02
      -1.7121737513860893e-02 -1.7326255249192162e-03
      -5.7756700807994662e-04 2.9132136321733212e-02
      7.9400702740039450e-03 -9.9111649857022040e-03
      1.2549365322061527e-02 -1.7529615405245346e-03
      -4.3468005041284088e-03 -6.9328246772735200e-03
      1.0104798626320700e-02 1.2710375047118886e-02
      -9.2433947438339719e-04 6.9488611937024549e-03
      3.1356314804285045e-03 -4.9658718643023278e-03
      -7.9394259388408609e-03 -1.5137732994485700e-02
      1.5187092450990808e-02 7.8958755608937101e-03
      1.3714058935273830e-02 1.1596205268330448e-02
      1.2300554018301300e-02 -1.0125865925201672e-02
      -1.3406799531270757e-03 1.2393580111948218e-02
      3.0164345522332728e-02 2.9330570963239889e-03
      -6.7196917582965972e-03 1.4313626457860081e-02
      -3.8033882697341885e-03 1.0572504080780233e-02
      -5.0711737701734944e-03 -7.1018388816042714e-03
      -1.4535463738239465e-02 1.2961489818324635e-02
      -2.0321955058246440e-03 1.4411253109031808e-02
      5.9687164499366042e-03 -1.2587886321639853e-02
      4.9049269489223595e-03 -4.3927347221888371e-03
      -3.1468004311745233e-04 -6.4850509006708574e-03
      1.1317894549386209e-02 9.3819313787387240e-03
      -1.2866842085744172e-02 -1.0764200821487602e-02
      -8.2038790906725639e-03 -5.4813151393274338e-03
      8.0220547295568427e-03 5.5228485032688592e-03
      1.4706218999990781e-02 -2.6312281098076597e-03
      2.9576563873935317e-03 2.8417555524210257e-03
      -1.0939987107943423e-02 -1.0625810308290044e-02
      -4.5945764540662754e-03 1.5581230782408242e-02
      -8.4619109876084928e-03 -3.2246391739511027e-03
      3.3235884356738756e-03 1.1279417545619478e-02
      4.2075759407766752e-03 8.1561316690234881e-03
      -1.6636841169716343e-03 -1.0243370351472202e-02
      5.1341784545134023e-03 -1.0441556180817789e-03
      -6.3488767452278445e-03 2.0013985022478916e-02
      3.4593856076454207e-03 3.5436992727038681e-03
      1.4107825681360729e-02 1.6583049841057517e-03
      -1.3609298775544404e-02 1.0292764398069223e-02
      -1.3438697679068990e-02 -9.6499476418369836e-03
      -1.2224528184681328e-02 9.4533471428054176e-04
      1.8497367257398797e-03 -1.0461260235698117e-02
      9.9957717113506820e-03 -5.6766539336498920e-03
      -7.6675289151541411e-04 -8.5995274332449339e-03
      -4.5950817848474127e-03 -8.0228203310159524e-03
      5.2155580035236210e-03 -1.7361155584600489e-02
      -5.9280520131117613e-03 1.0094773951465850e-02
      1.6029037734107295e-02 1.3064027833739391e-02
      4.8747582912834261e-03 -3.0035236237173938e-03
      -9.0655297813329490e-03 3.4906062434733342e-03
      -3.7147448030638974e-03 -1.1544009178586822e-03
      1.3321548417185729e-02 4.7217481078111131e-04
      1.0263793822885369e-02 -8.8468187060928623e-03
      -8.3664958157869465e-03 7.0672930390325663e-04
      -5.8691250657325507e-03 -5.8853842366701830e-03
      2.2087481803914348e-03 -1.8355560365307208e-03
      -8.6014535507008150e-03 -5.1305428551837954e-03
      -7.6523193622213262e-03 1.1110315700045507e-02
      1.4354566876386057e-02 5.6142556440597199e-03
      7.8933726870371035e-03 -9.4350390002447011e-03
      1.3834496537238164e-02 8.9153597137949046e-03
      -1.2215309049022448e-02 1.3239831614991837e-02
      -1.1561742337417543e-02 1.3166209983700550e-02
      -2.3429345397236582e-03 1.4519511158093391e-02
      -1.4843874190692611e-02 2.9142803781603610e-04
      6.9836222235425134e-04 2.4833957002913516e-03
      3.4108577684743560e-03 2.8391468222147237e-03
      6.3519219385067714e-03 -1.3619825806768796e-02
      -7.5959541789726564e-03 -7.5238990884349578e-03
      -2.7925746034191700e-03 -3.3549622135156452e-03
      3.9057339000062585e-03 4.4391889249289322e-03
      -9.2507509091286494e-03 1.6475189930418788e-02
      -7.2151971683089044e-04 7.5594521791272811e-03
      6.7516347955918236e-03 -6.9997276949185002e-03
      -6.0330543932199626e-04 -8.3409298541095543e-03
      5.2821816399175022e-03 1.1073186813204464e-02
      1.5452159861344633e-02 1.1578446584456205e-02
      -3.1078892858144333e-03 1.4466121856665784e-03
      1.4204424612397296e-02 9.0648934287292961e-03
      -8.4774641551838507e-03 1.3349206090591271e-02
      9.7336097161980200e-03 -1.6856754802522217e-02
      1.3568298012110524e-02 1.3013996352324819e-02
      2.7648093462492879e-02 8.6885963385684700e-03
      -9.4710855399721388e-03 -4.6162216605698620e-03
      -7.9248822142881873e-03 -7.3368615596048920e-03
      1.3300063734069506e-02 -1.6231771774857774e-02
      -2.4420756590958159e-02 -2.3095799686782645e-02
      -5.8287412247305997e-03 1.0284194251584862e-02
      8.9926229984404367e-03 -5.9416935027532501e-03
      -2.8894911520374821e-03 5.1357051769694781e-03
      -1.2424871009220149e-03 -7.7530251874669814e-03
      3.5449612424136162e-03 1.3886461403170142e-02
      4.8398010834814634e-03 3.6612620737271023e-03
      4.7077638245508540e-03 -8.5607380875500263e-03
      -2.1092265491648745e-02 -3.4624544438664195e-03
      -5.8273029013559035e-03 -1.3471804396851254e-02
      -2.3794181721377402e-03 1.3840570788196326e-02
      -4.2139086608749161e-03 -2.2875439684431197e-02
      8.5412153731339105e-03 8.2499770226220348e-03
      -1.7357429583617273e-02 -7.9808640285267442e-03
      1.0057772563560491e-02 8.9592142282562907e-03
      -1.2950562404811591e-02 -6.0324156850643657e-03
      2.8373652756199449e-03 -9.5949808066301146e-03
      7.1308215188566563e-03 1.7498281729851649e-02
      -8.2603597403934706e-03 3.4108178973614716e-03
      -5.1494221226299512e-03 -2.7892832230189879e-03
      -7.3636810001057500e-03 -3.0157387336787883e-03
      -4.0638712851702400e-03 -1.3178340234074217e-02
      -1.2101076366314160e-02 1.6674543653431545e-02
      -1.2800523025050465e-03 1.1211912732799085e-02
      -1.3234809588110843e-02 3.3127207599801547e-03
      -1.1084380330786821e-02 4.1038825524154577e-03
      -7.0392371802194265e-03 -3.2795085097079685e-03
      -1.3180594944398431e-02 -1.1281379692256965e-02
      2.3221282417991876e-03 -2.5357077982729251e-03
      3.0097105315203931e-02 -9.3955646909154034e-03
      3.5610460734349612e-03 -1.8488318960375477e-02
      -2.4715947242830855e-02 1.0103878555906432e-02
      3.9397105333340669e-03 1.0149167683066871e-02
      2.6208723505454111e-03 1.2355705947517904e-02
      1.2724856316137689e-03 9.7834924955869217e-03
      4.2011792976013084e-03 -1.1761228760437521e-02
      7.9776032638663678e-03 5.7112418090773010e-04
      1.0856817436391169e-02 -1.0634695041311213e-02
      4.4763329125752432e-03 -1.1560887521866353e-02
      1.2178190632966313e-02 -1.7234132524107205e-02
      1.8474837711032607e-03 -5.8203796632261230e-03
      -8.2511538367588851e-03 -1.6749231800432890e-02
      2.0150784837062580e-02 1.9708753684279179e-03
      -9.0817634808443345e-03 -3.8881258679555769e-03
      1.1405802656210870e-02 -1.6990672213610261e-03
      6.0709625446706810e-03 -8.8483243161083117e-04
      -1.5741885160001506e-02 -3.8570090273268038e-03
      1.4601778560731405e-02 -4.8106592963806580e-03
      -1.2020168263739028e-02 -1.0357237539683071e-02
      1.4533400566338782e-02 -2.6411005556005998e-03
      6.4186464097974877e-03 -1.9568012359780949e-03
      -7.6687448664840624e-03 1.9256307135446991e-02
      1.3799133124426113e-02 -4.4181616751259702e-03
      5.4217523740012581e-03 3.5195169062100513e-03
      -1.4837517631671978e-03 -3.7133033983327015e-04
      -4.2219579764632593e-03 -1.0394929163050404e-02
      -1.1944090629948336e-02 1.0433844617889142e-02
      2.5031354828990923e-03 -1.3094587699983990e-02
      9.9526535678273534e-03 1.3886008493981420e-02
      1.4262776181807661e-02 5.7262741704090054e-04
      -1.0075245995636237e-03 6.9932558247873212e-03
      -1.0760643461498593e-02 -1.1492574494385736e-02
      -1.3596649665371115e-02 8.0295298872002496e-03
      1.2035923386077819e-02 -5.1177719745972450e-03
      9.8166297270330920e-03 1.0442078021146795e-02
      -1.1377447224324466e-02 -1.0181626417058588e-03
      1.3557413004862399e-02 -1.1138145608595433e-02
      2.3634084368572518e-03 -1.0920549675202465e-02
      -2.1062276653801677e-02 -1.1255153325513721e-02
      5.5837229503078820e-03 3.7249376348004459e-03
      3.0633398684902584e-03 -8.1016616422652250e-03
      -4.5244149537793845e-03 3.6635951293260147e-03
      -1.2626346291637966e-02 7.9800170294346846e-03
      1.3835779199251920e-03 -1.0646282197190214e-02
      -6.5205246311272674e-03 -1.8147812589878166e-03
      5.2658910454094470e-03 1.1007323818335069e-02
      3.4482800871500977e-03 9.3632791059626800e-03
      -2.0582834475654688e-03 -3.3620942379031615e-03
      1.1883024679790331e-02 -8.0314259278313378e-03
      8.2954570054577840e-04 1.2542583971669695e-03
      3.9851110856081442e-03 1.1739734909397986e-03
      4.6291724282141195e-03 -9.7610991898452685e-03
      8.2587863813187827e-03 5.8734364776281706e-03
      -7.4227616662660553e-03 5.0368970665822504e-03
      -8.6636887195786390e-03 1.4363480483024936e-03
      -4.2044193075686390e-03 1.4199246396997833e-02
      -4.1152834813375618e-03 -1.1075720023881295e-02
      -4.0168810414485216e-03 7.3188694009212497e-03
      6.9763604579814245e-03 9.2878425885680026e-03
      6.3870313825749973e-03 -1.1921172385724830e-02
      1.2637675635120294e-02 -4.2281803879546248e-03
      -7.4314692390968088e-03 -2.6805399590965171e-03
      1.1442187396832545e-02 5.2538530359385674e-03
      1.3892387635592821e-03 1.2603655984745306e-02
      7.9838709499870618e-03 7.7116364956798800e-03
      1.0804647216522772e-02 -1.5829489794952727e-02
      -4.3430837116729976e-03 8.4812914090802490e-03
      2.7357055098199960e-02 9.1752970864508853e-03
      1.3386657886130303e-02 -7.7973960294681569e-03
      -2.2472153056272731e-02 4.3697016436390683e-04
      -3.2798583813403856e-03 -1.6555893092349869e-02
      -1.2881441143339329e-03 -1.2898186844060531e-02
      4.3379392923673663e-03 7.3880839889580701e-03
      2.6431854607955208e-03 1.3255369183089397e-02
      -1.0870250148850123e-02 -5.4194561865842259e-03
      1.1466196527998396e-02 9.1158068352252854e-03
      -1.2590593508624012e-02 -6.2010815740490884e-03
      -6.1004234583751041e-03 -1.2198505551520361e-02
      1.0282929123825382e-02 -9.8934871868662025e-03
      -3.9308555773299846e-03 -8.3140046678997302e-03
      -8.1352875115105628e-03 1.4744348114135298e-02
      -5.1366440182599050e-04 2.5285379627549912e-03
      -6.2185372435688358e-03 8.7471571012646514e-03
      1.3156246336887454e-02 1.5867262392680909e-02
      9.8339989990420644e-03 -4.6471916957404333e-03
      5.7814905013841020e-03 -1.1070822119109758e-02
      1.5190989751643533e-03 1.0361828640851896e-02
      -9.0205844065816467e-03 6.0255961794227495e-03
      1.0432456483823042e-02 -4.0399969069097839e-03
      -8.6215727435448967e-03 -2.6747329314130374e-03
      1.2238618883110045e-02 1.6846058918255073e-02
      4.3379890425816478e-03 5.7119499795408200e-03
      3.1638828480171012e-03 3.5077776455733583e-03
      -4.6156958462129005e-03 4.7878293014168918e-03
      2.5751909773374937e-03 -2.5105038796056637e-02
      -1.1511248987621778e-02 8.5222180163289536e-03
      1.6049007092394135e-03 -1.0444619831052803e-02
      -5.1760267082394248e-03 3.4858268312197463e-03
      1.4468866517639352e-02 -1.2115810188965464e-02
      -6.3207022600885255e-03 -1.9793624129623207e-03
      1.5048354373359137e-02 -1.2062022414014962e-03
      1.6601592648212600e-02 -1.2661766771118939e-02
      1.9530070277020268e-02 1.6335736727473644e-04
      8.0422504295392014e-04 1.9277459521445939e-02
      -5.1357577352094397e-03 -8.5548186118207040e-03
      -7.5976103467588702e-03 -6.7632389366441429e-03
      -4.1912410445451246e-03 -9.8046884975392812e-03
      1.3081685583320575e-02 -8.7031630569656578e-03
      -3.5864389302983084e-03 2.3183674197374804e-03
      -1.5119107611464328e-03 -4.5871536454432345e-03
      3.3660952855635554e-03 6.4276690642033861e-03
      -2.0235597407621073e-02 1.5231120939237336e-02
      4.8590201422748147e-03 -1.2801758023024657e-02
      -2.2296325038427132e-02 -3.3064733981499209e-03
      -2.1066360409679016e-02 -9.2881175600576411e-03
      -1.4339454888933198e-02 6.5779501606335047e-03
      -1.2939790891545197e-02 9.7298858058430680e-04
      -2.0046014681351667e-02 4.1428059991869496e-03
      3.8387573518338103e-03 -3.0891660405870415e-03
      3.4650482236721885e-03 -5.3210858745817444e-03
      1.3347388612473275e-02 1.5506917771190043e-02
      3.1120207911640120e-03 -1.6528601977238103e-02
      -1.7176823255138751e-02 -3.7513632670095822e-05
      8.0238558049472563e-03 3.8363508791083703e-02
      -1.8758322587227844e-02 2.4139971947090551e-03
      7.5967850309770994e-03 -8.0184973915171411e-03
      -8.5834228343284972e-03 1.8455461496279682e-03
      -7.3519744434508904e-03 5.0854167614638873e-03
      4.4021164294474509e-03 -8.6798631988437361e-04
      1.4693317120980234e-02 -3.7674378889943801e-03
      -4.0493610699552703e-03 8.2800360036741974e-03
      1.6535578630038610e-02 -1.7086134168474278e-03
      4.6146023148538060e-03 -8.4793239989871469e-03
      -7.4567986242191900e-04 -2.1573864816484455e-02
      -2.5368977856962890e-03 -6.8611876727951264e-03
      3.8324562634483014e-02 -6.5151590060992257e-03
      -2.1939741408475946e-02 -1.6679342903533793e-02
      -9.9252136726777854e-03 -1.7016059075868659e-02
      8.2773466698220499e-03 -6.4875438771664429e-03
      3.2604362975047407e-05 9.4313699813010116e-04
      2.0857582444095697e-02 3.0474486135312960e-03
      8.0107013348805385e-03 1.7209263234793638e-02
      1.2862116969100860e-02 -3.0400957421474698e-03
      7.7202994375588762e-03 1.2923849552397846e-03
      1.1712236605739361e-02 6.6052501963850463e-03
      3.9076105721548631e-03 -2.0436466468924889e-03
      6.1009307369924879e-03 -1.0676535621969541e-02
      -2.0126390958802574e-03 -3.4042480451175771e-03
      1.0772232489520259e-02 -8.5263698384745526e-03
      1.0765798633816036e-02 5.5369129768364569e-03
      6.6086814262787093e-03 -1.1203556497533190e-02
      -3.2913231947237563e-03 2.7957423100618804e-02
      -8.5301298275378551e-03 -1.1469162092657751e-02
      1.3450014790977611e-02 9.4103902216123483e-04
      -1.4867873316101860e-02 -6.3538590701030214e-03
      1.2295236923827663e-02 2.3910521416827559e-02
      1.4304937454275584e-02 7.9496315529730306e-03
      -1.2311718951397729e-02 2.9527314518463465e-03
      -2.8107759629345547e-03 1.4023852811147899e-02
      1.3192349081215684e-02 1.1975352841116331e-02
      7.9134118110800646e-03 8.2644019399328948e-03
      1.2458551752636797e-02 4.3384897166780555e-03
      1.3081724839847755e-02 -3.2514936705158462e-03
      -7.9714299335331470e-03 1.3393685854328395e-02
      9.1320479507208726e-03 -1.1513457439821189e-02
      1.7784128481771221e-03 -1.1608182867516416e-02
      1.5007620883224835e-03 1.5545996819099352e-03
      -1.0740905488240684e-03 3.6188967788991604e-03
      -9.2263633409066081e-03 6.5914335759687734e-03
      2.0486923420744735e-02 -1.1098892370520095e-03
      1.5476154524050998e-02 -3.7592874336498977e-03
      -9.0684188680379557e-03 9.2814549982180028e-03
      8.0805918613824582e-03 -4.6416577369368375e-03
      -8.2363266487238442e-03 -1.3755839923657663e-02
      -2.7031213052785942e-03 -2.2948503140477788e-02
      -5.2587077184134343e-03 -1.2406741811393979e-02
      6.3390199291600670e-03 -9.6208274826082713e-03
      -1.5436956813855334e-02 -4.9527570951185297e-03
      -9.9216143527446517e-03 -8.9394103938786513e-04
      -2.0737557286519106e-03 -3.0275380260204564e-03
      -1.0036656398985106e-03 -1.5633022913355814e-02
      -2.1995092668614835e-03 -7.6920551906033349e-03
      -1.5537269598822253e-02 6.7756285102913653e-04
      -1.1073526795672653e-02 -1.6037853688854230e-03
      7.2515105433968103e-03 -1.2274913023823216e-02
      6.8352775301094822e-03 -2.3233931160734082e-03
      4.4656009801089750e-03 -2.4665218437683946e-04
      7.7239980520424538e-03 -1.0501075391550593e-02
      1.1638250577646475e-02 6.0480929365168351e-03
      -3.5192630421860226e-04 -1.7338275367961287e-02
      -1.1726100980133669e-03 -4.9575986107301109e-04
      -1.1250308384184293e-02 2.5435908462484957e-02
      -7.3695080080556628e-04 -7.0471984920531224e-03
      4.5933099134741109e-03 1.0297777074475630e-02
      1.6259569976015881e-02 -9.5781555230686523e-03
      9.5433200587014347e-04 -7.9659177894132842e-03
      -1.3252728520001089e-02 -1.2534807646379206e-02
      -8.0088145333185833e-03 3.4770362655025757e-04
      7.2369175003095566e-03 3.8378934653618742e-03
      1.3427006482245121e-02 1.5263905955561566e-04
      9.1179687196179596e-03 7.8233448994088090e-03
      -4.1546026768667539e-03 -5.3632190013437496e-03
      6.0423333320969120e-03 -3.0668749676762931e-03
      2.8463342517238550e-02 5.2548655419934719e-03
      -6.5076946534967641e-03 -1.0432328756883515e-02
      -6.6921042497625785e-05 1.8094098419489200e-03
      -5.6310516569557292e-03 -2.4793482135218267e-03
      4.9466862106833248e-04 -5.0781739468177614e-03
      1.0722860263395287e-02 -1.6236261215168149e-02
      -9.5683627433307411e-03 -1.4777902532506009e-02
      9.6008044922028871e-03 -9.7397028334380541e-03
      1.1727415185308837e-02 1.7043387763189081e-02
      5.9239186312030866e-03 2.3316754618160390e-03
      -4.3153036456782101e-03 -7.5073286498909680e-03
      -9.1583539735897775e-03 -1.3034605152515482e-04
      -1.1298126399441296e-02 -1.1367743551839220e-02
      -7.0248405525652159e-03 -6.0185506405640160e-03
      1.4122146023280324e-02 -1.0765012077529227e-02
      8.8307713598977915e-03 7.0070548738997932e-03
      9.0228281380311888e-04 6.5780662285665906e-03
      -1.1072316830941245e-02 -1.4870870753782052e-02
      -1.1434399433016565e-02 -3.7743364137692173e-03
      9.6242972980331628e-03 -1.3911243512927657e-02
      1.0426052237100412e-02 8.7195809705442918e-03
      -1.3176381564556227e-02 -1.5446697058101708e-03
      -1.4321605874652655e-02 3.7993205807497619e-02
      -4.2770073174227471e-03 -9.2593433210180233e-04
      2.0949148466136155e-02 -8.4059390459466417e-03
      -1.1620138460608463e-02 1.3867049830681416e-04
      -1.9624116120973452e-04 1.1065832772887793e-02
      1.0946328163018697e-02 -7.9334708671681391e-03
      9.0455771219958153e-03 1.2195270950211817e-02
      1.1325097242891682e-02 -1.0865365604954309e-02
      5.9396685760918326e-03 1.8923870004700846e-02
      -8.1699917399894843e-03 1.0203212770058328e-02
      -8.8789448244411921e-03 -2.5474436877282014e-02
      5.0707734522578395e-03 1.0410053818095342e-02
      4.0217075945403261e-02 1.1993508213180300e-02
      -1.5759234177892946e-03 -1.1700685454870999e-02
      -8.4501458743911472e-03 -1.0081619173289860e-02
      -2.8022500213653917e-03 6.0017692199745495e-03
      -2.9523791320355962e-03 7.6012007683027554e-03
      1.7942985852299174e-02 -3.4888431162013959e-03
      7.5061063194418664e-03 9.2208409879983629e-03
      7.8160399682442473e-03 -5.4626463929198831e-03
      1.7319336970332277e-02 -5.3884299695165791e-03
      2.8853704029162394e-03 5.7011973961672985e-03
      8.7042058331349738e-03 -1.3370317338128688e-02
      8.3987864972033203e-03 2.0775983261749946e-02
      1.4544766132025932e-02 -1.7791165704652907e-02
      8.0200428700262383e-03 4.8790787299216034e-03
      -6.3294172577670624e-03 -8.2911767348940405e-03
      8.1464662661678861e-03 2.7576636927092095e-03
      1.8826567248013317e-02 2.5627706741186383e-03
      9.7391816575416647e-03 -1.2348158048229634e-02
      1.9981973942124375e-02 6.1724799763714904e-03
      3.9123254079268558e-03 -3.8825321853062987e-03
      -5.2226341187053531e-04 1.2628538076730705e-02
      -2.6475155164900630e-03 -1.0153165442687111e-02
      1.1266762132744350e-02 1.1124433911186466e-02
      1.0298238952755568e-02 -6.6201890951170884e-06
      -2.9461810910663545e-03 -1.3937268667243576e-02
      1.1319219573119573e-02 6.3876030108463771e-03
      9.7148759880173879e-03 -2.1344955941875157e-03
      -1.3266982517943709e-02 -1.2400645214021929e-02
      -4.4798157784498001e-03 1.5988839653845909e-02
      -3.9769887678999215e-03 -1.4942216416217379e-02
      -1.4013404344038654e-02 1.1434049086831920e-02
      1.1555994344293058e-02 1.1426680809177290e-03
      1.0192314471527799e-02 -4.9821363045337184e-03
      -1.7453747440501774e-03 -8.7530635546837141e-03
      1.7688189002958137e-02 2.6298469338927092e-03
      9.8628405608353203e-03 1.6256437589313060e-03
      -2.0246403301709421e-02 -1.0227270306302719e-03
      -1.3160270407245030e-03 -9.3020358872008303e-03
      -2.5408869587674817e-03 6.4260494483360927e-03
      3.8025907660489792e-03 -1.4279004023372963e-02
      9.7985493084950127e-03 -1.0945675791023950e-03
      6.2744932452381726e-03 -2.4776209631029887e-03
      4.8287235517092686e-03 9.6300986045335050e-03
      7.1089712612008226e-03 -7.7661910017242722e-03
      6.8079323457967290e-03 -9.0020312609108179e-03
      3.5872294063788472e-03 -4.9728871365626428e-03
      4.4667312962723901e-03 -5.6312507046617213e-03
      -9.4085761425952569e-03 -6.6867002250360821e-03
      3.4777298437724076e-03 -8.5041929706296954e-03
      7.8825728137639148e-03 7.6467195594426716e-03
      -1.0744760744882108e-02 -1.2632918658286823e-02
      -1.0258193954295411e-02 -5.7258494396798072e-03
      2.6541543487062342e-03 -9.5016088497323833e-03
      -7.1100508221725736e-03 7.0740887616372334e-03
      -3.4435682191854594e-03 1.1015660622110902e-03
      6.6088834151306099e-03 -1.8219425555085383e-03
      -1.2123706059106037e-02 3.2365705817665305e-02
      1.1860651410158480e-02 -1.3112405703313443e-02
      3.1777789807444781e-04 -1.0038993229555308e-02
      3.1435966664035146e-03 3.3109652200771886e-03
      1.3155498101146704e-02 -5.2938103289553781e-03
      -1.0294684201054741e-02 -1.1780028247542261e-02
      4.5291862250806047e-04 -3.8004599515739893e-03
      1.6325245788134590e-03 4.2812629489045661e-03
      -3.5627258637856729e-03 4.5533113631364436e-03
      -1.3562996879515250e-02 -5.4010604714147649e-03
      -1.0899931377111283e-02 -2.1311324224474636e-02
      -1.1931509587225603e-02 8.3349439649791340e-03
      2.0634676678732894e-02 1.4465155720637906e-02
      -1.8612340227787669e-02 6.7801457114574464e-03
      -6.9404628878059265e-03 1.0331063572941923e-02
      -1.3026818572273099e-02 -3.3772422064775303e-03
      9.8847763640383685e-03 -1.4050602353276707e-02
      -8.8033538715558794e-03 4.6274974385661577e-03
      -1.3755081327169587e-02 1.0515032325775765e-02
      -1.1761510212182576e-02 -5.5211217940179394e-03
      1.1271460105979297e-02 3.1729830054354215e-03
      -3.2407342194707479e-03 3.6614761493928331e-03
      -5.4049380539705439e-03 5.8931371662393067e-03
      2.0135960452854272e-04 -7.5771347909499602e-03
      1.6343119884227895e-02 2.9633871001339381e-03
      9.8487517169605111e-03 1.0875521455568390e-03
      -1.0850466240085888e-02 -3.2178139190753088e-03
      -8.0828083820996838e-03 1.8306284653668778e-03
      1.1332654401833071e-02 2.5273559518883063e-02
      -3.2513112745075081e-03 9.2869049617695515e-03
      1.4826503831296916e-02 2.8065761436024423e-03
      5.2980291706573989e-03 -1.1295810740095476e-02
      8.0636116216396009e-03 1.4865895657906919e-02
      -1.1469307815834204e-03 2.5325134406717605e-03
      -1.0594378636554814e-02 2.7004930169773046e-02
      -6.6580056048387466e-03 -1.1453374053475983e-02
      6.9649041858570583e-04 -1.2970770213886245e-02
      4.1060653839115084e-03 -8.6782622606836213e-03
      9.1328800986751387e-03 -6.4826766119265586e-03
      -1.2913687718726993e-02 -5.4626070140206410e-03
      -1.4554778178349822e-02 -1.2366656875387618e-02
      -4.1563888712298110e-03 -1.4331013481542218e-02
      1.5151428753877485e-02 8.7619126067994581e-03
      -6.6019624350037724e-04 -7.6305180698950405e-03
      -5.8222011335026247e-03 -2.5195845541642410e-03
      -9.7896796588632755e-03 -6.9644924448555917e-03
      1.1450715108440153e-02 -6.5505452183050195e-03
      -5.9785683432207514e-03 9.4648680276132081e-03
      -6.9297477721930725e-03 1.3243926405416280e-02
      -1.1877339881406112e-02 1.6365388803808471e-03
      -3.1026141222754086e-03 4.3912229818311400e-03
      -1.6029769995212249e-02 -8.4433978978752447e-03
      -3.2530732121475621e-03 -3.7469832005712026e-03
      5.1682153244852523e-03 -6.6171648421627805e-03
      -7.4850182436295883e-03 -1.0895359321666680e-02
      -1.4164618119052988e-02 -9.8333410749224769e-03
      8.6550086690482305e-03 -1.1120160195067022e-02
      1.7127479126251707e-03 -1.6371259870365255e-02
      -8.1289370546737405e-03 3.8497525320299758e-03
      -1.8119667240179046e-02 -1.6020208801942666e-02
      -1.2928202406995907e-02 6.3912717860626867e-03
      -3.8060759832314036e-04 6.9372592613661348e-03
      -1.5311065921947286e-02 4.3967606814875769e-03
      -1.1505855580026833e-02 -3.6955424547126660e-03
      7.9899899514860335e-03 2.2538703347278013e-03
      -1.1752838366333787e-03 8.6569687797954029e-03
      9.0948000363026190e-03 -4.8702715154910359e-03
      -1.4008749683729999e-02 -9.3975113012448146e-03
      5.4312713828821467e-03 2.0300286618158542e-02
      -7.7133404848428854e-03 3.3499097014856498e-03
      1.5180173572971519e-02 5.9757635788362240e-03
      -1.0281851886004112e-02 -3.3607365611708464e-03
      1.4232964380149123e-02 -1.1401720117500265e-02
      3.4375685152714720e-03 -5.5322705342480596e-03
      -8.6922691838272996e-03 4.5881064391946544e-03
      -6.1809256164160583e-03 -8.8819861620316621e-03
      1.0363718905754533e-02 1.3807192170250832e-02
      -1.2591203772088283e-02 -1.4592075825110022e-03
      -7.9277210441035754e-03 5.4640156984754207e-03
      -1.1286126579813731e-02 -1.1603201825246741e-02
      3.1374532962711699e-02 -9.5738523931892866e-04
      -1.9958393482783287e-02 5.0672592886005837e-03
      -1.3458674015691095e-02 -5.2142446011164178e-03
      4.7030790480111634e-03 6.8224502274915498e-03
      1.0031563672731706e-02 -6.9467949525694435e-03
      -4.4163664529963398e-03 6.9484912388047119e-04
      -5.1551884915791626e-04 -1.4572995695846375e-02
      1.2857007700326353e-02 8.3820115016972167e-03
      -1.1111342808608293e-02 8.6008259395112564e-03
      6.2927279388869427e-03 3.8742645017838923e-03
      7.8387326959679701e-03 -1.4565812456326347e-02
      1.0209411929080144e-02 -9.6976984576110856e-03
      -3.2739242122100929e-03 -1.0697879785526393e-02
      -2.7124498227753938e-03 -3.1829361875187006e-03
      1.1858462416546799e-03 1.0779755011747048e-02
      -8.7309415097769731e-03 7.2978195395777424e-03
      -1.1852555147996553e-02 3.2054227432046873e-03
      -1.3163677798795835e-02 -4.8841912882592623e-03
      -9.0880269411775967e-03 -1.0011790675232753e-02
      -1.3415027572071617e-02 1.4315009094919293e-02
      -1.1033351801698066e-02 -1.1293977247716377e-02
      7.6696431290421158e-03 1.4295008341587772e-02
      -2.7977671696320420e-03 2.0828440404799618e-02
      9.0680004626542774e-03 -5.1258158918546948e-03
      1.1853299156920939e-02 -1.7205126180002805e-03
      -1.3549787296936320e-02 -1.1938911155269806e-02
      -5.4267991145346296e-03 1.1677205038278442e-02
      -6.5383807735241457e-03 -1.0609352776276917e-02
      9.9471119674688167e-03 -5.3174324927903758e-03
      -1.3152166363556168e-02 -9.0397484768150078e-03
      1.8019922368527209e-02 -6.1521160699310132e-03
      9.8704252230659558e-04 -8.2345255130697268e-03
      1.4412666010331924e-02 -6.9717327723793432e-03
      3.4277420141010681e-03 1.0947937882578493e-03
      7.6379760857858891e-03 -1.3850984668549435e-02
      -2.3709779087299082e-05 -4.2612375754566712e-03
      -1.2472709893951448e-02 -5.3466414349439551e-03
      2.9815864207038863e-03 6.0401322731939277e-03
      8.8644695840632282e-03 -1.8823242824563995e-03
      -1.1369050985647793e-02 9.0630250236221708e-03
      -6.0207030039973767e-03 1.5192494444681660e-04
      5.1930761907242988e-03 -5.0365477690559636e-04
      1.2941834138154553e-02 2.6628482612188011e-03
      -7.2408329408351797e-03 2.0437819676734944e-03
      -7.3696331383869464e-03 -9.6051907550371337e-04
      6.0139856079532853e-03 1.5948068356840702e-02
      9.9926339277150965e-03 -8.5953452132840266e-03
      1.1074604452747302e-02 1.4379750291856674e-02
      1.0798365286642266e-02 7.9666100480469560e-03
      -5.3392223198524894e-03 -8.7261250481214542e-03
      7.8296619120562941e-04 1.6237689395254540e-02
      -1.5402385847806928e-02 -1.0412860921502417e-02
      1.4072880172371783e-02 -1.4191027499885369e-02
      7.0257572401818420e-03 -8.1173427189525429e-03
      7.2905278160072520e-03 1.4773148410386577e-02
      1.2725399318788523e-02 -6.5261674508931018e-03
      6.1095389248202094e-03 1.8164535825950481e-02
      1.3237936820105715e-02 2.5550149460127035e-03
      -8.9733555116253989e-03 -4.1789572414416354e-03
      1.1077534533494101e-02 -6.7007353932260084e-03
      -5.3888799293034780e-03 -1.6083540465211928e-02
      9.7528722517261073e-04 1.8789192358679941e-03
      -1.2504490752701866e-02 -5.8154304378839807e-03
      1.1778350006299117e-02 -7.6694039078872202e-03
      -4.1583048034494179e-03 -8.7443899087013399e-03
      1.3627972584263367e-02 -7.2275210248480644e-03
      9.3861237041627226e-03 -1.7424754527836435e-02
      -1.4138133827163845e-02 -7.6856926552198090e-03
      1.4556371164441431e-02 -3.7836880789842017e-05
      -1.3687143437471535e-02 9.7050472440238997e-03
      -2.6406346360046885e-02 9.8833671364306867e-03
      -5.3982498187360416e-03 -1.2875864910179131e-02
      -1.2039888485294498e-02 -1.3610621080677680e-02
      4.5771627935986539e-03 -7.4099884041372004e-03
      3.4468417639294297e-03 -1.6287498537319998e-02
      -8.8408013026098076e-03 4.3888985351396206e-03
      8.5396153483855569e-03 1.2254385982757439e-02
      -1.2343011732611599e-02 1.1838812038794170e-02
      -1.3465514905182094e-02 -1.0612531064017048e-03
      -5.4950213520201944e-03 -9.6496914068216078e-03
      1.2023576391038330e-02 1.3231691848425367e-02
      3.4944135729012102e-04 -7.5536635645162085e-03
      7.8879869577177224e-03 1.1553744501432584e-02
      -6.1277677630854040e-03 -1.0067292672383309e-03
      6.2273816035823115e-03 5.4991685015054470e-03
      1.0379583209607503e-02 6.5583815380153712e-03
      7.2523089774836295e-03 -1.3338757176144390e-03
      -1.0589026587812725e-02 3.2801243491025738e-03
      -4.3109300226558929e-03 -1.2846956382994351e-02
      7.5830724745076785e-03 4.2133117493055048e-03
      2.5896779835915475e-03 2.3247135007842690e-02
      1.6329119584303645e-03 1.2627093258847916e-02
      -9.3424953603207777e-03 -1.7324698861125298e-04
      7.7234277830706662e-03 -4.7708930368504411e-03
      1.2277565566387275e-02 4.6357831656183152e-03
      -2.3219910393844582e-03 -8.8094988034323474e-03
      -5.9047931678373796e-03 1.0245040101256790e-02
      8.8710758812099305e-03 -1.4944957913929567e-02
      9.7107773569477598e-03 9.0558369959544522e-04
      4.1224481051593195e-03 1.3823055527719837e-02
      -1.0939218967024792e-02 -1.1315384132144194e-02
      -4.3507749405069978e-03 -1.4705109047930265e-02
      1.3644781762100596e-02 -1.3090554346742174e-02
      -1.2629289040322401e-03 -9.1020655722281046e-03
      -1.7399256088615415e-02 1.2620827276184654e-02
      1.9818169499702591e-03 -9.8314675354820875e-03
      3.8398601296066415e-03 5.9085273963979494e-03
      -1.9326999997595153e-02 -8.1822265321105404e-03
      7.9837566306404581e-03 1.3138202720339352e-02
      -2.6432522070865298e-03 -6.5114270607289438e-03
      6.5135363910728437e-03 2.1358058954999647e-04
      -1.4206538406181992e-02 5.5247598158609038e-03
      9.6522857093896846e-04 -1.1679023770108793e-03
      -1.5280706146965589e-03 8.0427975187061206e-03
      -5.3287600633688623e-03 1.3436499568987148e-02
      -6.0292525437782322e-03 -6.0259922204576712e-03
      -1.1236214624126042e-02 5.6579591107256627e-03
      -4.1295070026070432e-03 7.3363687927865484e-03
      3.8636656192841067e-03 -9.6734890228384138e-03
      -1.2409732950546062e-02 9.1930413395182511e-03
      5.5526417181464118e-03 -1.1179608274419025e-02
      -1.2939223315667737e-03 -1.0589725274801915e-03
      1.2956492297273844e-02 5.7794725482843297e-05
      8.0471253538888354e-03 1.2489836875838394e-02
      -1.0136993830032614e-02 1.9733344349378165e-02
      1.0578075329060939e-02 1.3373086658311167e-02
      2.0406798146833664e-03 4.0107187559094730e-03
      -1.0197360643016554e-02 4.8307926383029630e-03
      1.1541257362915357e-02 8.7432060495733870e-03
      1.1565634860261976e-02 5.6988014944832910e-03
      1.4543387421650045e-03 -1.5456130141229432e-03
      9.9574060680085149e-04 8.0821736949384573e-03
      -1.1547415161601904e-02 -2.3617998267920432e-03
      2.9037884132713239e-03 1.1697845605347893e-02
      5.9761721921188198e-04 -1.5766907627838334e-02
      1.1230622673516622e-02 6.6304529247229243e-03
      2.9357156235168845e-02 8.9155912789588357e-03
      5.1739999221867899e-03 -2.9921456958297006e-03
      -1.2179720816531093e-02 1.4084788916091521e-02
      8.9019752593523065e-03 -9.6976673955578227e-03
      7.6286099346604497e-04 -4.8263490042828681e-03
      -1.5034808290795227e-02 -1.4016399526758580e-02
      6.0728773590520563e-03 1.1399864024606325e-02
      -7.9316682829926859e-03 -1.0721076031777903e-02
      1.2111852752433927e-02 3.1807460967814179e-03
      -8.9583017137344172e-04 4.8663951075484995e-03
      -1.3114582103486738e-02 -2.0239948224823078e-03
      -9.3091759049513546e-03 1.7032517250568256e-03
      3.4711456069728302e-03 -1.2100288980369172e-02
      -2.1022667103430264e-03 6.3179043571278300e-03
      9.1929005303854842e-03 2.0089312643416990e-03
      9.3970564097220089e-03 -1.7629046419026261e-02
      -3.2020651893546049e-03 3.9928115531148662e-03
      1.1637714700717011e-02 -4.2780243781708506e-03
      -7.9647147329699394e-03 -7.0334383085305019e-03
      -4.9029265510687151e-03 -7.7816366828729897e-03
      8.4078972962211077e-03 1.1039700885088637e-02
      2.9836886001814323e-03 1.3179280932766069e-02
      -4.2727112106434100e-03 4.6370433559701730e-04
      1.8155675750869970e-02 2.7589086720225388e-03
      2.2783433162654452e-03 5.1409432602450063e-03
      -1.1238496903703795e-03 -1.2314123290127628e-02
      8.8712682968730659e-03 1.0041268972508002e-02
      -5.8485289865525831e-03 9.4722392921278394e-04
      -4.8257263111213273e-04 -5.2724326481435758e-03
      -6.1479111491814387e-03 -6.0042866895000033e-03
      8.8622985150076366e-03 -9.2595916541651595e-04
      -1.1589819920753983e-02 -1.0333075433933330e-03
      2.4592079496450685e-03 -5.0720250189975494e-04
      8.9370219159292559e-03 -6.3428170520866715e-03
      8.0995394586976584e-04 1.1475155712377696e-02
      -1.5434482840466059e-02 9.6836124796224540e-03
      -2.5863733612439765e-02 -1.1765041470963231e-02
      1.3368690782311607e-02 -6.8452347027699425e-03
      -8.5120896393826653e-03 -1.2196196650380199e-02
      3.6171268238950152e-03 -1.3348705274319627e-02
      -4.4232077101285083e-03 3.9637978940288889e-03
      -8.0949637668173841e-03 1.1220131374121152e-02
      -3.4925347740144980e-04 1.4314858751568679e-02
      -1.1105445302881069e-02 -1.1590439396013903e-02
      -1.1994054326180066e-02 5.0967107062528903e-03
      3.0096044955358638e-04 -8.8359129106287161e-03
      7.1405565451387355e-03 -6.4285182329817305e-03
      -2.6954279730790481e-03 1.2692192386739730e-02
      8.9384915992908875e-03 -1.8540462125770135e-03
      -4.5263311425011651e-03 -7.7875952440982898e-03
      -1.3787864474032496e-02 -1.4964442297188237e-02
      -7.0434429158174085e-03 -8.6335650791661573e-03
      1.4136628749217815e-02 8.7207674970412926e-03
      -9.6529605887810555e-04 8.6995830679915832e-03
      1.3157254572074005e-02 1.0123469736726520e-02
      -1.7176680936005106e-02 8.8302993839602471e-03
      1.0891168323571281e-02 1.9152445329411745e-02
      1.1292269323494739e-02 1.2583721025822503e-02
      1.2915939622804002e-02 2.0954218638053351e-03
      -1.2572445579090884e-02 -7.9587359231898767e-03
      4.6010779597486047e-03 8.2848076119666440e-03
      1.1171567885626774e-02 -4.7026800139415483e-03
      7.2302158584972983e-03 6.5842744749975918e-03
      1.5112065145536700e-03 7.6688578827453259e-03
      9.9182475879577544e-04 5.3144049663198531e-03
      1.3198180160339927e-02 -2.0358070990732054e-04
      -1.3043829127544152e-02 -1.7637294474177591e-02
      -1.0612211835985357e-02 9.7081765712421480e-03
      3.9327850315603728e-02 -1.3530937039553222e-02
      -1.5269042821814112e-03 -1.1276561192586534e-02
      -2.6579373034341474e-02 -2.0506788385863698e-03
      -1.3724439227036296e-02 5.3588344009946227e-03
      1.3128108648586646e-02 -1.5151198022166317e-02
      -3.1374460209468316e-04 6.7372489865827889e-03
      -8.4047398646483681e-03 -1.6528838961873206e-04
      -4.0359254185799243e-03 -1.3437218604415047e-02
      9.9311838240333968e-03 9.6563182079154250e-03
      6.1309452951511219e-03 -1.2963481781076962e-02
      -5.5761901927154663e-05 -1.1780772264929676e-02
      1.7925403401612447e-03 3.4182916056216539e-03
      -4.6899069927709156e-03 5.4155779739792917e-04
      -1.5139003069090931e-02 -8.1126526021661782e-04
      -8.1105502921131715e-03 -1.0156986344181383e-02
      -6.2258357387590182e-03 -5.4067142721589802e-03
      -3.4272884046485678e-03 -3.3801622655822198e-03
      1.0934648801334105e-02 9.0687067117212888e-03
      -3.0352799154755223e-03 -7.3789149756504123e-03
      1.2360931681549267e-02 -1.1081475554399747e-03
      -1.1798917959069921e-02 5.1080834488188677e-03
      -7.0202964907821646e-03 1.3266740934613903e-02
      6.5503383414594052e-03 2.2636795872325602e-02
      2.2348260869602836e-02 1.3786013480506565e-02
      2.9395572048821028e-03 -1.4594002777576576e-03
      7.2175825894183242e-03 -5.7312383791085809e-03
      1.5413667721033359e-03 -3.6691823358132917e-03
      1.4751559073242954e-02 -1.8477688546974503e-03
      -1.4378808671238554e-02 -7.5372739179313478e-03
      -4.3963337714458088e-03 -2.9787053334656140e-03
      9.8825943044839881e-03 -1.3173783478434725e-03
      -1.0355164831740121e-02 -1.0531810445569535e-02
      -6.7123774861836258e-03 -1.0961248011169149e-02
      3.2275594272454344e-03 5.4953337802159151e-03
      1.9739719043560235e-02 5.4853059228747777e-03
      -7.4466431801121754e-03 2.0092394243764740e-03
      -1.3288560534309284e-02 1.3526074554731380e-03
      6.9645509670511439e-03 7.6665799062609593e-03
      4.5893384082463353e-03 5.6665608779036397e-03
      -9.5518816695884922e-03 -1.2200374379606258e-02
      -5.2608068499005128e-05 -1.6232428326557975e-02
      -1.1338602318794872e-02 -1.6479029490409060e-02
      -4.8255656918211754e-03 1.6581616162075034e-03
      -3.1847763985093369e-03 6.9937811741947907e-03
      2.5675101785057374e-03 6.2964050294143075e-03
      -1.4239778741174257e-02 -1.7811030350893882e-02
      -1.6165746715255027e-02 4.7368105392354750e-03
      -2.6151334805659395e-02 -8.1519629376932776e-03
      -1.4754601323725207e-02 1.1495979169976880e-02
      -1.8586649308816643e-02 -4.7611312523157491e-03
      -1.1967543578909653e-03 7.5769290840678035e-03
      3.8254333697047963e-03 7.6894690056207669e-03
      1.5178746802430227e-04 5.8308243114516232e-03
      2.1236476514051458e-02 5.9743902184003989e-03
      6.8669381594639997e-03 -1.2297210943029147e-02
      -1.4401139646558042e-02 5.7760541761844668e-04
      8.0868015559594133e-03 2.5838876400253924e-02
      -3.2383127668632843e-04 8.5334270162998535e-03
      9.4527239703746206e-03 1.8652393022981864e-03
      2.9677780135304076e-03 -1.2552733486912623e-02
      -4.3530362783623299e-03 1.3422743522102404e-02
      -3.4763483530607271e-03 1.2253044227004255e-02
      -2.6578364261843263e-03 1.1401854301557966e-02
      5.5752616525977412e-03 -2.1616706881128658e-03
      6.4732224686304693e-03 -3.3833152279418425e-03
      -5.5379222365709354e-03 9.4183170303972427e-03
      -7.5959208201141154e-03 6.4159275169531588e-04
      -5.8188025805865577e-03 1.1182311117953118e-02
      4.1129185756794646e-02 -1.0725776617304002e-02
      -4.8925484943417822e-04 2.7406572247479551e-03
      -3.5231075721115258e-02 6.4728044941994344e-03
      -8.1681742993946118e-03 1.1127998124172013e-02
      4.9245911843015444e-03 -2.3394245590988984e-03
      1.2924476974195839e-02 -4.1775522802246163e-03
      -1.2227877873361579e-02 -1.2478861426013451e-02
      -1.1414772434885392e-02 1.4230706162926056e-02
      -4.4761420881274669e-03 -3.5450794302325046e-03
      -1.2105970994516387e-02 -5.6153289270466913e-03
      1.1099132943456699e-03 1.4754216289900020e-03
      8.3851388166900492e-03 1.1228143956427412e-02
      1.8188428626265518e-02 -1.5048058549951806e-02
      -4.2851192324914935e-04 1.5938953047239267e-02
      -9.8881506214783792e-03 1.1199373232040810e-03
      4.8236273394772992e-03 -2.3076278746002900e-02
      -5.1002243300721783e-03 1.6983336342186151e-03
      -1.4704783387766280e-02 -9.3909684987749219e-03
      4.8846114340774039e-03 7.5431457149632598e-03
      1.0596511564409406e-02 2.0413231426752222e-03
      1.9970529995018073e-03 2.4216835034745112e-02
      1.5132301143398469e-02 1.1857199582856883e-02
      -1.3955517159905889e-02 1.1059359214007825e-02
      -1.5976013915313534e-02 -1.4590719007054453e-02
      1.8775904907876752e-02 4.9022422019451006e-03
      9.8387267114069046e-03 7.9904332141899920e-03
      1.9617848076270098e-03 -5.2562373882543362e-03
      1.0149605125301463e-02 -7.1730847156196874e-03
      -2.5385793150569198e-03 -2.8903041592468048e-03
      -6.2861980860489828e-03 4.9391737287679920e-03
      4.2184541155728473e-03 -4.0379401266328720e-03
      1.5206773403961850e-03 -1.3392050887887157e-02
      2.5190239542813193e-03 -1.3771793334593148e-02
      -1.7084951180159482e-02 1.4697778930010199e-02
      2.8929632634207589e-02 5.8756588919229059e-03
      -5.1119354621728267e-03 -5.0066023425977407e-03
      -2.2454011963588674e-02 -6.7468773345167902e-03
      1.5006572881005801e-02 1.6233894535738816e-03
      -8.1039551778113762e-03 -5.8108949092516727e-03
      6.6218190303497402e-03 -2.2058587792276240e-03
      -1.2411432453185770e-02 -1.0996964861351041e-02
      4.5960169699511572e-03 -7.6989206826796252e-03
      1.4589824607561159e-02 -1.2605882814370365e-02
      -1.0387358198497098e-02 -3.7522497436015133e-03
      -8.3611874257815983e-03 -1.9087769072813274e-02
      1.2930959290859564e-02 -1.4270808404949912e-02
      1.4457695646560678e-02 -1.1189796550890935e-02
      6.0017025046762785e-03 -1.3859689784179782e-02
      1.3788163566807107e-02 1.2579803546286201e-02
      -3.1334197206121118e-03 -2.0160494342615281e-02
      -3.4801057908227535e-03 1.4792699714972149e-02
      3.3653400195957700e-03 9.2826532076359537e-03
      5.1104242567126135e-03 -1.2064549110510671e-02
      1.3369224833482088e-02 2.2388134735763969e-03
      3.0195740886726405e-03 -2.4223529455825663e-03
      4.1659634854003006e-03 6.6584799593050513e-03
      -9.2456532913326624e-03 1.5459957851607042e-02
      2.0371943227379546e-02 1.3373500087857672e-02
      -1.3695216797369229e-02 -5.4767170538911917e-03
      8.7918062580383816e-03 1.2100946962459416e-02
      3.6040514821602944e-03 1.2285480475159774e-02
      6.5461403597934700e-03 1.8622697619238287e-03
      -2.0846034389197904e-04 -6.4416968236754163e-03
      -1.6372541821249456e-03 -6.5145919645084299e-03
      -5.7489030392632971e-03 4.1550834125011525e-03
      4.3555431153489647e-03 1.5693137304392690e-04
      -1.3766397588496510e-02 1.9685229543596181e-03
      1.3386125775431433e-02 -1.2022613912314724e-03
      6.5945491292579289e-03 -2.2161771040635136e-03
      1.1529819619162199e-02 5.6100224012601103e-03
      -1.1670781746717894e-02 1.6746026588736458e-03
      5.3602352151215608e-03 -3.1308405499001061e-03
      1.1996780572130734e-02 7.2448458716576443e-03
      -1.6612813150682543e-02 -9.9278131283166444e-03
      -2.3433553475210949e-03 1.0177587680714450e-02
      -7.3622893718045769e-03 -1.4996138524626676e-03
      -1.5253959632473765e-02 1.7084687680381311e-02
      2.3621409927719172e-03 1.3693576734868859e-02
      -6.3225593541569982e-03 -1.3762255606505668e-03
      -1.5814595924349417e-02 4.3634895989424511e-03
      -6.4687420335894632e-03 -1.3492586132186520e-02
      -2.1354733270805032e-02 -5.0261308287855525e-03
      -2.6648523796140708e-03 -6.2905189133142169e-03
      -8.3987783101652311e-03 -1.5783230613805644e-03
      -1.5333637427446414e-02 -1.4473907679152475e-02
      1.6380050683054224e-02 -5.3513045375261107e-03
      2.5689837590636222e-03 1.4901101339775916e-02
      7.6098708993427866e-05 -3.6126905693743458e-03
      8.9271698846696695e-03 -3.0275935845463123e-03
      -2.0105931475087997e-02 1.1488132057992389e-02
      3.1405843620907399e-03 4.4623270534640935e-02
      2.7532849683437250e-03 -7.1595537922751907e-03
      1.9329743190613567e-02 -1.1572035186378515e-02
      -1.2417114459963718e-02 -4.6527964077981597e-03
      -9.3610415306910003e-03 -1.2931065456138044e-03
      -2.4132595245277767e-03 2.2345226069651402e-02
      -2.7483105260462646e-03 -1.5994446259047633e-02
      9.5432289949509315e-03 -4.9816693872068501e-03
      -2.1234894852836892e-03 3.4442246785392475e-04
      -1.2493709284576354e-02 1.1154324827844142e-02
      8.6553459692975156e-04 -7.8618354791409970e-03
      -1.0354670679464811e-02 2.7051207253397580e-03
      2.0877569177052316e-02 -5.1759765969472240e-03
      -3.2479381301057771e-02 -1.8375786838800542e-03
      -2.1075850479809786e-02 -1.6211834768962624e-02
      1.3724461608883848e-02 1.0865114282142708e-03
      9.0762119007636744e-03 1.5779959229202461e-03
      -1.2278864617387675e-03 2.1240493243814430e-02
      -6.9746278058539527e-03 1.5339202821387133e-02
      1.2358289745575807e-02 -1.7626250976470323e-03
      5.8571423506478806e-03 1.9378731869809985e-03
      -4.4301789021126432e-03 1.0352143057840525e-02
      1.9012774036462614e-02 -1.8234433603810208e-02
      9.0648629545173694e-04 -3.7625675254421044e-03
      -3.9148282242513809e-03 -1.0351564429996933e-02
      2.8846482309024899e-03 -1.3235883566205652e-02
      9.1686689146594849e-03 -1.0321083200251248e-03
      -4.3697079778572930e-03 -6.0072303228971835e-03
      3.8378185382406949e-03 3.0584894053775239e-02
      4.8810580163627911e-03 5.7783225394374242e-03
      -6.7616419876618044e-03 -1.4691574988216532e-02
      -1.2047160428980739e-02 -1.1686437796900845e-02
      -7.5026212766123338e-03 9.6654424100479624e-03
      9.8965403003912957e-03 4.4072851005684298e-03
      8.2840992675437750e-03 2.7441387705831804e-02
      -1.0505202001977298e-02 -3.9199160990826317e-03
      -1.1145926961021041e-03 1.4902310997499011e-03
      -8.9260681065673128e-03 -5.5335964050620308e-03
      -5.2475095607653510e-05 -3.3048704972632684e-03
      9.3533403431778749e-03 -1.3193322367850443e-02
      2.4032650031110747e-03 -2.9433977617878589e-03
      6.6114939029789316e-03 -5.2348762077240537e-04
      -2.1170205681435425e-03 -8.7741326523563794e-03
      2.9408123887395090e-03 -7.0029411032280862e-03
      -2.5014160645495278e-03 1.1475129711782007e-02
      -8.3470700054777275e-03 5.8730375436086991e-03
      2.8793783363062441e-02 -3.2440364567584120e-03
      1.1978499544659942e-02 -1.3247834771218631e-02
      -1.4216719980018435e-02 1.4470849442046468e-02
      1.0670758242744157e-02 1.1531453958349657e-02
      -7.6464012922219894e-03 -1.3571120600978270e-02
      4.2986214445013453e-03 -1.6211397432504545e-02
      -1.0682082877692550e-02 5.7194032551399557e-03
      -1.0966495233867833e-02 -1.4591683903009649e-02
      1.1716937919742295e-02 1.6910356733230224e-02
      8.5630651315884050e-03 -7.2478479583513999e-03
      -1.3850004949740270e-02 7.5011581793453285e-03
      -1.5167981509964134e-02 -5.7549527223504761e-03
      6.4746621583093508e-03 -1.1476078883757842e-02
      -1.5024736119560341e-02 1.3396526374796689e-02
      -1.7924612345211843e-03 -9.7091286851148303e-03
      -9.7720337036601435e-03 6.6860551292361259e-03
      -2.1039547665261101e-04 -2.2799713166385483e-03
      1.0878239869509003e-02 -6.8050312295961403e-03
      -2.1262281958350083e-03 2.3866000101422459e-04
      -1.1309839105047499e-02 8.3436728344900152e-03
      3.0031908478320617e-03 9.4587407047666116e-03
      -1.8366442938761666e-02 -2.0842410110694146e-03
      -1.1966923091662448e-02 1.7659933719151356e-02
      1.0287886906875132e-02 6.7280211201549856e-03
      5.4355619480333586e-03 -9.2729058102797510e-03
      -6.8551959058989901e-03 9.6900285249915310e-03
      -1.0420866483480935e-02 -3.9462743529177563e-03
      1.0071531421898832e-02 1.0837266267338696e-03
      -8.1346527036556572e-03 6.2557564022275927e-03
      -4.1430328701318863e-03 -7.5698464905793877e-03
      -6.8748094650685800e-03 1.5577934238024400e-02
      -2.5297168917923188e-03 3.0491741491371731e-03
      1.0711786116588698e-02 -1.8290294930027731e-02
      5.6459217147227772e-04 -1.0290894621244745e-02
      2.8719552898287880e-02 -2.9400145759739425e-03
      -2.3151076189037924e-02 -5.4155606985673834e-03
      -2.1154786802864423e-02 -2.6743343850661135e-03
      -4.8226801722164571e-04 2.1402935432074440e-03
      -6.7233042094114893e-03 -8.1657772970597439e-03
      -7.9530887962740750e-03 -3.7099034109228032e-03
      -1.2345977302577686e-02 5.2873655609655794e-04
      -7.0682351369889262e-03 3.6312545098919542e-03
      7.9441615200124237e-03 1.2305458888222385e-02
      -1.2998717315259837e-02 8.2035989437321873e-03
      1.2577874810512446e-02 -2.5809937712589284e-03
      -7.3815217064111286e-03 5.7718732301436102e-03
      -6.0980007988521989e-03 9.7781011464679220e-03
      -1.2270558925732008e-02 2.8713974398322903e-03
      -1.2203439452298324e-02 -8.2433303801651599e-03
      1.4909080513364247e-02 -1.6867283564398795e-02
      8.3401732918269526e-03 1.9257894259268701e-02
      -1.2342036841787148e-02 3.5421488936748791e-03
      2.2250460941390334e-03 1.0329758832200192e-02
      -1.3569841406477171e-02 1.0174008667880039e-02
      -6.5055866918118889e-03 1.1634267248257373e-02
      -9.6639525258900381e-03 -2.5653045435382489e-04
      1.4382003804297534e-02 1.4956945312318932e-02
      8.2254993074762708e-03 1.5070789282002010e-02
      -1.0925152708183054e-02 1.8010782314586797e-02
      7.0900432065870841e-03 -9.9334216693794750e-03
      1.3683514741607224e-02 1.4118829660517699e-02
      -1.7053887649364074e-03 -5.4158227120171881e-03
      8.4478511295597893e-03 1.4640244466821628e-02
      1.9610306228126117e-03 4.4456074743872264e-03
      7.3656992469244044e-03 -1.2441116852061956e-02
      2.2044151491927566e-03 -1.1441445482256169e-02
      7.9178136572144557e-03 -1.5213209281736284e-02
      -2.6823423904832780e-03 3.1062653637057361e-03
      1.7108974041940998e-02 3.0689984982746905e-03
      -1.1608346956456976e-02 1.3102943377742182e-02
      -1.3455861113487956e-02 -8.9876987284746631e-03
      7.5878249982784217e-03 -3.2974137227937712e-04
      -7.3464451789616364e-03 -5.4786365297451560e-03
      -1.7495938189064985e-02 6.1656136188002900e-03
      -1.9164700856323434e-03 5.4087510533473290e-03
      3.4249727569214976e-04 1.1048061153264333e-02
      1.1167996537265750e-02 1.1498695767293520e-02
      -8.3283364864221893e-05 -2.6978863643623125e-03
      2.5616986495929895e-04 -1.3435757980265024e-03
      9.7059205947536854e-03 -2.5743003233658519e-04
      -1.3255935019471735e-02 -2.9944437565623317e-03
      -1.7975028463192794e-02 -1.2909800413881975e-02
      7.9276909703768651e-03 -9.0789289974652267e-03
      3.5813062533126190e-03 7.0769511869940667e-03
      -3.5155788969059611e-03 -2.3222152836038252e-03
      -3.8355636050616542e-03 -5.3317433929860854e-03
      -1.0945660976611692e-03 1.2180317097013805e-02
      5.9790035336643810e-03 -3.1501749956788223e-03
      -3.4806187077647695e-03 -8.2029547567635582e-03
      -1.3436929775456729e-02 -5.5463472012112535e-03
      -1.6887693611213209e-03 1.5471533197280608e-02
      7.4017538504904485e-03 1.9841511764479738e-03
      1.0085074212635013e-02 -5.5678432190560826e-03
      -1.3240251063256700e-03 1.3452840570817191e-02
      1.3393541990330025e-02 -3.2010983583420326e-03
      1.0180585787509940e-02 9.0890768243596758e-03
      -1.4421555274802468e-02 -5.2965935018961172e-04
      -1.3891717607483955e-03 -1.2923916982502552e-02
      7.0554722164182810e-03 6.0371755829010708e-03
      -3.5495620264189855e-03 1.0176255725047862e-02
      -7.7349731343651926e-03 -7.7147945311877453e-03
      1.2192928086458780e-03 -1.2638400829809883e-02
      -3.8200902379974819e-03 -4.6833674279119341e-03
      -1.2091189048386740e-02 -9.1753204965448895e-04
      -7.9464027865571232e-03 -8.7255689741727906e-03
      -1.1591405387465606e-02 -8.4616331152390332e-03
      -6.9361459842175004e-04 -2.2897103943309237e-03
      3.2034193883714907e-03 -1.2034360575153924e-02
      -4.1517036795986687e-03 1.2172603803309234e-03
      4.5785765541379508e-03 1.2010974406329950e-02
      -7.5386060993764487e-03 1.2694091114167392e-02
      -1.4553813401251626e-02 3.4724668564115571e-03
      1.0991616538448717e-02 1.7200291613738775e-02
      -5.2381028296780785e-03 -8.6498010278622008e-03
      1.5751138405823812e-03 1.6213851848253049e-02
      -1.5092129867629280e-02 -1.5628465844065485e-02
      1.2341381173008224e-02 1.0228098132701879e-02
      -2.6208626056197400e-03 9.5704846742804515e-03
      -1.6915089975471153e-02 -4.8024107546793052e-03
      7.1914174133911948e-03 -5.0026809673182676e-04
      -3.6156785287276708e-03 1.2464291767176824e-02
      8.7093005173002370e-03 -5.6136185579760871e-03
      4.2138758220894757e-04 -2.3627014451588196e-03
      -1.9128638006165079e-02 -1.0826544723577369e-02
      -1.2135662888056417e-02 2.7109812432672728e-02
      -3.6816497056659657e-03 -1.5256954521993630e-02
      7.5039870479420043e-04 -8.4952172983033935e-03
      -1.4373926969885299e-02 -1.5135946794771053e-03
      -9.5316014782990260e-03 1.1615049499007945e-02
      -1.4363623123643790e-02 -2.2754343393945643e-03
      1.6407957264828372e-03 1.1369608956878141e-02
      1.0129050582801724e-02 -7.1547584605771691e-03
      -9.0765410128324300e-03 -3.1629992847222142e-03
      3.0745335908563243e-03 6.3659649204189043e-04
      1.5125621167482681e-02 -2.2271699968136334e-02
      -1.6341756660282165e-02 2.7781295404396269e-03
      2.3488007029096463e-02 9.5690322640486075e-03
      -1.9228841827323200e-02 -6.6857528644107137e-03
      -3.0899904147796357e-02 1.7158106426120297e-03
      2.9218218066530926e-03 9.6662093000900902e-03
      -2.7570528850766403e-03 -1.3939481523830097e-03
      2.1486129166832811e-02 1.6579706766917113e-02
      -1.4312521267129447e-02 1.7842062760008912e-02
      7.8335625245620614e-04 1.9832132269754436e-02
      -4.5788972370434961e-03 -3.6252531095622054e-03
      1.6827502322768237e-02 -3.8070552029497353e-03
      1.7832356285740807e-02 -1.3767834969742203e-02
      7.6899448590005202e-04 4.9938325537255690e-03
      2.5178753804276153e-03 -5.2982674579308119e-03
      -6.9972776116815974e-03 9.9692637370403839e-04
      5.3467944328298381e-03 7.8346582062590216e-03
      1.5230846108880256e-03 -4.2723002364959831e-03
      -2.6628313274922738e-03 1.7972270128793513e-02
      9.2882681560961036e-03 5.1493598479996948e-03
      -1.2329654828867997e-02 4.6544141420261191e-03
      -1.8862014617485073e-02 1.1711351855853350e-02
      -4.0854185159079678e-03 2.6661104366180358e-02
      7.4641886493228005e-03 -8.8444218476959272e-03
      5.7507196170075159e-03 2.7351645878629746e-02
      8.2511726689157260e-03 -1.3265465575593854e-02
      8.3208779721466748e-03 6.2416631478979384e-03
      1.4989876324979083e-02 -6.9735925301225177e-03
      9.2512603120297691e-04 -7.7145971404190029e-03
      -2.2642979207430493e-03 -4.1379506326045456e-03
      -1.2165582524088043e-02 7.2381004049117629e-03
      -5.6257013666089605e-03 6.3715191412258929e-03
      -1.5878003161589157e-02 -3.4260230033096493e-03
      6.3054822047919293e-03 -1.2100904102137471e-02
      -3.3822047299058669e-03 5.2667019928186063e-03
      -1.0619838880408452e-02 2.9361308631553431e-03
      5.5792475846706477e-03 -3.1135588633123884e-03
      5.9625536021232660e-03 3.6349076713064070e-04
      -2.6717525527914770e-02 -9.2522047380256822e-03
      1.2825541766353664e-02 -1.4500726209274239e-02
      1.0856398097619445e-02 -1.5322357977598716e-02
      2.0338357336718025e-03 -1.4560804184169027e-02
      9.1754890597136405e-03 2.2124098766739785e-03
      -1.2703924730273845e-02 1.9277631337804952e-03
      -1.4844688373603762e-02 -8.6044211125520381e-03
      6.4163464710394354e-04 -9.3339346147162487e-03
      1.9290823414852428e-03 4.6093126581506234e-03
      -1.2097142587129021e-02 8.2762464882758357e-03
      4.7973118279818995e-03 3.3214750616996878e-03
      -9.0643103132693418e-03 -7.4610410479457948e-03
      -4.9572604600917015e-03 5.3255623212483689e-03
      7.4207356111791406e-03 -8.8463277146168858e-03
      9.0474918402806744e-03 -4.2055568382748090e-03
      -1.6002761943839138e-03 -3.3421042920818065e-03
      1.2287146085119620e-02 -4.6766882625200604e-03
      -1.3046144931327924e-02 1.0349378547983675e-02
      -5.5363929670631763e-03 1.0683842333007987e-03
      -1.7833745061602367e-02 4.5903269304473707e-03
      7.7937509398256812e-03 4.8718112505039225e-03
      1.4248190672955120e-03 -4.4774007857911009e-03
      -2.5536223746057476e-03 6.9417613552492869e-03
      -1.2209765414887492e-02 1.3913103342014845e-02
      -7.8986783966332880e-03 -5.3361384986339543e-03
      7.5958168315396349e-03 -2.6966980543887149e-03
      -1.0490144128733385e-02 -2.6329072968568458e-03
      -1.3500513927666390e-02 -8.2310706743476680e-03
      -3.5350171389358378e-03 1.5899485701730310e-04
      8.1313210346542833e-03 -7.9769545625719869e-03
      -3.4757843523448346e-04 -8.2265215598398157e-03
      1.0830753188569371e-03 -5.9572367395336941e-03
      2.2548168062215875e-02 7.3776849376968288e-04
      -1.5595525374333128e-02 1.0248849311680719e-02
      -4.5828500277073523e-03 -7.5855624821155607e-03
      9.0406270025432441e-03 1.0102005302728563e-02
      -1.5365801932941585e-02 -1.0854071859637042e-02
      -5.9352364696659650e-03 7.2438360799014301e-03
      -5.4998787707574107e-03 1.9795654175882682e-03
      -3.9979488586062387e-06 -1.6961857935812914e-03
      1.5836367883739041e-02 -7.5275445430556783e-03
      -1.2661012655081592e-02 1.3596077267648757e-02
      9.9428436966857766e-03 -1.4914997110889228e-02
      1.9107090523426315e-03 -2.1976057414878165e-03
      1.1823258116924506e-02 1.0594443010702352e-02
      -1.1772970079590975e-02 1.4100790914949793e-02
      -1.1237780881372924e-02 -7.1808117144518038e-03
      1.6992256752965244e-03 -1.8735802179519034e-02
      -1.3065674498925919e-02 6.1083832697784871e-03
      -6.5604284298656406e-03 2.1851389599126048e-03
      -4.0682691980993297e-03 1.0456605177732269e-02
      2.4936340659290632e-03 -8.7667217338618739e-03
      8.9127670855779287e-03 1.8270605003164117e-02
      -1.6322947514987855e-02 -8.3320372742925180e-03
      -5.2389112623335687e-03 3.0664765353205000e-02
      -1.5134354621531078e-02 1.2210984298575308e-02
      -2.7634205857975129e-03 2.1529713810213591e-04
      -8.8150831924512871e-03 -5.3528931659240116e-03
      -1.1654771027125718e-02 -3.9448244157722738e-03
      1.0120910735484795e-02 1.1619758060491505e-02
      1.7175660484463136e-03 9.5308875770457758e-03
      7.5047566455043093e-03 -8.8871908407888930e-03
      -1.2032319084426934e-02 -1.2749808847472802e-02
      -9.4828681173559433e-04 7.9538111893006150e-03
      -6.7149727019607322e-03 -5.7296513596603142e-03
      -7.1005938048732363e-03 -1.3621676739655095e-02
      1.9588031415573557e-02 1.0634258674852692e-02
      -3.2453566211815298e-03 1.3870148704178010e-02
      -8.0726693671516522e-03 2.5289816708575878e-03
      -9.7695446568653570e-03 1.3754072144918087e-02
      9.7881967322112975e-03 -1.6594509941126663e-02
      -1.4562153457617914e-03 -9.5683756965164388e-03
      5.2576301860344033e-03 -1.1944996323778849e-02
      4.3958637105946489e-03 -1.1030166212135921e-02
      -7.7571195368362849e-04 9.6868098620698055e-03
      8.6415294322840352e-03 1.1456993380759371e-02
      1.1300130703760696e-03 -3.4048129517259031e-03
      -1.2837637111604062e-02 -7.6441313486446862e-03
      -5.2625965037877065e-04 -3.0432262683158561e-03
      -1.5015132236042409e-03 8.9074697844487606e-03
      -9.7499027805530106e-03 7.6242796894196527e-03
      -6.7273340775803958e-03 -1.0668801357832236e-02
      -2.2532462569246985e-03 1.6269274456362004e-02
      7.4789953613710776e-03 1.3724443710469452e-02
      -4.0811130022648141e-03 -9.0642315960783228e-03
      5.4708191434760358e-03 1.2127263168808126e-02
      1.0491058400600972e-02 -9.3967619130015710e-04
      -1.7327692219240451e-02 1.1615537151638005e-02
      7.1465519089193878e-03 1.0156274414936236e-02
      -1.4638086847665342e-02 -1.2767690391149148e-02
      3.7975216675280562e-03 2.2443359383378580e-03
